{"learner":{"attributes":{"best_iteration":"191","best_score":"1.832935124059247"},"feature_names":["dept_id","cat_id","state_id","wday","month","year","mday","week","quarter","is_weekend","is_snap","is_event_1","is_event_2","event_type_cultural","event_type_national","event_type_religious","event_type_sporting","price_max","price_min","price_std","price_momentum","price_pct_change","price_norm","lag_7","lag_14","lag_21","lag_28","lag_56","rmean_7_7","rstd_7_7","rmean_7_14","rstd_7_14","rmean_7_28","rstd_7_28","rmean_28_7","rstd_28_7","rmean_28_14","rstd_28_14","rmean_28_28","rstd_28_28"],"feature_types":["int","int","int","int","int","int","int","int","int","int","int","int","int","int","int","int","int","float","float","float","float","float","float","float","float","float","float","float","float","float","float","float","float","float","float","float","float","float","float","float"],"gradient_booster":{"model":{"cats":{"enc":[],"feature_segments":[],"sorted_idx":[]},"gbtree_model_param":{"num_parallel_tree":"1","num_trees":"267"},"iteration_indptr":[0,1,2,3,4,5,6,7,8,9,10,11,12,13,14,15,16,17,18,19,20,21,22,23,24,25,26,27,28,29,30,31,32,33,34,35,36,37,38,39,40,41,42,43,44,45,46,47,48,49,50,51,52,53,54,55,56,57,58,59,60,61,62,63,64,65,66,67,68,69,70,71,72,73,74,75,76,77,78,79,80,81,82,83,84,85,86,87,88,89,90,91,92,93,94,95,96,97,98,99,100,101,102,103,104,105,106,107,108,109,110,111,112,113,114,115,116,117,118,119,120,121,122,123,124,125,126,127,128,129,130,131,132,133,134,135,136,137,138,139,140,141,142,143,144,145,146,147,148,149,150,151,152,153,154,155,156,157,158,159,160,161,162,163,164,165,166,167,168,169,170,171,172,173,174,175,176,177,178,179,180,181,182,183,184,185,186,187,188,189,190,191,192,193,194,195,196,197,198,199,200,201,202,203,204,205,206,207,208,209,210,211,212,213,214,215,216,217,218,219,220,221,222,223,224,225,226,227,228,229,230,231,232,233,234,235,236,237,238,239,240,241,242,243,244,245,246,247,248,249,250,251,252,253,254,255,256,257,258,259,260,261,262,263,264,265,266,267],"tree_info":[0,0,0,0,0,0,0,0,0,0,0,0,0,0,0,0,0,0,0,0,0,0,0,0,0,0,0,0,0,0,0,0,0,0,0,0,0,0,0,0,0,0,0,0,0,0,0,0,0,0,0,0,0,0,0,0,0,0,0,0,0,0,0,0,0,0,0,0,0,0,0,0,0,0,0,0,0,0,0,0,0,0,0,0,0,0,0,0,0,0,0,0,0,0,0,0,0,0,0,0,0,0,0,0,0,0,0,0,0,0,0,0,0,0,0,0,0,0,0,0,0,0,0,0,0,0,0,0,0,0,0,0,0,0,0,0,0,0,0,0,0,0,0,0,0,0,0,0,0,0,0,0,0,0,0,0,0,0,0,0,0,0,0,0,0,0,0,0,0,0,0,0,0,0,0,0,0,0,0,0,0,0,0,0,0,0,0,0,0,0,0,0,0,0,0,0,0,0,0,0,0,0,0,0,0,0,0,0,0,0,0,0,0,0,0,0,0,0,0,0,0,0,0,0,0,0,0,0,0,0,0,0,0,0,0,0,0,0,0,0,0,0,0,0,0,0,0,0,0,0,0,0,0,0,0,0,0,0,0,0,0,0,0,0,0,0,0],"trees":[{"base_weights":[-2.1364774E-4,-5.625071E-1,3.085467E0,-8.657594E-1,3.0516326E-1,2.1640024E0,4.658936E0,-1.0459881E0,-5.8965254E-1,2.0748049E-2,7.7694196E-1,1.7126956E0,2.8122854E0,4.1504197E0,5.6993966E0,-1.1182543E0,-9.3181574E-1,-7.1335566E-1,-4.3714604E-1,-1.3262472E-1,2.1573961E-1,6.457035E-1,1.1170088E0,1.4827944E0,2.003742E0,2.489059E0,3.0910146E0,3.7943623E0,4.5351577E0,5.3696995E0,6.024952E0,-1.1202972E0,3.7372098E0,-9.7893625E-1,-8.717458E-1,-3.5765222E-1,-7.3552036E-1,-4.645656E-1,-7.970069E-2,-1.5416591E-1,6.5068525E-1,1.9415903E-1,1.3055557E0,5.334574E-1,9.084922E-1,1.0598453E0,2.1484404E0,1.3444664E0,1.7971944E0,1.8497999E0,2.3494377E0,2.3293455E0,2.8398335E0,2.9150524E0,3.4624057E0,3.620385E0,4.1473527E0,4.391413E0,4.823693E0,5.1485915E0,5.5500603E0,5.7504773E0,6.105528E0,-3.3690352E-2,-1.6405208E-2,-3.4471784E-2,1.3476983E-1,-2.9441027E-2,2.3633467E-2,-2.6864674E-2,-2.3318464E-2,-1.5349315E-2,6.2832213E-3,-2.396749E-2,-1.9884266E-2,-1.5494815E-2,-1.0145944E-2,5.80961E-3,-8.591703E-3,-6.798786E-3,6.042492E-4,1.1607048E-2,3.5432264E-2,3.115222E-3,1.2285897E-2,3.2546595E-2,6.879561E-2,1.2468684E-2,2.2270853E-2,2.3192752E-2,3.3492245E-2,2.7870918E-2,4.0857557E-2,7.4990325E-2,4.694353E-2,3.645261E-2,4.5999162E-2,5.0916262E-2,6.258158E-2,5.4165415E-2,7.946209E-2,6.8440914E-2,9.2044614E-2,6.9263205E-2,1.04170054E-1,8.048852E-2,8.9619964E-2,8.435512E-2,9.5992096E-2,9.785669E-2,1.0918108E-1,1.01777315E-1,1.1366362E-1,1.1773195E-1,1.2926076E-1,1.2488704E-1,1.370133E-1,1.3924256E-1,1.5057518E-1,1.17867574E-1,1.5560408E-1,1.6294323E-1,1.7189108E-1,1.6734385E-1,1.7578302E-1,1.802144E-1,1.8545796E-1],"categories":[],"categories_nodes":[],"categories_segments":[],"categories_sizes":[],"default_left":[0,0,0,0,0,0,0,0,0,0,0,0,0,0,0,0,0,0,0,0,0,0,0,0,0,0,0,0,0,0,0,0,0,0,0,0,0,0,0,0,0,0,0,0,0,0,0,0,0,0,0,0,0,0,0,0,0,0,0,0,0,0,0,0,0,0,0,0,0,0,0,0,0,0,0,0,0,0,0,0,0,0,0,0,0,0,0,0,0,0,0,0,0,0,0,0,0,0,0,0,0,0,0,0,0,0,0,0,0,0,0,0,0,0,0,0,0,0,0,0,0,0,0,0,0,0,0],"id":0,"left_children":[1,3,5,7,9,11,13,15,17,19,21,23,25,27,29,31,33,35,37,39,41,43,45,47,49,51,53,55,57,59,61,63,65,67,69,71,73,75,77,79,81,83,85,87,89,91,93,95,97,99,101,103,105,107,109,111,113,115,117,119,121,123,125,-1,-1,-1,-1,-1,-1,-1,-1,-1,-1,-1,-1,-1,-1,-1,-1,-1,-1,-1,-1,-1,-1,-1,-1,-1,-1,-1,-1,-1,-1,-1,-1,-1,-1,-1,-1,-1,-1,-1,-1,-1,-1,-1,-1,-1,-1,-1,-1,-1,-1,-1,-1,-1,-1,-1,-1,-1,-1,-1,-1,-1,-1,-1,-1],"loss_changes":[8.866382E6,1.137341E6,1.1420215E6,1.593885E5,1.5020998E5,1.453315E5,1.538825E5,1.5988E4,2.386475E4,2.0887154E4,1.878989E4,1.9592125E4,1.835625E4,2.674275E4,1.020075E4,1.1777625E4,2.1248125E3,5.5062812E3,5.5527344E3,6.596404E3,7.2312686E3,8.960453E3,6.908797E3,7.1125E3,6.8711562E3,5.2789375E3,7.1381875E3,6.210125E3,3.8625E3,1.84875E3,1.008625E3,1.845625E3,1.8508462E3,1.8094375E3,7.394844E2,3.5783047E3,3.0298438E3,3.4525469E3,2.280766E3,4.805463E3,1.4630239E3,5.865038E3,1.2971025E3,5.23975E3,2.5582344E3,4.387547E3,1.2554902E3,2.7734219E3,1.4381562E3,3.156625E3,1.9369844E3,1.5130312E3,6.7075E2,2.16875E3,1.2299375E3,2.5888125E3,1.17875E3,2.488125E3,1.07625E3,9.6325E2,5.08875E2,1.5503125E2,2.22E2,0E0,0E0,0E0,0E0,0E0,0E0,0E0,0E0,0E0,0E0,0E0,0E0,0E0,0E0,0E0,0E0,0E0,0E0,0E0,0E0,0E0,0E0,0E0,0E0,0E0,0E0,0E0,0E0,0E0,0E0,0E0,0E0,0E0,0E0,0E0,0E0,0E0,0E0,0E0,0E0,0E0,0E0,0E0,0E0,0E0,0E0,0E0,0E0,0E0,0E0,0E0,0E0,0E0,0E0,0E0,0E0,0E0,0E0,0E0,0E0,0E0,0E0,0E0,0E0],"parents":[2147483647,0,0,1,1,2,2,3,3,4,4,5,5,6,6,7,7,8,8,9,9,10,10,11,11,12,12,13,13,14,14,15,15,16,16,17,17,18,18,19,19,20,20,21,21,22,22,23,23,24,24,25,25,26,26,27,27,28,28,29,29,30,30,31,31,32,32,33,33,34,34,35,35,36,36,37,37,38,38,39,39,40,40,41,41,42,42,43,43,44,44,45,45,46,46,47,47,48,48,49,49,50,50,51,51,52,52,53,53,54,54,55,55,56,56,57,57,58,58,59,59,60,60,61,61,62,62],"right_children":[2,4,6,8,10,12,14,16,18,20,22,24,26,28,30,32,34,36,38,40,42,44,46,48,50,52,54,56,58,60,62,64,66,68,70,72,74,76,78,80,82,84,86,88,90,92,94,96,98,100,102,104,106,108,110,112,114,116,118,120,122,124,126,-1,-1,-1,-1,-1,-1,-1,-1,-1,-1,-1,-1,-1,-1,-1,-1,-1,-1,-1,-1,-1,-1,-1,-1,-1,-1,-1,-1,-1,-1,-1,-1,-1,-1,-1,-1,-1,-1,-1,-1,-1,-1,-1,-1,-1,-1,-1,-1,-1,-1,-1,-1,-1,-1,-1,-1,-1,-1,-1,-1,-1,-1,-1,-1],"split_conditions":[3.2142856E0,9.285714E-1,1.0464286E1,5.587211E-1,1.8214285E0,5.678571E0,2.9142857E1,3.5714287E-2,5.714286E-1,1.3214285E0,2.7857144E0,4.357143E0,7.285714E0,1.6E1,5.6E1,9.196273E0,4.258153E-1,1.8898223E-1,1.1428572E0,1.8571428E0,2.642857E0,5E0,4.357143E0,5E0,5E0,5E0,5E0,5E0,5E0,3.2E1,6.3E1,2.4102955E0,9.6E-1,4.0229173E0,6.341265E-1,1.2688144E0,4.2857143E-1,5E0,3.7796447E-1,5E0,2.1663613E0,5E0,3.5758967E0,2.357143E0,2.3214285E0,5E0,1.4285715E-1,3.892857E0,4.178571E0,7.142857E0,6.714286E0,1.0928572E1,6.357143E0,9.857142E0,8.571428E0,1.2285714E1,1.2285714E1,1.9607143E1,2.0428572E1,1.9798912E-3,4.9E1,5.1E1,9.3E1,-3.3690352E-2,-1.6405208E-2,-3.4471784E-2,1.3476983E-1,-2.9441027E-2,2.3633467E-2,-2.6864674E-2,-2.3318464E-2,-1.5349315E-2,6.2832213E-3,-2.396749E-2,-1.9884266E-2,-1.5494815E-2,-1.0145944E-2,5.80961E-3,-8.591703E-3,-6.798786E-3,6.042492E-4,1.1607048E-2,3.5432264E-2,3.115222E-3,1.2285897E-2,3.2546595E-2,6.879561E-2,1.2468684E-2,2.2270853E-2,2.3192752E-2,3.3492245E-2,2.7870918E-2,4.0857557E-2,7.4990325E-2,4.694353E-2,3.645261E-2,4.5999162E-2,5.0916262E-2,6.258158E-2,5.4165415E-2,7.946209E-2,6.8440914E-2,9.2044614E-2,6.9263205E-2,1.04170054E-1,8.048852E-2,8.9619964E-2,8.435512E-2,9.5992096E-2,9.785669E-2,1.0918108E-1,1.01777315E-1,1.1366362E-1,1.1773195E-1,1.2926076E-1,1.2488704E-1,1.370133E-1,1.3924256E-1,1.5057518E-1,1.17867574E-1,1.5560408E-1,1.6294323E-1,1.7189108E-1,1.6734385E-1,1.7578302E-1,1.802144E-1,1.8545796E-1],"split_indices":[32,32,32,33,32,32,30,32,32,32,30,30,32,32,26,37,31,39,30,30,30,3,30,3,3,3,3,3,3,27,24,39,18,39,39,31,32,3,35,3,33,3,33,32,32,3,34,32,32,30,30,30,32,30,32,30,30,32,30,19,24,27,24,0,0,0,0,0,0,0,0,0,0,0,0,0,0,0,0,0,0,0,0,0,0,0,0,0,0,0,0,0,0,0,0,0,0,0,0,0,0,0,0,0,0,0,0,0,0,0,0,0,0,0,0,0,0,0,0,0,0,0,0,0,0,0,0],"split_type":[0,0,0,0,0,0,0,0,0,0,0,0,0,0,0,0,0,0,0,0,0,0,0,0,0,0,0,0,0,0,0,0,0,0,0,0,0,0,0,0,0,0,0,0,0,0,0,0,0,0,0,0,0,0,0,0,0,0,0,0,0,0,0,0,0,0,0,0,0,0,0,0,0,0,0,0,0,0,0,0,0,0,0,0,0,0,0,0,0,0,0,0,0,0,0,0,0,0,0,0,0,0,0,0,0,0,0,0,0,0,0,0,0,0,0,0,0,0,0,0,0,0,0,0,0,0,0],"sum_hessian":[5.1101325E6,4.3224655E6,7.876674E5,3.2030085E6,1.1194569E6,4.96757E5,2.9091038E5,1.9379849E6,1.2650235E6,6.9841444E5,4.2104244E5,2.9287534E5,2.0388164E5,1.9541203E5,9.5498336E4,1.1867858E6,7.511991E5,6.984673E5,5.6655625E5,3.909267E5,3.0748772E5,3.038034E5,1.1723902E5,1.6363081E5,1.2924454E5,9.441231E4,1.09469336E5,1.014974E5,9.391464E4,4.7460523E4,4.803781E4,1.1862879E6,4.9793466E2,4.209611E5,3.3023803E5,4.097199E4,6.574953E5,5.2619144E5,4.0364797E4,3.8046512E5,1.0461545E4,3.015189E5,5.9688306E3,2.1287994E5,9.092348E4,1.1108562E5,6.153401E3,1.1364021E5,4.99906E4,8.943014E4,3.9814395E4,6.4882133E4,2.9530182E4,7.428648E4,3.518286E4,6.799975E4,3.349765E4,6.2701965E4,3.1212676E4,2.134193E4,2.6118592E4,1.0926723E4,3.7111086E4,1.1806971E6,5.5907764E3,6.652769E1,4.3140695E2,4.2038328E5,5.7781415E2,2.6389462E5,6.634341E4,3.222245E4,8.749542E3,3.5123912E5,3.0625616E5,3.7293544E5,1.5325598E5,1.7379447E4,2.2985348E4,2.687464E5,1.11718734E5,6.988617E3,3.472928E3,2.1243464E5,8.908426E4,4.881412E3,1.0874186E3,1.3611048E5,7.676946E4,5.5068777E4,3.5854695E4,7.752107E4,3.356455E4,3.8384006E3,2.3150002E3,6.744398E4,4.6196234E4,3.714416E4,1.2846443E4,8.473803E4,4.6921113E3,3.6375465E4,3.4389304E3,6.373955E4,1.1425804E3,1.4324163E4,1.520602E4,5.4532035E4,1.9754438E4,1.6507785E4,1.8675076E4,2.8915873E4,3.9083875E4,1.4079619E4,1.9418031E4,2.727092E4,3.5431043E4,1.617141E4,1.5041265E4,6.5312524E2,2.0688805E4,1.5759736E4,1.0358856E4,4.262889E3,6.6638335E3,1.6275182E4,2.0835904E4],"tree_param":{"num_deleted":"0","num_feature":"40","num_nodes":"127","size_leaf_vector":"1"}},{"base_weights":[7.837502E-5,-5.4335654E-1,2.9746501E0,-8.5452986E-1,2.941704E-1,2.1020467E0,4.493837E0,-1.041866E0,-5.680684E-1,9.370712E-3,7.552957E-1,1.6524645E0,2.6668339E0,3.9697328E0,5.5477157E0,-1.1071895E0,-9.072039E-1,-6.6256046E-1,-3.1843892E-1,-1.3031447E-1,3.0840155E-1,5.714232E-1,1.0828714E0,1.4128214E0,1.9417608E0,2.4324238E0,3.035418E0,3.6324856E0,4.348139E0,5.122687E0,5.888345E0,-1.1089797E0,3.647253E0,-9.386648E-1,-7.9868674E-1,-7.3666406E-1,-5.4323757E-1,-3.5023656E-1,1.5230324E0,-2.2950935E-1,1.7565712E-2,2.7576116E-1,1.1666002E0,4.6580005E-1,8.1674546E-1,9.6469945E-1,1.3554714E0,1.2855437E0,1.704168E0,1.7973919E0,2.263956E0,2.2471576E0,2.7768748E0,2.8789043E0,3.3676062E0,3.463146E0,3.9828486E0,4.067618E0,4.578014E0,4.8243833E0,5.287041E0,5.6577783E0,6.0178924E0,-2.8938914E-2,-3.450439E-2,-1.6104585E-2,1.2694982E-1,-2.470814E-2,-2.8691137E-2,-2.4043217E-2,6.488318E-3,-2.3530416E-2,-1.9849671E-2,-1.7649088E-2,-1.30082E-2,-1.43722985E-2,-8.278698E-3,3.202605E-2,1.2081452E-1,-8.896541E-3,-2.0491378E-3,-1.8181427E-3,6.1040493E-3,5.497724E-3,1.48174865E-2,3.0360695E-2,9.176784E-2,1.0849824E-2,2.0251045E-2,2.0689387E-2,3.060134E-2,2.5233168E-2,3.637127E-2,3.653003E-2,4.7606222E-2,3.624151E-2,4.8307855E-2,4.75658E-2,5.861264E-2,5.2933507E-2,7.958752E-2,6.538605E-2,8.333351E-2,6.277699E-2,7.217772E-2,7.8104995E-2,9.148187E-2,7.885228E-2,9.041984E-2,8.932171E-2,1.04194574E-1,9.818714E-2,1.1113698E-1,1.1325966E-1,1.24413654E-1,1.1760739E-1,1.2849677E-1,1.326021E-1,1.4320785E-1,6.639897E-2,1.4543228E-1,1.5358989E-1,1.6285478E-1,1.6564533E-1,1.737446E-1,1.7673707E-1,1.8325767E-1],"categories":[],"categories_nodes":[],"categories_segments":[],"categories_sizes":[],"default_left":[0,0,0,0,0,0,0,0,0,0,0,0,0,0,0,0,0,0,0,0,0,0,0,0,0,0,0,0,0,0,0,0,0,0,0,0,0,0,0,0,0,0,0,0,0,0,0,0,0,0,0,0,0,0,0,0,0,0,0,0,0,0,0,0,0,0,0,0,0,0,0,0,0,0,0,0,0,0,0,0,0,0,0,0,0,0,0,0,0,0,0,0,0,0,0,0,0,0,0,0,0,0,0,0,0,0,0,0,0,0,0,0,0,0,0,0,0,0,0,0,0,0,0,0,0,0,0],"id":1,"left_children":[1,3,5,7,9,11,13,15,17,19,21,23,25,27,29,31,33,35,37,39,41,43,45,47,49,51,53,55,57,59,61,63,65,67,69,71,73,75,77,79,81,83,85,87,89,91,93,95,97,99,101,103,105,107,109,111,113,115,117,119,121,123,125,-1,-1,-1,-1,-1,-1,-1,-1,-1,-1,-1,-1,-1,-1,-1,-1,-1,-1,-1,-1,-1,-1,-1,-1,-1,-1,-1,-1,-1,-1,-1,-1,-1,-1,-1,-1,-1,-1,-1,-1,-1,-1,-1,-1,-1,-1,-1,-1,-1,-1,-1,-1,-1,-1,-1,-1,-1,-1,-1,-1,-1,-1,-1,-1],"loss_changes":[8.190666E6,1.1165452E6,1.037576E6,1.6763E5,1.5241556E5,1.26229E5,1.576895E5,1.66115E4,2.9132844E4,2.9968379E4,2.6688594E4,1.9186312E4,1.902575E4,2.43145E4,1.368425E4,1.083E4,2.104875E3,7.9214062E3,1.9859102E4,7.1734805E3,6.398301E3,7.3533438E3,5.1295625E3,5.61075E3,5.826875E3,8.5855E3,4.438E3,5.962125E3,5.766125E3,2.029875E3,1.52E3,7.552125E3,1.1749995E3,9.7296875E2,3.878828E2,1.9758438E3,1.6953672E3,3.1903398E3,6.5595967E3,3.1632002E3,2.8531511E3,4.440799E3,2.4430605E3,4.3225273E3,2.2058477E3,3.4002266E3,1.5328906E3,2.6484844E3,1.3579375E3,2.4334375E3,1.6734531E3,2.141875E3,2.213E3,1.9580312E3,1.11325E3,3.1043125E3,1.0955938E3,1.2605E3,1.4928125E3,8.986875E2,6.0125E2,2.96375E2,3.3175E2,0E0,0E0,0E0,0E0,0E0,0E0,0E0,0E0,0E0,0E0,0E0,0E0,0E0,0E0,0E0,0E0,0E0,0E0,0E0,0E0,0E0,0E0,0E0,0E0,0E0,0E0,0E0,0E0,0E0,0E0,0E0,0E0,0E0,0E0,0E0,0E0,0E0,0E0,0E0,0E0,0E0,0E0,0E0,0E0,0E0,0E0,0E0,0E0,0E0,0E0,0E0,0E0,0E0,0E0,0E0,0E0,0E0,0E0,0E0,0E0,0E0,0E0,0E0,0E0],"parents":[2147483647,0,0,1,1,2,2,3,3,4,4,5,5,6,6,7,7,8,8,9,9,10,10,11,11,12,12,13,13,14,14,15,15,16,16,17,17,18,18,19,19,20,20,21,21,22,22,23,23,24,24,25,25,26,26,27,27,28,28,29,29,30,30,31,31,32,32,33,33,34,34,35,35,36,36,37,37,38,38,39,39,40,40,41,41,42,42,43,43,44,44,45,45,46,46,47,47,48,48,49,49,50,50,51,51,52,52,53,53,54,54,55,55,56,56,57,57,58,58,59,59,60,60,61,61,62,62],"right_children":[2,4,6,8,10,12,14,16,18,20,22,24,26,28,30,32,34,36,38,40,42,44,46,48,50,52,54,56,58,60,62,64,66,68,70,72,74,76,78,80,82,84,86,88,90,92,94,96,98,100,102,104,106,108,110,112,114,116,118,120,122,124,126,-1,-1,-1,-1,-1,-1,-1,-1,-1,-1,-1,-1,-1,-1,-1,-1,-1,-1,-1,-1,-1,-1,-1,-1,-1,-1,-1,-1,-1,-1,-1,-1,-1,-1,-1,-1,-1,-1,-1,-1,-1,-1,-1,-1,-1,-1,-1,-1,-1,-1,-1,-1,-1,-1,-1,-1,-1,-1,-1,-1,-1,-1,-1,-1],"split_conditions":[3.357143E0,9.285714E-1,1.0928572E1,5.587211E-1,1.8571428E0,5.714286E0,2.9142857E1,7.1428575E-2,7.8571427E-1,1.4642857E0,2.607143E0,4.178571E0,7.928571E0,1.6714285E1,5.3E1,1.1785714E1,3.2142857E-1,5.714286E-1,5.4447684E0,1.2857143E0,3.7857144E0,5E0,5E0,5E0,5E0,9E0,5E0,5E0,2E1,3.1E1,7E1,9.5306915E-1,3E0,3.5714287E-2,1.8571428E0,4.642857E-1,5E0,5.714286E-1,1.5140043E1,5E0,5E0,5E0,4.3479605E0,2.5E0,2.4285715E0,3.642857E0,3.5357144E0,5.142857E0,4.357143E0,1.05E1,7.321429E0,5.714286E0,8.857142E0,7.714286E0,6.857143E0,1.3285714E1,1.1785714E1,1.9678572E1,5E0,9.714286E0,3.8E1,5.6E1,9.2E1,-2.8938914E-2,-3.450439E-2,-1.6104585E-2,1.2694982E-1,-2.470814E-2,-2.8691137E-2,-2.4043217E-2,6.488318E-3,-2.3530416E-2,-1.9849671E-2,-1.7649088E-2,-1.30082E-2,-1.43722985E-2,-8.278698E-3,3.202605E-2,1.2081452E-1,-8.896541E-3,-2.0491378E-3,-1.8181427E-3,6.1040493E-3,5.497724E-3,1.48174865E-2,3.0360695E-2,9.176784E-2,1.0849824E-2,2.0251045E-2,2.0689387E-2,3.060134E-2,2.5233168E-2,3.637127E-2,3.653003E-2,4.7606222E-2,3.624151E-2,4.8307855E-2,4.75658E-2,5.861264E-2,5.2933507E-2,7.958752E-2,6.538605E-2,8.333351E-2,6.277699E-2,7.217772E-2,7.8104995E-2,9.148187E-2,7.885228E-2,9.041984E-2,8.932171E-2,1.04194574E-1,9.818714E-2,1.1113698E-1,1.1325966E-1,1.24413654E-1,1.1760739E-1,1.2849677E-1,1.326021E-1,1.4320785E-1,6.639897E-2,1.4543228E-1,1.5358989E-1,1.6285478E-1,1.6564533E-1,1.737446E-1,1.7673707E-1,1.8325767E-1],"split_indices":[30,30,30,33,30,30,30,30,38,38,38,38,38,30,23,38,38,30,39,30,38,3,3,3,3,23,3,3,23,23,24,22,5,38,38,38,3,30,39,3,3,3,29,30,30,38,38,28,30,38,38,38,28,28,28,34,38,38,3,28,26,26,23,0,0,0,0,0,0,0,0,0,0,0,0,0,0,0,0,0,0,0,0,0,0,0,0,0,0,0,0,0,0,0,0,0,0,0,0,0,0,0,0,0,0,0,0,0,0,0,0,0,0,0,0,0,0,0,0,0,0,0,0,0,0,0,0],"split_type":[0,0,0,0,0,0,0,0,0,0,0,0,0,0,0,0,0,0,0,0,0,0,0,0,0,0,0,0,0,0,0,0,0,0,0,0,0,0,0,0,0,0,0,0,0,0,0,0,0,0,0,0,0,0,0,0,0,0,0,0,0,0,0,0,0,0,0,0,0,0,0,0,0,0,0,0,0,0,0,0,0,0,0,0,0,0,0,0,0,0,0,0,0,0,0,0,0,0,0,0,0,0,0,0,0,0,0,0,0,0,0,0,0,0,0,0,0,0,0,0,0,0,0,0,0,0,0],"sum_hessian":[5.066954E6,4.2842505E6,7.8270344E5,3.1236828E6,1.1605678E6,4.9714988E5,2.8555356E5,1.8885988E6,1.2350841E6,7.174554E5,4.431123E5,2.7680966E5,2.2034023E5,1.9071594E5,9.483763E4,1.2716964E6,6.169023E5,8.959413E5,3.3914275E5,4.8902122E5,2.2843419E5,2.8381034E5,1.5930197E5,1.5140234E5,1.25407305E5,1.3469155E5,8.564869E4,1.0085077E5,8.986516E4,4.220261E4,5.2635027E4,1.2712189E6,4.7748776E2,4.7824025E5,1.3866205E5,5.5269206E5,3.4324925E5,3.3338725E5,5.7555073E3,2.926905E5,1.9633072E5,2.2006636E5,8.367818E3,1.9839602E5,8.541434E4,1.11133E5,4.816897E4,1.0537618E5,4.602617E4,8.660956E4,3.879774E4,8.75913E4,4.7100254E4,5.8228555E4,2.7420129E4,6.80008E4,3.2849977E4,4.0486867E4,4.9378293E4,1.5008423E4,2.7194186E4,1.8959338E4,3.367569E4,2.8209638E5,9.8912256E5,5.8513172E1,4.189746E2,6.3790746E4,4.144495E5,1.3828727E5,3.7478918E2,3.378827E5,2.148094E5,2.4325017E5,9.999908E4,1.2191457E5,2.1147267E5,4.871554E3,8.83953E2,2.0671836E5,8.597213E4,1.3821356E5,5.8117164E4,1.5454028E5,6.5526074E4,7.73808E3,6.2973883E2,1.3246888E5,6.592714E4,5.2561105E4,3.285324E4,7.4142086E4,3.6990914E4,3.0196395E4,1.7972574E4,8.5079516E4,2.0296658E4,3.1204512E4,1.4821661E4,8.340288E4,3.2066855E3,3.3329773E4,5.4679663E3,4.439032E4,4.3200977E4,2.8796457E4,1.8303797E4,2.041147E4,3.7817086E4,5.847207E3,2.1572922E4,3.8044027E4,2.9956768E4,1.4530335E4,1.8319643E4,2.4066379E4,1.6420488E4,2.7337463E4,2.204083E4,1.3438844E2,1.4874034E4,1.2481477E4,1.4712708E4,9.421617E3,9.537721E3,1.4093869E4,1.958182E4],"tree_param":{"num_deleted":"0","num_feature":"40","num_nodes":"127","size_leaf_vector":"1"}},{"base_weights":[-1.2507712E-3,-5.537789E-1,2.733339E0,-8.7763166E-1,2.0323259E-1,1.9037443E0,4.254295E0,-1.0424641E0,-6.126647E-1,-6.137637E-2,6.4885986E-1,1.5094261E0,2.4998326E0,3.7296185E0,5.3874774E0,-1.1143379E0,-9.2445606E-1,-7.149858E-1,-4.7789735E-1,-2.0593646E-1,1.259645E-1,4.7551543E-1,8.652972E-1,1.3095058E0,1.7878845E0,2.315776E0,2.8984575E0,3.365613E0,4.10424E0,4.92332E0,5.758596E0,-1.1162192E0,2.901128E0,-9.6004707E-1,-8.4919167E-1,-7.285493E-1,1.2702546E-1,-4.893666E-1,7.622767E-1,-2.173725E-1,1.4709414E0,1.1319221E-1,2.1195548E0,4.622089E-1,2.3127728E0,7.487472E-1,1.1308079E0,1.1925321E0,1.5749685E0,1.729483E0,2.6311984E0,2.105478E0,2.5517614E0,2.761404E0,3.2048557E0,3.2037177E0,3.7335663E0,3.8807192E0,4.425935E0,4.6007433E0,5.0987096E0,5.453526E0,5.890932E0,-2.8494136E-2,-3.47091E-2,2.9575767E-2,1.3747455E-1,2.1294344E-2,-2.8846806E-2,-2.3052102E-2,-2.6443146E-2,-2.2111408E-2,-1.1261244E-2,1.5496367E-4,4.3301873E-2,-1.611755E-2,-1.1194328E-2,1.666682E-2,6.277405E-2,-8.459282E-3,-1.8618001E-3,3.35539E-2,7.151633E-2,9.5517666E-4,9.145723E-3,5.453967E-2,1.14202045E-1,1.1004199E-2,2.0558834E-2,5.894338E-2,1.0845499E-1,2.1876218E-2,5.935939E-2,3.3222735E-2,8.895449E-2,3.3056814E-2,4.2451825E-2,4.380555E-2,5.3148147E-2,4.7937386E-2,6.0771883E-2,6.9531694E-2,9.787534E-2,5.975777E-2,7.226141E-2,7.354705E-2,8.590344E-2,7.729834E-2,8.9448E-2,9.485327E-2,1.4179891E-1,9.310546E-2,1.0497618E-1,9.463599E-2,1.1362328E-1,1.11478984E-1,1.2249593E-1,1.2852369E-1,1.3959046E-1,1.3914636E-1,9.4957374E-2,1.4788911E-1,1.5826447E-1,1.599018E-1,1.6981077E-1,1.728516E-1,1.8014675E-1],"categories":[],"categories_nodes":[],"categories_segments":[],"categories_sizes":[],"default_left":[0,0,0,0,0,0,0,0,0,0,0,0,0,0,0,0,0,0,0,0,0,0,0,0,0,0,0,0,0,0,0,0,0,0,0,0,0,0,0,0,0,0,0,0,0,0,0,0,0,0,0,0,0,0,0,0,0,0,0,0,0,0,0,0,0,0,0,0,0,0,0,0,0,0,0,0,0,0,0,0,0,0,0,0,0,0,0,0,0,0,0,0,0,0,0,0,0,0,0,0,0,0,0,0,0,0,0,0,0,0,0,0,0,0,0,0,0,0,0,0,0,0,0,0,0,0,0],"id":2,"left_children":[1,3,5,7,9,11,13,15,17,19,21,23,25,27,29,31,33,35,37,39,41,43,45,47,49,51,53,55,57,59,61,63,65,67,69,71,73,75,77,79,81,83,85,87,89,91,93,95,97,99,101,103,105,107,109,111,113,115,117,119,121,123,125,-1,-1,-1,-1,-1,-1,-1,-1,-1,-1,-1,-1,-1,-1,-1,-1,-1,-1,-1,-1,-1,-1,-1,-1,-1,-1,-1,-1,-1,-1,-1,-1,-1,-1,-1,-1,-1,-1,-1,-1,-1,-1,-1,-1,-1,-1,-1,-1,-1,-1,-1,-1,-1,-1,-1,-1,-1,-1,-1,-1,-1,-1,-1,-1],"loss_changes":[7.5912785E6,1.024697E6,1.065577E6,1.27852E5,1.4767222E5,1.28438E5,1.771815E5,1.5304875E4,1.5480594E4,2.1280096E4,1.7504406E4,1.8305688E4,1.5951875E4,2.776075E4,1.62045E4,8.477125E3,1.8285E3,7.2883125E3,6.8923125E3,8.50574E3,8.713803E3,6.332082E3,6.4195625E3,5.9419062E3,6.7620312E3,7.378375E3,2.8718125E3,6.13725E3,7.192625E3,2.3355E3,2.066375E3,7.600625E3,1.6852334E3,1.1729688E3,5.702031E2,1.8843438E3,1.6228835E3,2.6714375E3,1.2189663E3,4.42001E3,9.62438E2,5.302418E3,1.0974854E3,5.473965E3,8.329287E2,3.4630312E3,2.7095469E3,2.6779688E3,1.3173906E3,5.0051875E3,1.7492109E3,2.7028125E3,2.1790938E3,1.9203438E3,1.3684844E3,2.1081875E3,9.6609375E2,1.9529375E3,1.29425E3,7.721875E2,7.71125E2,3.590625E2,4.85E2,0E0,0E0,0E0,0E0,0E0,0E0,0E0,0E0,0E0,0E0,0E0,0E0,0E0,0E0,0E0,0E0,0E0,0E0,0E0,0E0,0E0,0E0,0E0,0E0,0E0,0E0,0E0,0E0,0E0,0E0,0E0,0E0,0E0,0E0,0E0,0E0,0E0,0E0,0E0,0E0,0E0,0E0,0E0,0E0,0E0,0E0,0E0,0E0,0E0,0E0,0E0,0E0,0E0,0E0,0E0,0E0,0E0,0E0,0E0,0E0,0E0,0E0,0E0,0E0],"parents":[2147483647,0,0,1,1,2,2,3,3,4,4,5,5,6,6,7,7,8,8,9,9,10,10,11,11,12,12,13,13,14,14,15,15,16,16,17,17,18,18,19,19,20,20,21,21,22,22,23,23,24,24,25,25,26,26,27,27,28,28,29,29,30,30,31,31,32,32,33,33,34,34,35,35,36,36,37,37,38,38,39,39,40,40,41,41,42,42,43,43,44,44,45,45,46,46,47,47,48,48,49,49,50,50,51,51,52,52,53,53,54,54,55,55,56,56,57,57,58,58,59,59,60,60,61,61,62,62],"right_children":[2,4,6,8,10,12,14,16,18,20,22,24,26,28,30,32,34,36,38,40,42,44,46,48,50,52,54,56,58,60,62,64,66,68,70,72,74,76,78,80,82,84,86,88,90,92,94,96,98,100,102,104,106,108,110,112,114,116,118,120,122,124,126,-1,-1,-1,-1,-1,-1,-1,-1,-1,-1,-1,-1,-1,-1,-1,-1,-1,-1,-1,-1,-1,-1,-1,-1,-1,-1,-1,-1,-1,-1,-1,-1,-1,-1,-1,-1,-1,-1,-1,-1,-1,-1,-1,-1,-1,-1,-1,-1,-1,-1,-1,-1,-1,-1,-1,-1,-1,-1,-1,-1,-1,-1,-1,-1],"split_conditions":[3.107143E0,8.214286E-1,1.0464286E1,5.47964E-1,1.7142857E0,5.678571E0,2.9142857E1,3.5714287E-2,5.3571427E-1,1.2142857E0,2.3214285E0,4.357143E0,1E1,1.6E1,5.3E1,8.026056E0,2.857143E-1,1.2857143E0,2.142857E0,3.142857E0,4.285714E0,5.571429E0,1E0,1E0,8.285714E0,7.285714E0,1.0571428E1,1.6E1,1.9607143E1,3.1E1,6.4E1,9.5306915E-1,2.3E1,5.269373E-2,3E0,3E0,6E0,1E0,8E0,1E0,7E0,1E0,1.6E1,1E0,1.5E1,5.857143E0,6.428571E0,4.035714E0,3.892857E0,1E0,1.4E1,1E0,1E0,7.892857E0,1.5060504E1,1E0,9.714286E0,1E0,1E0,3E0,3.9E1,6.1E1,9.3E1,-2.8494136E-2,-3.47091E-2,2.9575767E-2,1.3747455E-1,2.1294344E-2,-2.8846806E-2,-2.3052102E-2,-2.6443146E-2,-2.2111408E-2,-1.1261244E-2,1.5496367E-4,4.3301873E-2,-1.611755E-2,-1.1194328E-2,1.666682E-2,6.277405E-2,-8.459282E-3,-1.8618001E-3,3.35539E-2,7.151633E-2,9.5517666E-4,9.145723E-3,5.453967E-2,1.14202045E-1,1.1004199E-2,2.0558834E-2,5.894338E-2,1.0845499E-1,2.1876218E-2,5.935939E-2,3.3222735E-2,8.895449E-2,3.3056814E-2,4.2451825E-2,4.380555E-2,5.3148147E-2,4.7937386E-2,6.0771883E-2,6.9531694E-2,9.787534E-2,5.975777E-2,7.226141E-2,7.354705E-2,8.590344E-2,7.729834E-2,8.9448E-2,9.485327E-2,1.4179891E-1,9.310546E-2,1.0497618E-1,9.463599E-2,1.1362328E-1,1.11478984E-1,1.2249593E-1,1.2852369E-1,1.3959046E-1,1.3914636E-1,9.4957374E-2,1.4788911E-1,1.5826447E-1,1.599018E-1,1.6981077E-1,1.728516E-1,1.8014675E-1],"split_indices":[32,32,32,33,32,32,30,32,32,32,32,30,23,23,23,37,28,28,28,28,28,28,9,9,28,32,28,32,32,23,25,22,27,22,0,23,23,9,23,9,23,9,23,9,23,28,28,32,32,9,23,9,9,32,33,9,28,9,9,0,27,27,23,0,0,0,0,0,0,0,0,0,0,0,0,0,0,0,0,0,0,0,0,0,0,0,0,0,0,0,0,0,0,0,0,0,0,0,0,0,0,0,0,0,0,0,0,0,0,0,0,0,0,0,0,0,0,0,0,0,0,0,0,0,0,0,0],"split_type":[0,0,0,0,0,0,0,0,0,0,0,0,0,0,0,0,0,0,0,0,0,0,0,0,0,0,0,0,0,0,0,0,0,0,0,0,0,0,0,0,0,0,0,0,0,0,0,0,0,0,0,0,0,0,0,0,0,0,0,0,0,0,0,0,0,0,0,0,0,0,0,0,0,0,0,0,0,0,0,0,0,0,0,0,0,0,0,0,0,0,0,0,0,0,0,0,0,0,0,0,0,0,0,0,0,0,0,0,0,0,0,0,0,0,0,0,0,0,0,0,0,0,0,0,0,0,0],"sum_hessian":[5.0242135E6,4.1797E6,8.445136E5,2.9273618E6,1.2523381E6,5.464563E5,2.980573E5,1.8046855E6,1.1226764E6,7.8576175E5,4.665763E5,3.2889472E5,2.1756158E5,2.0373306E5,9.432424E4,1.1215705E6,6.8311506E5,6.3815494E5,4.8452134E5,4.4352197E5,3.422398E5,2.5908258E5,2.0749372E5,1.9145075E5,1.3744395E5,1.488457E5,6.871588E4,1.0333836E5,1.0039471E5,4.1918473E4,5.2405773E4,1.1210464E6,5.241005E2,4.637826E5,2.1933247E5,6.2803856E5,1.0116387E4,4.800825E5,4.4388623E3,4.4051906E5,3.0029065E3,3.4006278E5,2.1770356E3,2.5722156E5,1.8610232E3,1.4420069E5,6.3293023E4,1.3289872E5,5.855203E4,1.2854651E5,8.897448E3,7.87146E4,7.013109E4,4.74891E4,2.1226783E4,7.177363E4,3.1564727E4,5.9247844E4,4.1146863E4,1.4778786E4,2.7139686E4,1.5874599E4,3.6531176E4,2.2052495E5,9.005214E5,2.4614761E2,2.7795288E2,4.1919656E2,4.633634E5,6.2582715E4,1.5674977E5,6.1328056E5,1.4758002E4,9.260682E3,8.557048E2,3.399941E5,1.4008839E5,3.8437354E3,5.951271E2,3.111088E5,1.2941025E5,2.168941E3,8.339655E2,2.3873369E5,1.01329086E5,1.8496124E3,3.2742328E2,1.8017458E5,7.7046984E4,1.471646E3,3.8937717E2,1.4194798E5,2.2527136E3,6.249878E4,7.9424347E2,9.444121E4,3.8457504E4,3.697918E4,2.1572854E4,8.902039E4,3.952612E4,5.9501147E3,2.9473335E3,5.727758E4,2.1437023E4,5.308145E4,1.7049646E4,2.5830889E4,2.165821E4,2.0646969E4,5.798144E2,5.361124E4,1.8162393E4,2.6947097E3,2.8870018E4,3.2683426E4,2.6564418E4,2.5347543E4,1.5799319E4,1.4399518E4,3.7926855E2,1.3894435E4,1.3245251E4,9.966113E3,5.9084854E3,1.7156598E4,1.9374578E4],"tree_param":{"num_deleted":"0","num_feature":"40","num_nodes":"127","size_leaf_vector":"1"}},{"base_weights":[-1.6061141E-3,-5.5098575E-1,2.5657406E0,-8.7916434E-1,1.6475838E-1,1.8405411E0,4.1907635E0,-1.0420296E0,-6.209789E-1,-1.235674E-1,5.397771E-1,1.4442776E0,2.4887648E0,3.6327546E0,5.182627E0,-1.112146E0,-9.216937E-1,-7.2402036E-1,-5.000033E-1,-2.4030784E-1,4.0008992E-2,3.6178592E-1,7.6983774E-1,1.232972E0,1.7273688E0,2.2776327E0,2.8499022E0,3.3602552E0,4.0139623E0,4.701951E0,5.6203113E0,-1.1139185E0,3.5790527E0,-9.228177E-1,1.7162949E0,-7.382365E-1,-2.3184914E-2,-6.0044523E-2,-5.169278E-1,2.277448E-1,-2.6195496E-1,7.431001E-1,1.6085777E-2,2.719796E-1,5.709422E-1,6.6677964E-1,1.0060667E0,1.1407684E0,1.5515406E0,1.6056399E0,1.9989033E0,2.0736103E0,2.5202143E0,2.6151314E0,3.0355608E0,3.168415E0,3.608667E0,3.8212428E0,4.232088E0,4.4397144E0,4.9261756E0,5.347207E0,5.7922645E0,-2.8244529E-2,-3.4692544E-2,-3.42236E-2,1.2739079E-1,-2.8986214E-2,-2.571662E-2,-8.108169E-3,9.816041E-2,-1.51160695E-2,-2.2570811E-2,-1.0913305E-2,1.6917616E-2,-5.251006E-3,2.9677575E-2,-1.6829286E-2,-1.2316302E-2,4.309184E-3,5.5265296E-2,-9.732102E-3,-3.3910943E-3,1.7068582E-2,7.2935745E-2,-1.7915446E-3,5.865495E-3,3.1419095E-2,7.539103E-3,1.6817627E-2,8.213827E-2,4.4357914E-2,1.9350443E-2,6.260944E-2,2.9286435E-2,3.1551972E-2,4.135099E-2,7.748228E-2,4.4465955E-2,4.2987905E-2,5.182861E-2,5.6863785E-2,6.9528334E-2,5.8960374E-2,7.117583E-2,3.290502E-2,7.618515E-2,1.0562172E-1,7.716962E-2,8.557209E-2,9.869418E-2,9.155373E-2,1.0461127E-1,9.96649E-2,1.1073302E-1,1.09472215E-1,1.2018147E-1,1.222557E-1,1.333616E-1,1.071903E-1,1.3443808E-1,1.4097872E-1,1.5184769E-1,1.5172778E-1,1.6370575E-1,1.6996612E-1,1.7751683E-1],"categories":[],"categories_nodes":[],"categories_segments":[],"categories_sizes":[],"default_left":[0,0,0,0,0,0,0,0,0,0,0,0,0,0,0,0,0,0,0,0,0,0,0,0,0,0,0,0,0,0,0,0,0,0,0,0,0,0,0,0,0,0,0,0,0,0,0,0,0,0,0,0,0,0,0,0,0,0,0,0,0,0,0,0,0,0,0,0,0,0,0,0,0,0,0,0,0,0,0,0,0,0,0,0,0,0,0,0,0,0,0,0,0,0,0,0,0,0,0,0,0,0,0,0,0,0,0,0,0,0,0,0,0,0,0,0,0,0,0,0,0,0,0,0,0,0,0],"id":3,"left_children":[1,3,5,7,9,11,13,15,17,19,21,23,25,27,29,31,33,35,37,39,41,43,45,47,49,51,53,55,57,59,61,63,65,67,69,71,73,75,77,79,81,83,85,87,89,91,93,95,97,99,101,103,105,107,109,111,113,115,117,119,121,123,125,-1,-1,-1,-1,-1,-1,-1,-1,-1,-1,-1,-1,-1,-1,-1,-1,-1,-1,-1,-1,-1,-1,-1,-1,-1,-1,-1,-1,-1,-1,-1,-1,-1,-1,-1,-1,-1,-1,-1,-1,-1,-1,-1,-1,-1,-1,-1,-1,-1,-1,-1,-1,-1,-1,-1,-1,-1,-1,-1,-1,-1,-1,-1,-1],"loss_changes":[7.033794E6,9.649096E5,1.035901E6,1.1843075E5,1.3963608E5,1.5611725E5,1.500935E5,1.4570375E4,1.357975E4,1.3941778E4,2.2984578E4,2.2560938E4,1.757175E4,1.801125E4,2.050375E4,9.079E3,1.8875625E3,5.8614688E3,3.73125E3,4.316701E3,5.1141313E3,5.944172E3,5.959578E3,6.3415625E3,5.3235938E3,7.193875E3,3.6953125E3,4.806625E3,3.016375E3,2.7035E3,2.352125E3,7.992E3,1.3066787E3,1.8075625E3,8.4007434E2,1.9080312E3,2.339524E3,2.2401897E3,2.2608438E3,2.5566646E3,3.786795E3,2.9388662E3,3.9995552E3,3.548829E3,2.1304727E3,3.0105078E3,2.396289E3,3.5414375E3,3.460375E3,2.3412188E3,1.6379688E3,2.550875E3,1.820625E3,1.4425781E3,2.196875E3,2.1065E3,1.0225E3,1.2000625E3,1.107375E3,7.485E2,7.33875E2,5.8525E2,4.44875E2,0E0,0E0,0E0,0E0,0E0,0E0,0E0,0E0,0E0,0E0,0E0,0E0,0E0,0E0,0E0,0E0,0E0,0E0,0E0,0E0,0E0,0E0,0E0,0E0,0E0,0E0,0E0,0E0,0E0,0E0,0E0,0E0,0E0,0E0,0E0,0E0,0E0,0E0,0E0,0E0,0E0,0E0,0E0,0E0,0E0,0E0,0E0,0E0,0E0,0E0,0E0,0E0,0E0,0E0,0E0,0E0,0E0,0E0,0E0,0E0,0E0,0E0,0E0,0E0],"parents":[2147483647,0,0,1,1,2,2,3,3,4,4,5,5,6,6,7,7,8,8,9,9,10,10,11,11,12,12,13,13,14,14,15,15,16,16,17,17,18,18,19,19,20,20,21,21,22,22,23,23,24,24,25,25,26,26,27,27,28,28,29,29,30,30,31,31,32,32,33,33,34,34,35,35,36,36,37,37,38,38,39,39,40,40,41,41,42,42,43,43,44,44,45,45,46,46,47,47,48,48,49,49,50,50,51,51,52,52,53,53,54,54,55,55,56,56,57,57,58,58,59,59,60,60,61,61,62,62],"right_children":[2,4,6,8,10,12,14,16,18,20,22,24,26,28,30,32,34,36,38,40,42,44,46,48,50,52,54,56,58,60,62,64,66,68,70,72,74,76,78,80,82,84,86,88,90,92,94,96,98,100,102,104,106,108,110,112,114,116,118,120,122,124,126,-1,-1,-1,-1,-1,-1,-1,-1,-1,-1,-1,-1,-1,-1,-1,-1,-1,-1,-1,-1,-1,-1,-1,-1,-1,-1,-1,-1,-1,-1,-1,-1,-1,-1,-1,-1,-1,-1,-1,-1,-1,-1,-1,-1,-1,-1,-1,-1,-1,-1,-1,-1,-1,-1,-1,-1,-1,-1,-1,-1,-1,-1,-1,-1],"split_conditions":[3.0357144E0,7.8571427E-1,1.175E1,5.345225E-1,1.5357143E0,6E0,2.7428572E1,3.5714287E-2,5E-1,1.1428572E0,2.1785715E0,4.321429E0,1E1,1.9E1,5.3E1,1.3535714E1,4.75E0,1.6035675E0,7.1428575E-2,1.4285715E-1,1.4285715E-1,5E0,5E0,6E0,5E0,7.892857E0,8.571428E0,1.6E1,1.9607143E1,3.3E1,7.3E1,9.5306915E-1,3E0,4.258153E-1,3E0,3.5714287E-2,2E0,2.6367369E0,5E0,7E0,5E0,4.7559485E0,5E0,1.4285715E-1,1.3E1,2.857143E-1,1.4285715E-1,5E0,4.2857143E-1,4E0,9E0,5E0,3.7796447E-1,1.4285715E-1,5E0,5E0,9E0,5E0,5E0,1.2122935E-2,3.7E1,4.7E1,1.02E2,-2.8244529E-2,-3.4692544E-2,-3.42236E-2,1.2739079E-1,-2.8986214E-2,-2.571662E-2,-8.108169E-3,9.816041E-2,-1.51160695E-2,-2.2570811E-2,-1.0913305E-2,1.6917616E-2,-5.251006E-3,2.9677575E-2,-1.6829286E-2,-1.2316302E-2,4.309184E-3,5.5265296E-2,-9.732102E-3,-3.3910943E-3,1.7068582E-2,7.2935745E-2,-1.7915446E-3,5.865495E-3,3.1419095E-2,7.539103E-3,1.6817627E-2,8.213827E-2,4.4357914E-2,1.9350443E-2,6.260944E-2,2.9286435E-2,3.1551972E-2,4.135099E-2,7.748228E-2,4.4465955E-2,4.2987905E-2,5.182861E-2,5.6863785E-2,6.9528334E-2,5.8960374E-2,7.117583E-2,3.290502E-2,7.618515E-2,1.0562172E-1,7.716962E-2,8.557209E-2,9.869418E-2,9.155373E-2,1.0461127E-1,9.96649E-2,1.1073302E-1,1.09472215E-1,1.2018147E-1,1.222557E-1,1.333616E-1,1.071903E-1,1.3443808E-1,1.4097872E-1,1.5184769E-1,1.5172778E-1,1.6370575E-1,1.6996612E-1,1.7751683E-1],"split_indices":[32,32,32,33,32,32,32,32,32,32,32,32,23,23,23,38,38,29,36,34,34,3,3,23,3,32,32,32,32,23,24,22,5,31,5,38,23,29,3,23,3,29,3,34,23,34,34,3,34,23,23,3,29,34,3,3,23,3,3,19,24,25,23,0,0,0,0,0,0,0,0,0,0,0,0,0,0,0,0,0,0,0,0,0,0,0,0,0,0,0,0,0,0,0,0,0,0,0,0,0,0,0,0,0,0,0,0,0,0,0,0,0,0,0,0,0,0,0,0,0,0,0,0,0,0,0,0],"split_type":[0,0,0,0,0,0,0,0,0,0,0,0,0,0,0,0,0,0,0,0,0,0,0,0,0,0,0,0,0,0,0,0,0,0,0,0,0,0,0,0,0,0,0,0,0,0,0,0,0,0,0,0,0,0,0,0,0,0,0,0,0,0,0,0,0,0,0,0,0,0,0,0,0,0,0,0,0,0,0,0,0,0,0,0,0,0,0,0,0,0,0,0,0,0,0,0,0,0,0,0,0,0,0,0,0,0,0,0,0,0,0,0,0,0,0,0,0,0,0,0,0,0,0,0,0,0,0],"sum_hessian":[4.9869195E6,4.1078852E6,8.7903406E5,2.8164868E6,1.2913985E6,6.07796E5,2.7123806E5,1.7270474E6,1.0894394E6,7.300865E5,5.6131194E5,3.7721006E5,2.3058597E5,1.7358733E5,9.7650734E4,1.0912142E6,6.3583306E5,5.8832394E5,5.0111547E5,4.2603544E5,3.0405106E5,3.164715E5,2.4484044E5,2.1599492E5,1.6121512E5,1.4552102E5,8.5064945E4,1.0123573E5,7.235161E4,4.6548176E4,5.1102562E4,1.0908032E6,4.1096814E2,6.355633E5,2.6979486E2,5.7662706E5,1.1696822E4,1.856352E4,4.8255197E5,1.8832025E4,4.072034E5,1.0003517E4,2.9404753E5,2.2140836E5,9.506315E4,1.7047464E5,7.436579E4,1.6751742E5,4.847751E4,1.1132079E5,4.989434E4,7.905062E4,6.647041E4,3.7574324E4,4.749062E4,5.713405E4,4.4101676E4,3.8427918E4,3.392369E4,2.1470047E4,2.5078127E4,1.9762883E4,3.133968E4,2.1569598E5,8.751073E5,5.075633E1,3.6021182E2,3.8252112E5,2.5304217E5,1.1900594E2,1.5078891E2,3.2778266E4,5.438488E5,7.402957E3,4.2938657E3,1.6731332E4,1.8321866E3,3.4125003E5,1.4130192E5,1.7901143E4,9.3088153E2,2.868933E5,1.203101E5,9.069909E3,9.3360785E2,2.0671662E5,8.733093E4,5.749035E3,2.1565933E5,9.461299E4,4.501573E2,4.448355E3,1.660263E5,1.99573E3,7.237006E4,1.2186066E5,4.5656758E4,3.050906E3,4.5426605E4,4.6087043E4,6.5233742E4,3.7676367E4,1.2217971E4,5.8040633E4,2.100998E4,8.900333E2,6.5580375E4,1.6904884E3,3.5883836E4,2.7615328E4,1.9875295E4,4.1837062E4,1.5296991E4,9.867984E3,3.423369E4,1.991055E4,1.8517365E4,1.9563646E4,1.4360043E4,9.883829E2,2.0481664E4,9.393586E3,1.5684541E4,5.447205E3,1.4315678E4,1.5594962E4,1.5744718E4],"tree_param":{"num_deleted":"0","num_feature":"40","num_nodes":"127","size_leaf_vector":"1"}},{"base_weights":[-2.0064916E-3,-5.4187924E-1,2.4293094E0,-8.8118815E-1,1.3878517E-1,1.7424755E0,3.9798853E0,-1.0427263E0,-6.3189626E-1,-1.3764697E-1,5.192388E-1,1.3721215E0,2.3449013E0,3.4517808E0,5.0702085E0,-1.1097513E0,-9.200636E-1,-7.3794156E-1,-5.2107036E-1,-2.6004222E-1,2.2644255E-2,3.503852E-1,7.3586744E-1,1.1688175E0,1.6325936E0,2.116983E0,2.6404672E0,3.1536145E0,3.797695E0,4.593178E0,5.476338E0,-1.1117666E0,3.18048E0,-9.344358E-1,-5.5767E-1,-7.574914E-1,-1.794647E-1,-5.3409666E-1,5.711087E-1,-2.7134725E-1,1.2067198E0,9.113809E-3,1.5366715E0,3.352338E-1,1.8864267E0,7.2324014E-1,2.763206E0,1.0600414E0,1.413009E0,1.5879025E0,2.4428177E0,1.9376264E0,2.3431869E0,2.4702115E0,2.900575E0,2.9600198E0,3.400293E0,3.5489318E0,4.042943E0,4.2804327E0,4.8185086E0,5.1716104E0,5.6673527E0,-3.4015898E-2,-3.1143393E-2,5.4672904E-2,1.5349548E-1,-2.8080257E-2,3.7391264E-2,-1.836951E-2,1.3425208E-2,-2.3873689E-2,-2.0516269E-2,-7.1105757E-3,4.3016747E-2,-1.7350089E-2,-1.2824261E-2,1.0586102E-2,4.7779E-2,-9.928872E-3,-3.881469E-3,2.7616687E-2,6.0722142E-2,-1.968192E-3,5.5318368E-3,3.487822E-2,7.916029E-2,7.530484E-3,1.5887363E-2,3.8842667E-2,7.557007E-2,1.8769905E-2,2.8346052E-2,7.3876016E-2,1.1852186E-1,2.7628317E-2,3.6015656E-2,3.8876045E-2,4.7055352E-2,4.4174697E-2,5.540829E-2,6.393048E-2,9.224416E-2,5.513721E-2,6.664563E-2,5.7809155E-2,7.23088E-2,6.90211E-2,8.088739E-2,8.2149856E-2,9.471624E-2,8.568919E-2,9.767654E-2,8.489328E-2,1.0334321E-1,1.01563744E-1,1.1192027E-1,1.16685495E-1,1.2807123E-1,1.1800035E-1,1.3387036E-1,1.3554028E-1,1.4907388E-1,1.4960116E-1,1.5920272E-1,1.6563042E-1,1.7315666E-1],"categories":[],"categories_nodes":[],"categories_segments":[],"categories_sizes":[],"default_left":[0,0,0,0,0,0,0,0,0,0,0,0,0,0,0,0,0,0,0,0,0,0,0,0,0,0,0,0,0,0,0,0,0,0,0,0,0,0,0,0,0,0,0,0,0,0,0,0,0,0,0,0,0,0,0,0,0,0,0,0,0,0,0,0,0,0,0,0,0,0,0,0,0,0,0,0,0,0,0,0,0,0,0,0,0,0,0,0,0,0,0,0,0,0,0,0,0,0,0,0,0,0,0,0,0,0,0,0,0,0,0,0,0,0,0,0,0,0,0,0,0,0,0,0,0,0,0],"id":4,"left_children":[1,3,5,7,9,11,13,15,17,19,21,23,25,27,29,31,33,35,37,39,41,43,45,47,49,51,53,55,57,59,61,63,65,67,69,71,73,75,77,79,81,83,85,87,89,91,93,95,97,99,101,103,105,107,109,111,113,115,117,119,121,123,125,-1,-1,-1,-1,-1,-1,-1,-1,-1,-1,-1,-1,-1,-1,-1,-1,-1,-1,-1,-1,-1,-1,-1,-1,-1,-1,-1,-1,-1,-1,-1,-1,-1,-1,-1,-1,-1,-1,-1,-1,-1,-1,-1,-1,-1,-1,-1,-1,-1,-1,-1,-1,-1,-1,-1,-1,-1,-1,-1,-1,-1,-1,-1,-1],"loss_changes":[6.4980605E6,9.356006E5,9.5797E5,1.088645E5,1.4172933E5,1.390805E5,1.58971E5,1.348475E4,1.2491906E4,1.5312871E4,2.0743594E4,2.0440625E4,1.5979125E4,1.916875E4,1.7417E4,9.176625E3,3.0180625E3,5.9304062E3,7.3953438E3,7.339082E3,6.922724E3,7.415996E3,6.355922E3,5.757E3,6.121625E3,5.4296875E3,4.5645E3,4.756E3,5.231375E3,2.88875E3,2.787375E3,1.723625E3,1.2957842E3,1.914E3,1.2151973E3,1.4786875E3,1.7065272E3,2.4223594E3,1.3648655E3,3.716875E3,7.88708E2,4.3868794E3,1.2289058E3,5.165078E3,1.1596807E3,5.337836E3,5.3358594E2,2.9294844E3,1.2137812E3,4.7906562E3,1.7323594E3,2.1097188E3,1.6476875E3,2.3833438E3,1.6880938E3,1.7036562E3,1.0995312E3,1.2508125E3,1.478125E3,1.0695E3,1.0550625E3,4.2828125E2,4.08375E2,0E0,0E0,0E0,0E0,0E0,0E0,0E0,0E0,0E0,0E0,0E0,0E0,0E0,0E0,0E0,0E0,0E0,0E0,0E0,0E0,0E0,0E0,0E0,0E0,0E0,0E0,0E0,0E0,0E0,0E0,0E0,0E0,0E0,0E0,0E0,0E0,0E0,0E0,0E0,0E0,0E0,0E0,0E0,0E0,0E0,0E0,0E0,0E0,0E0,0E0,0E0,0E0,0E0,0E0,0E0,0E0,0E0,0E0,0E0,0E0,0E0,0E0,0E0,0E0],"parents":[2147483647,0,0,1,1,2,2,3,3,4,4,5,5,6,6,7,7,8,8,9,9,10,10,11,11,12,12,13,13,14,14,15,15,16,16,17,17,18,18,19,19,20,20,21,21,22,22,23,23,24,24,25,25,26,26,27,27,28,28,29,29,30,30,31,31,32,32,33,33,34,34,35,35,36,36,37,37,38,38,39,39,40,40,41,41,42,42,43,43,44,44,45,45,46,46,47,47,48,48,49,49,50,50,51,51,52,52,53,53,54,54,55,55,56,56,57,57,58,58,59,59,60,60,61,61,62,62],"right_children":[2,4,6,8,10,12,14,16,18,20,22,24,26,28,30,32,34,36,38,40,42,44,46,48,50,52,54,56,58,60,62,64,66,68,70,72,74,76,78,80,82,84,86,88,90,92,94,96,98,100,102,104,106,108,110,112,114,116,118,120,122,124,126,-1,-1,-1,-1,-1,-1,-1,-1,-1,-1,-1,-1,-1,-1,-1,-1,-1,-1,-1,-1,-1,-1,-1,-1,-1,-1,-1,-1,-1,-1,-1,-1,-1,-1,-1,-1,-1,-1,-1,-1,-1,-1,-1,-1,-1,-1,-1,-1,-1,-1,-1,-1,-1,-1,-1,-1,-1,-1,-1,-1,-1,-1,-1,-1],"split_conditions":[3.0357144E0,7.5E-1,1.175E1,2.5E-1,1.5357143E0,6E0,3.1285715E1,3.5714287E-2,4.642857E-1,1.1071428E0,2.1785715E0,4.357143E0,9E0,1.8E1,5.4E1,1.1785714E1,5.714286E-1,1E0,1.8571428E0,2.857143E0,3.5714285E0,4.714286E0,7.714286E0,5E0,8.857142E0,7.892857E0,9.857142E0,1.6E1,1.9607143E1,3.8E1,7.5E1,3E0,2.7571428E1,4.357143E0,4E0,4.2857143E-1,7E0,5E0,6E0,5E0,7E0,5E0,9E0,5E0,6.142857E0,5E0,2E1,3.642857E0,3.75E0,5E0,1.5E1,5E0,5.571429E0,5E0,5E0,5E0,9.714286E0,5E0,5E0,2.7571428E1,3.8E1,5.9E1,9.3E1,-3.4015898E-2,-3.1143393E-2,5.4672904E-2,1.5349548E-1,-2.8080257E-2,3.7391264E-2,-1.836951E-2,1.3425208E-2,-2.3873689E-2,-2.0516269E-2,-7.1105757E-3,4.3016747E-2,-1.7350089E-2,-1.2824261E-2,1.0586102E-2,4.7779E-2,-9.928872E-3,-3.881469E-3,2.7616687E-2,6.0722142E-2,-1.968192E-3,5.5318368E-3,3.487822E-2,7.916029E-2,7.530484E-3,1.5887363E-2,3.8842667E-2,7.557007E-2,1.8769905E-2,2.8346052E-2,7.3876016E-2,1.1852186E-1,2.7628317E-2,3.6015656E-2,3.8876045E-2,4.7055352E-2,4.4174697E-2,5.540829E-2,6.393048E-2,9.224416E-2,5.513721E-2,6.664563E-2,5.7809155E-2,7.23088E-2,6.90211E-2,8.088739E-2,8.2149856E-2,9.471624E-2,8.568919E-2,9.767654E-2,8.489328E-2,1.0334321E-1,1.01563744E-1,1.1192027E-1,1.16685495E-1,1.2807123E-1,1.1800035E-1,1.3387036E-1,1.3554028E-1,1.4907388E-1,1.4960116E-1,1.5920272E-1,1.6563042E-1,1.7315666E-1],"split_indices":[32,32,32,32,32,32,28,32,32,32,32,30,23,23,25,38,28,28,28,28,28,28,28,3,28,32,30,32,32,23,23,5,38,38,23,38,23,3,23,3,23,3,23,3,28,3,23,32,32,3,23,3,28,3,3,3,28,3,3,38,24,24,24,0,0,0,0,0,0,0,0,0,0,0,0,0,0,0,0,0,0,0,0,0,0,0,0,0,0,0,0,0,0,0,0,0,0,0,0,0,0,0,0,0,0,0,0,0,0,0,0,0,0,0,0,0,0,0,0,0,0,0,0,0,0,0,0],"split_type":[0,0,0,0,0,0,0,0,0,0,0,0,0,0,0,0,0,0,0,0,0,0,0,0,0,0,0,0,0,0,0,0,0,0,0,0,0,0,0,0,0,0,0,0,0,0,0,0,0,0,0,0,0,0,0,0,0,0,0,0,0,0,0,0,0,0,0,0,0,0,0,0,0,0,0,0,0,0,0,0,0,0,0,0,0,0,0,0,0,0,0,0,0,0,0,0,0,0,0,0,0,0,0,0,0,0,0,0,0,0,0,0,0,0,0,0,0,0,0,0,0,0,0,0,0,0,0],"sum_hessian":[4.9505185E6,4.0509975E6,8.9952125E5,2.7033742E6,1.3476232E6,6.2339094E5,2.7613028E5,1.6404058E6,1.0629684E6,7.805138E5,5.6710944E5,3.860584E5,2.3733256E5,1.8603125E5,9.009902E4,1.0607701E6,5.796356E5,5.431953E5,5.1977306E5,4.4257325E5,3.379406E5,3.1869972E5,2.484097E5,2.1682819E5,1.6923022E5,1.3400806E5,1.0332451E5,9.991951E4,8.6111734E4,4.144148E4,4.8657543E4,1.0602732E6,4.9692084E2,5.5752225E5,2.2113377E4,5.248228E5,1.8372525E4,5.136477E5,6.1253784E3,4.391895E5,3.3837517E3,3.349488E5,2.9917705E3,3.1558866E5,3.111042E3,2.4687414E5,1.5355726E3,1.5001275E5,6.681543E4,1.6038795E5,8.842256E3,7.475211E4,5.9255953E4,6.2458164E4,4.0866344E4,5.5994594E4,4.3924914E4,4.276125E4,4.3350484E4,1.736724E4,2.407424E4,1.8764703E4,2.9892842E4,8.155714E5,2.4470184E5,2.9379758E2,2.0312328E2,5.571214E5,4.008975E2,2.0973809E4,1.139568E3,3.4521197E5,1.7961083E5,1.774098E4,6.315461E2,3.6301634E5,1.5063134E5,5.048856E3,1.0765222E3,3.0930203E5,1.2988748E5,2.5087305E3,8.7502124E2,2.3483967E5,1.0010913E5,2.2359678E3,7.558028E2,2.2017969E5,9.540898E4,1.6099371E3,1.5011047E3,1.7141238E5,7.5461766E4,1.2290746E3,3.06498E2,7.538347E4,7.462928E4,3.811664E4,2.8698791E4,1.1096096E5,4.9426996E4,5.9255195E3,2.9167358E3,5.5329094E4,1.9423014E4,8.233766E3,5.1022188E4,3.5701844E4,2.6756322E4,2.5048375E4,1.5817968E4,4.147285E4,1.4521745E4,3.184104E3,4.074081E4,2.2527959E4,2.0233291E4,2.5842168E4,1.7508316E4,5.9841104E3,1.1383129E4,8.0536987E3,1.6020542E4,7.948007E3,1.0816695E4,1.2489949E4,1.7402893E4],"tree_param":{"num_deleted":"0","num_feature":"40","num_nodes":"127","size_leaf_vector":"1"}},{"base_weights":[-1.3018603E-3,-5.39594E-1,2.1704957E0,-8.7350637E-1,1.11671925E-1,1.5057108E0,3.6261737E0,-1.0459629E0,-6.2055767E-1,-1.1204145E-1,6.009578E-1,1.1192378E0,2.0562365E0,3.0789075E0,4.794007E0,-1.1077076E0,-9.228386E-1,-7.0633256E-1,-4.34186E-1,-2.4991515E-1,7.188854E-2,4.438658E-1,9.213774E-1,7.7034587E-1,1.4893625E0,1.7160339E0,2.486687E0,2.756598E0,3.498072E0,4.264752E0,5.283238E0,-1.1098595E0,3.2282367E0,-9.247083E-1,7.163908E-1,-7.7464145E-1,-6.215674E-1,-7.6294446E-1,-4.0215296E-1,-3.3068967E-1,-3.4323275E-2,-2.4404494E-2,2.2765863E-1,2.781167E-1,5.857662E-1,6.8674135E-1,1.1156029E0,2.406226E-1,8.628278E-1,4.1956335E-1,1.5380335E0,1.4454858E0,2.0757213E0,2.3018923E0,3.0487947E0,2.5736485E0,3.077589E0,3.2666838E0,3.792651E0,3.9114008E0,4.531428E0,4.9587517E0,5.506139E0,-2.7872093E-2,-3.4644566E-2,5.1109154E-2,1.5129408E-1,-2.8680414E-2,-2.515548E-2,1.1615345E-2,1.1941398E-1,-2.424302E-2,-2.1060674E-2,-1.0158913E-2,-1.9142414E-2,-2.534806E-2,-2.0024864E-2,-1.3670517E-2,-7.396649E-3,-1.64199E-2,-8.555817E-3,-4.4798376E-3,8.627641E-3,-1.3132441E-2,1.957952E-4,3.5650996E-3,1.0659778E-2,-1.322792E-2,9.614428E-3,1.4594517E-2,2.3077862E-2,-2.9203165E-3,2.2230221E-2,2.961818E-2,4.0824547E-2,3.1755585E-3,1.9185288E-2,2.0259596E-2,3.0266883E-2,-3.5609567E-4,2.2109518E-2,4.093903E-2,5.452269E-2,3.882026E-2,4.9591903E-2,5.8318958E-2,6.878651E-2,6.3100316E-2,7.55969E-2,8.635667E-2,1.2098455E-1,6.3847795E-2,8.107762E-2,9.134101E-2,1.3507615E-1,9.376553E-2,1.03114516E-1,1.0940502E-1,1.2113946E-1,9.345415E-2,1.1920667E-1,1.3171087E-1,1.438809E-1,1.4227177E-1,1.5391931E-1,1.6089544E-1,1.6942711E-1],"categories":[],"categories_nodes":[],"categories_segments":[],"categories_sizes":[],"default_left":[0,0,0,0,0,0,0,0,0,0,0,0,0,0,0,0,0,0,0,0,0,0,0,0,0,0,0,0,0,0,0,0,0,0,0,0,0,0,0,0,0,0,0,0,0,0,0,0,0,0,0,0,0,0,0,0,0,0,0,0,0,0,0,0,0,0,0,0,0,0,0,0,0,0,0,0,0,0,0,0,0,0,0,0,0,0,0,0,0,0,0,0,0,0,0,0,0,0,0,0,0,0,0,0,0,0,0,0,0,0,0,0,0,0,0,0,0,0,0,0,0,0,0,0,0,0,0],"id":5,"left_children":[1,3,5,7,9,11,13,15,17,19,21,23,25,27,29,31,33,35,37,39,41,43,45,47,49,51,53,55,57,59,61,63,65,67,69,71,73,75,77,79,81,83,85,87,89,91,93,95,97,99,101,103,105,107,109,111,113,115,117,119,121,123,125,-1,-1,-1,-1,-1,-1,-1,-1,-1,-1,-1,-1,-1,-1,-1,-1,-1,-1,-1,-1,-1,-1,-1,-1,-1,-1,-1,-1,-1,-1,-1,-1,-1,-1,-1,-1,-1,-1,-1,-1,-1,-1,-1,-1,-1,-1,-1,-1,-1,-1,-1,-1,-1,-1,-1,-1,-1,-1,-1,-1,-1,-1,-1,-1],"loss_changes":[5.7467635E6,8.56668E5,9.4485E5,1.13598625E5,1.4614864E5,1.426075E5,1.956135E5,1.1770125E4,1.6875969E4,2.323532E4,2.1086312E4,5.0853562E4,4.0478125E4,2.8144375E4,2.525475E4,9.627375E3,1.5860312E3,4.1853125E3,3.5035664E3,9.119691E3,5.8882505E3,6.6114414E3,6.279383E3,9.931211E3,9.948719E3,1.5022469E4,1.26656875E4,6.907625E3,6.156125E3,4.39425E3,3.6285E3,8.376375E3,1.4029028E3,1.3925312E3,6.3124E2,9.7171875E2,1.5069531E3,2.301875E2,2.5252266E3,3.7545E3,5.2842495E3,3.1016548E3,2.0833672E3,3.9500234E3,2.7584375E3,2.6561074E3,2.3704766E3,1.6198265E3,4.7260234E3,1.1391633E3,8.850781E3,2.7678125E3,1.8895625E3,3.9672812E3,5.0392188E3,4.301875E3,1.983125E3,1.2045E3,1.4025625E3,9.8015625E2,9.653125E2,7.316875E2,5.61375E2,0E0,0E0,0E0,0E0,0E0,0E0,0E0,0E0,0E0,0E0,0E0,0E0,0E0,0E0,0E0,0E0,0E0,0E0,0E0,0E0,0E0,0E0,0E0,0E0,0E0,0E0,0E0,0E0,0E0,0E0,0E0,0E0,0E0,0E0,0E0,0E0,0E0,0E0,0E0,0E0,0E0,0E0,0E0,0E0,0E0,0E0,0E0,0E0,0E0,0E0,0E0,0E0,0E0,0E0,0E0,0E0,0E0,0E0,0E0,0E0,0E0,0E0,0E0,0E0],"parents":[2147483647,0,0,1,1,2,2,3,3,4,4,5,5,6,6,7,7,8,8,9,9,10,10,11,11,12,12,13,13,14,14,15,15,16,16,17,17,18,18,19,19,20,20,21,21,22,22,23,23,24,24,25,25,26,26,27,27,28,28,29,29,30,30,31,31,32,32,33,33,34,34,35,35,36,36,37,37,38,38,39,39,40,40,41,41,42,42,43,43,44,44,45,45,46,46,47,47,48,48,49,49,50,50,51,51,52,52,53,53,54,54,55,55,56,56,57,57,58,58,59,59,60,60,61,61,62,62],"right_children":[2,4,6,8,10,12,14,16,18,20,22,24,26,28,30,32,34,36,38,40,42,44,46,48,50,52,54,56,58,60,62,64,66,68,70,72,74,76,78,80,82,84,86,88,90,92,94,96,98,100,102,104,106,108,110,112,114,116,118,120,122,124,126,-1,-1,-1,-1,-1,-1,-1,-1,-1,-1,-1,-1,-1,-1,-1,-1,-1,-1,-1,-1,-1,-1,-1,-1,-1,-1,-1,-1,-1,-1,-1,-1,-1,-1,-1,-1,-1,-1,-1,-1,-1,-1,-1,-1,-1,-1,-1,-1,-1,-1,-1,-1,-1,-1,-1,-1,-1,-1,-1,-1,-1,-1,-1,-1],"split_conditions":[2.3570225E0,9.670497E-1,1.05E1,4.8795003E-1,1.7857143E0,6E0,3.1E1,1.8898223E-1,6.0714287E-1,1.1071428E0,2.8214285E0,3.892857E0,4.377673E0,1.6E1,5.2E1,1.1785714E1,4.0229173E0,6.9006556E-1,3.7796447E-1,2E0,2E0,2E0,3E0,1.2535664E0,5.7735026E-1,5.464286E0,1.8E1,1.6035715E1,1.9678572E1,2.7571428E1,7.5E1,9.5306915E-1,2.7571428E1,4.8795003E-1,1.1785714E1,3.9285713E-1,3.5714287E-2,3.6313653E-1,9.6428573E-1,5.345225E-1,1.5026432E0,4.8795003E-1,1.474205E0,3.7796447E-1,5E0,4.8795003E-1,3.892857E0,2E0,2.4285715E0,4.2030163E0,6.035714E0,4.071429E0,5E0,9E0,1.5060504E1,5E0,6.9E1,1.7E1,2.7571428E1,1.305888E-1,4.8E1,5.5E1,1.01E2,-2.7872093E-2,-3.4644566E-2,5.1109154E-2,1.5129408E-1,-2.8680414E-2,-2.515548E-2,1.1615345E-2,1.1941398E-1,-2.424302E-2,-2.1060674E-2,-1.0158913E-2,-1.9142414E-2,-2.534806E-2,-2.0024864E-2,-1.3670517E-2,-7.396649E-3,-1.64199E-2,-8.555817E-3,-4.4798376E-3,8.627641E-3,-1.3132441E-2,1.957952E-4,3.5650996E-3,1.0659778E-2,-1.322792E-2,9.614428E-3,1.4594517E-2,2.3077862E-2,-2.9203165E-3,2.2230221E-2,2.961818E-2,4.0824547E-2,3.1755585E-3,1.9185288E-2,2.0259596E-2,3.0266883E-2,-3.5609567E-4,2.2109518E-2,4.093903E-2,5.452269E-2,3.882026E-2,4.9591903E-2,5.8318958E-2,6.878651E-2,6.3100316E-2,7.55969E-2,8.635667E-2,1.2098455E-1,6.3847795E-2,8.107762E-2,9.134101E-2,1.3507615E-1,9.376553E-2,1.03114516E-1,1.0940502E-1,1.2113946E-1,9.345415E-2,1.1920667E-1,1.3171087E-1,1.438809E-1,1.4227177E-1,1.5391931E-1,1.6089544E-1,1.6942711E-1],"split_indices":[33,33,38,33,38,23,23,33,38,38,38,38,33,23,24,38,39,33,29,23,23,23,23,29,29,38,23,38,38,38,23,22,38,29,38,38,38,31,38,29,33,29,33,29,3,29,38,23,38,39,38,36,3,24,33,23,27,25,38,22,27,27,24,0,0,0,0,0,0,0,0,0,0,0,0,0,0,0,0,0,0,0,0,0,0,0,0,0,0,0,0,0,0,0,0,0,0,0,0,0,0,0,0,0,0,0,0,0,0,0,0,0,0,0,0,0,0,0,0,0,0,0,0,0,0,0,0],"split_type":[0,0,0,0,0,0,0,0,0,0,0,0,0,0,0,0,0,0,0,0,0,0,0,0,0,0,0,0,0,0,0,0,0,0,0,0,0,0,0,0,0,0,0,0,0,0,0,0,0,0,0,0,0,0,0,0,0,0,0,0,0,0,0,0,0,0,0,0,0,0,0,0,0,0,0,0,0,0,0,0,0,0,0,0,0,0,0,0,0,0,0,0,0,0,0,0,0,0,0,0,0,0,0,0,0,0,0,0,0,0,0,0,0,0,0,0,0,0,0,0,0,0,0,0,0,0,0],"sum_hessian":[4.915704E6,3.9393222E6,9.7638175E5,2.604144E6,1.3351782E6,6.702791E5,3.0610266E5,1.5484376E6,1.0557064E6,9.1624825E5,4.1892997E5,3.9381956E5,2.7645953E5,2.0843297E5,9.766968E4,1.03126394E6,5.1717366E5,7.229667E5,3.327397E5,5.2369047E5,3.9255775E5,2.811128E5,1.3781717E5,2.0272708E5,1.9109247E5,1.544216E5,1.2203795E5,1.17836336E5,9.059664E4,4.6922855E4,5.074683E4,1.0307535E6,5.1041504E2,5.1658516E5,5.884901E2,4.003372E5,3.2262947E5,2.9539135E4,3.0320056E5,3.8095797E5,1.4273252E5,2.425934E5,1.4996434E5,1.2966296E5,1.5144983E5,6.24188E4,7.539837E4,3.013345E4,1.7259364E5,8.316227E3,1.8277625E5,8.813579E4,6.6285805E4,9.184986E4,3.018809E4,7.506606E4,4.277027E4,5.07509E4,3.984574E4,2.0191957E4,2.6730898E4,2.067895E4,3.0067879E4,2.0528825E5,8.2546525E5,2.79003E2,2.3141205E2,3.7893697E5,1.3764819E5,5.3612537E2,5.2364708E1,2.7405153E5,1.2628565E5,1.779335E4,3.0483612E5,1.5882879E4,1.3656256E4,2.2558736E5,7.76132E4,6.611497E4,3.14843E5,1.0516341E5,3.756911E4,1.6888535E4,2.2570486E5,8.095933E4,6.9005016E4,7.213408E3,1.22449555E5,9.8280305E4,5.3169527E4,4.0401375E3,5.837866E4,4.950075E4,2.5897617E4,2.2525113E4,7.6083364E3,7.5580336E4,9.70133E4,3.5255208E3,4.790705E3,1.1278628E5,6.998996E4,5.0959844E4,3.717594E4,4.126501E4,2.5020795E4,4.807855E4,4.377131E4,2.5740842E4,4.4472466E3,1.6858738E4,5.820733E4,4.1810047E4,9.6022485E2,2.7777527E4,2.2973373E4,2.5006738E4,1.4839001E4,1.4676929E3,1.8724264E4,1.7453074E4,9.277823E3,9.174525E3,1.1504424E4,1.4982721E4,1.5085158E4],"tree_param":{"num_deleted":"0","num_feature":"40","num_nodes":"127","size_leaf_vector":"1"}},{"base_weights":[-2.3430085E-3,-5.46335E-1,2.1015215E0,-8.7683403E-1,7.6998316E-2,1.487241E0,3.5631137E0,-1.0510092E0,-6.4561605E-1,-1.7348766E-1,4.0024692E-1,1.1445909E0,2.033236E0,3.0625575E0,4.680628E0,-9.0781033E-1,-1.1061438E0,-7.5284153E-1,-5.345921E-1,-1.872939E-1,1.0221906E0,2.4322174E-1,5.700467E-1,9.84697E-1,1.4064413E0,1.8295615E0,2.347443E0,2.7356255E0,3.358158E0,4.2058635E0,5.15652E0,-9.107874E-1,3.9779856E0,-1.176425E0,-9.875873E-1,-7.682922E-1,-1.3307707E-1,-5.4831773E-1,4.3122923E-1,-3.0677807E-1,-6.765657E-2,7.8878075E-1,1.7590513E0,2.2860596E-1,1.420823E0,5.403525E-1,1.2266084E0,8.905743E-1,1.1971508E0,1.30031E0,1.6411749E0,1.7013234E0,2.1055908E0,2.2148528E0,2.6321917E0,2.595483E0,3.0320156E0,3.1360328E0,3.5879004E0,3.9260058E0,4.489342E0,4.7732196E0,5.300873E0,2.6255034E-2,-2.7500505E-2,1.3934796E-4,1.417696E-1,-3.529344E-2,-1.5484562E-2,-2.9661346E-2,1.037353E-1,-1.6397648E-2,-2.3446891E-2,-5.8729365E-3,3.0141491E-2,-1.7748637E-2,-1.3306501E-2,7.407725E-3,4.2063814E-2,-1.0953658E-2,-5.051163E-3,-4.097023E-3,2.799305E-3,3.1474754E-2,1.2933141E-2,3.3807654E-2,6.8196565E-2,4.6075834E-3,1.2057484E-2,3.1854503E-2,6.9711864E-2,1.3599248E-2,2.215306E-2,3.1807512E-2,7.340065E-2,2.5059868E-2,3.5256717E-2,3.2501467E-2,4.0261272E-2,3.5966713E-2,4.3221075E-2,4.119776E-2,5.1293388E-2,9.452938E-3,5.148796E-2,5.8666755E-2,6.798466E-2,6.252588E-2,7.316923E-2,6.76605E-2,8.0490924E-2,7.279155E-2,8.2484916E-2,8.816916E-2,1.02273315E-1,9.096015E-2,9.966457E-2,1.0316418E-1,1.1287106E-1,1.1040352E-1,1.2378655E-1,1.3039607E-1,1.408387E-1,6.711968E-2,1.4377744E-1,1.542005E-1,1.6467886E-1],"categories":[],"categories_nodes":[],"categories_segments":[],"categories_sizes":[],"default_left":[0,0,0,0,0,0,0,0,0,0,0,0,0,0,0,0,0,0,0,0,0,0,0,0,0,0,0,0,0,0,0,0,0,0,0,0,0,0,0,0,0,0,0,0,0,0,0,0,0,0,0,0,0,0,0,0,0,0,0,0,0,0,0,0,0,0,0,0,0,0,0,0,0,0,0,0,0,0,0,0,0,0,0,0,0,0,0,0,0,0,0,0,0,0,0,0,0,0,0,0,0,0,0,0,0,0,0,0,0,0,0,0,0,0,0,0,0,0,0,0,0,0,0,0,0,0,0],"id":6,"left_children":[1,3,5,7,9,11,13,15,17,19,21,23,25,27,29,31,33,35,37,39,41,43,45,47,49,51,53,55,57,59,61,63,65,67,69,71,73,75,77,79,81,83,85,87,89,91,93,95,97,99,101,103,105,107,109,111,113,115,117,119,121,123,125,-1,-1,-1,-1,-1,-1,-1,-1,-1,-1,-1,-1,-1,-1,-1,-1,-1,-1,-1,-1,-1,-1,-1,-1,-1,-1,-1,-1,-1,-1,-1,-1,-1,-1,-1,-1,-1,-1,-1,-1,-1,-1,-1,-1,-1,-1,-1,-1,-1,-1,-1,-1,-1,-1,-1,-1,-1,-1,-1,-1,-1,-1,-1,-1],"loss_changes":[5.589354E6,7.994021E5,9.00821E5,1.0212375E5,1.0886644E5,1.3216112E5,1.660585E5,1.1417375E4,1.29695625E4,1.2505354E4,1.5651094E4,1.8170625E4,1.7425125E4,1.9802625E4,2.0717875E4,5.8534062E3,8.699E3,5.307E3,7.0963594E3,1.0705049E4,1.4849219E3,5.248547E3,5.497336E3,5.387203E3,4.096E3,5.8444375E3,4.0351875E3,4.0324375E3,5.47775E3,3.620875E3,2.498625E3,4.2325625E3,7.2763696E2,8.9375E0,1.947375E3,1.5902188E3,9.618881E2,2.3939531E3,1.3415995E3,3.025457E3,4.150832E3,6.110371E2,6.71499E2,3.9165322E3,1.2077876E3,4.6518047E3,2.4724277E3,2.9352969E3,1.361375E3,1.6107656E3,9.377969E2,2.3365312E3,1.2557031E3,2.1325E3,6.4228125E2,1.7116875E3,1.0808438E3,1.0445625E3,1.3565E3,1.1162188E3,6.3784375E2,6E2,9.659375E2,0E0,0E0,0E0,0E0,0E0,0E0,0E0,0E0,0E0,0E0,0E0,0E0,0E0,0E0,0E0,0E0,0E0,0E0,0E0,0E0,0E0,0E0,0E0,0E0,0E0,0E0,0E0,0E0,0E0,0E0,0E0,0E0,0E0,0E0,0E0,0E0,0E0,0E0,0E0,0E0,0E0,0E0,0E0,0E0,0E0,0E0,0E0,0E0,0E0,0E0,0E0,0E0,0E0,0E0,0E0,0E0,0E0,0E0,0E0,0E0,0E0,0E0,0E0,0E0],"parents":[2147483647,0,0,1,1,2,2,3,3,4,4,5,5,6,6,7,7,8,8,9,9,10,10,11,11,12,12,13,13,14,14,15,15,16,16,17,17,18,18,19,19,20,20,21,21,22,22,23,23,24,24,25,25,26,26,27,27,28,28,29,29,30,30,31,31,32,32,33,33,34,34,35,35,36,36,37,37,38,38,39,39,40,40,41,41,42,42,43,43,44,44,45,45,46,46,47,47,48,48,49,49,50,50,51,51,52,52,53,53,54,54,55,55,56,56,57,57,58,58,59,59,60,60,61,61,62,62],"right_children":[2,4,6,8,10,12,14,16,18,20,22,24,26,28,30,32,34,36,38,40,42,44,46,48,50,52,54,56,58,60,62,64,66,68,70,72,74,76,78,80,82,84,86,88,90,92,94,96,98,100,102,104,106,108,110,112,114,116,118,120,122,124,126,-1,-1,-1,-1,-1,-1,-1,-1,-1,-1,-1,-1,-1,-1,-1,-1,-1,-1,-1,-1,-1,-1,-1,-1,-1,-1,-1,-1,-1,-1,-1,-1,-1,-1,-1,-1,-1,-1,-1,-1,-1,-1,-1,-1,-1,-1,-1,-1,-1,-1,-1,-1,-1,-1,-1,-1,-1,-1,-1,-1,-1,-1,-1,-1],"split_conditions":[2.7857144E0,7.1428573E-1,1.1714286E1,4.600437E-1,1.4285715E0,5.678571E0,3.1285715E1,1E0,4.2857143E-1,2.857143E0,1.9642857E0,4.178571E0,8.571428E0,1.6E1,5.9E1,9.928572E0,1.0034719E0,1E0,1.7142857E0,1E0,7E0,4E0,4.142857E0,5E0,5E0,5E0,5E0,5E0,2.1E1,3.8E1,6.4E1,5.269373E-2,1.42E0,4.258153E-1,7.714286E0,3.5714287E-2,6E0,5E0,6E0,5E0,5E0,1.4285715E-1,2.712893E0,5E0,9E0,5E0,7.714286E0,4.571429E0,3.5714285E0,5.142857E0,3E0,2.857143E-1,6.857143E0,1E0,6.142857E0,1.3E1,2.6E1,1E0,5E0,2.6E1,5.1E1,1.0000447E-2,1.02E2,2.6255034E-2,-2.7500505E-2,1.3934796E-4,1.417696E-1,-3.529344E-2,-1.5484562E-2,-2.9661346E-2,1.037353E-1,-1.6397648E-2,-2.3446891E-2,-5.8729365E-3,3.0141491E-2,-1.7748637E-2,-1.3306501E-2,7.407725E-3,4.2063814E-2,-1.0953658E-2,-5.051163E-3,-4.097023E-3,2.799305E-3,3.1474754E-2,1.2933141E-2,3.3807654E-2,6.8196565E-2,4.6075834E-3,1.2057484E-2,3.1854503E-2,6.9711864E-2,1.3599248E-2,2.215306E-2,3.1807512E-2,7.340065E-2,2.5059868E-2,3.5256717E-2,3.2501467E-2,4.0261272E-2,3.5966713E-2,4.3221075E-2,4.119776E-2,5.1293388E-2,9.452938E-3,5.148796E-2,5.8666755E-2,6.798466E-2,6.252588E-2,7.316923E-2,6.76605E-2,8.0490924E-2,7.279155E-2,8.2484916E-2,8.816916E-2,1.02273315E-1,9.096015E-2,9.966457E-2,1.0316418E-1,1.1287106E-1,1.1040352E-1,1.2378655E-1,1.3039607E-1,1.408387E-1,6.711968E-2,1.4377744E-1,1.542005E-1,1.6467886E-1],"split_indices":[32,32,28,33,32,32,28,22,32,28,32,32,32,32,23,36,22,28,28,32,23,28,28,3,3,3,3,3,23,26,26,22,17,31,36,38,23,3,23,3,3,36,33,3,23,3,28,28,28,28,23,28,28,10,28,23,23,10,3,27,27,19,23,0,0,0,0,0,0,0,0,0,0,0,0,0,0,0,0,0,0,0,0,0,0,0,0,0,0,0,0,0,0,0,0,0,0,0,0,0,0,0,0,0,0,0,0,0,0,0,0,0,0,0,0,0,0,0,0,0,0,0,0,0,0,0,0],"split_type":[0,0,0,0,0,0,0,0,0,0,0,0,0,0,0,0,0,0,0,0,0,0,0,0,0,0,0,0,0,0,0,0,0,0,0,0,0,0,0,0,0,0,0,0,0,0,0,0,0,0,0,0,0,0,0,0,0,0,0,0,0,0,0,0,0,0,0,0,0,0,0,0,0,0,0,0,0,0,0,0,0,0,0,0,0,0,0,0,0,0,0,0,0,0,0,0,0,0,0,0,0,0,0,0,0,0,0,0,0,0,0,0,0,0,0,0,0,0,0,0,0,0,0,0,0,0,0],"sum_hessian":[4.8837245E6,3.8803828E6,1.0033415E6,2.5358455E6,1.3445375E6,7.0644056E5,2.9690094E5,1.4463289E6,1.0895165E6,7.5752794E5,5.870095E5,4.3404912E5,2.723914E5,2.0505742E5,9.184352E4,4.0207188E5,1.044257E6,5.5423444E5,5.3528206E5,7.488821E5,8.645823E3,3.0497922E5,2.8203028E5,2.6949488E5,1.6455425E5,1.6527062E5,1.0712079E5,9.737604E4,1.0768139E5,4.598372E4,4.58598E4,4.0182825E5,2.4360489E2,6.55599E5,3.88658E5,5.40753E5,1.3481408E4,5.277823E5,7.4997466E3,3.7467928E5,3.7420284E5,6.5684326E3,2.0773909E3,3.0124222E5,3.7369912E3,2.6982966E5,1.2200651E4,1.8676244E5,8.2732445E4,1.1332588E5,5.122837E4,1.12852555E5,5.2418062E4,7.309733E4,3.4023465E4,6.612502E4,3.1251016E4,5.475966E4,5.292173E4,2.3151049E4,2.283267E4,1.2560296E4,3.3299504E4,1.3214425E3,4.005068E5,3.8840015E1,2.0476488E2,6.5557475E5,2.4280592E1,3.8856094E5,9.707923E1,3.0544623E4,5.102084E5,1.2778688E4,7.0272046E2,3.7342638E5,1.5435595E5,6.304879E3,1.1948677E3,2.6357025E5,1.1110904E5,2.6202789E5,1.12174945E5,3.7994006E3,2.769032E3,9.340412E2,1.1433497E3,2.1024012E5,9.1002086E4,2.6762546E3,1.0607366E3,1.8745919E5,8.237045E4,1.073924E4,1.4614115E3,1.5641194E5,3.0350494E4,4.6351074E4,3.638137E4,6.580405E4,4.7521836E4,1.0450365E4,4.0778004E4,1.2038779E3,1.1164868E5,2.7108318E4,2.5309746E4,4.6187277E4,2.691005E4,4.052751E3,2.9970715E4,3.1531342E4,3.459368E4,2.507703E4,6.1739873E3,3.514343E4,1.9616229E4,2.8553004E4,2.4368727E4,1.0403591E4,1.2747459E4,1.3485239E4,9.347432E3,9.653687E1,1.246376E4,1.7986955E4,1.531255E4],"tree_param":{"num_deleted":"0","num_feature":"40","num_nodes":"127","size_leaf_vector":"1"}},{"base_weights":[-1.0572821E-3,-5.318438E-1,2.009648E0,-8.447333E-1,1.0498018E-1,1.4494393E0,3.4338627E0,-1.0247401E0,-5.696781E-1,-1.1952691E-1,4.2359346E-1,1.1051732E0,1.9462725E0,2.912879E0,4.4143195E0,-1.1032639E0,-8.9307904E-1,-6.6260445E-1,-3.618199E-1,-2.332218E-1,1.1332585E-1,2.8517497E-1,6.5002704E-1,9.464631E-1,1.3708099E0,1.7274228E0,2.2092144E0,2.6452763E0,3.1255956E0,3.9585025E0,4.956697E0,-9.063987E-1,-1.1529126E0,-9.396824E-1,-8.2303596E-1,-7.254201E-1,-5.6766146E-1,-3.8304454E-1,1.8244768E0,-2.9994002E-1,-1.0683878E-1,5.2779295E-2,3.8183194E-1,2.1013565E-1,4.566912E-1,5.898992E-1,9.2520684E-1,8.544127E-1,1.1525265E0,1.2718403E0,1.5889907E0,1.6113302E0,1.982361E0,2.0833054E0,2.4792492E0,2.511539E0,2.9230316E0,2.978897E0,3.4246943E0,3.6978264E0,4.2469463E0,4.5882154E0,5.128887E0,-2.7373677E-2,1.3484676E-1,-3.460481E-2,1.0033487E-1,2.7834788E-2,-2.825705E-2,-2.555825E-2,-2.0984279E-2,-2.3204504E-2,-1.995675E-2,-8.90571E-3,-1.753878E-2,-1.2106752E-2,6.3177394E-3,3.848396E-2,1.22977324E-1,-1.0703605E-2,-4.948377E-3,-5.047809E-3,1.0699653E-3,-6.25875E-4,6.729514E-3,9.983405E-3,4.02566E-2,3.4741473E-3,9.833856E-3,1.0688102E-2,1.7438192E-2,1.5195951E-2,2.3327433E-2,2.6486434E-2,5.9923258E-2,2.1588244E-2,2.9548185E-2,3.11881E-2,3.947751E-2,3.4083307E-2,4.175432E-2,4.5804728E-2,5.9128866E-2,4.5075156E-2,5.5139173E-2,5.577175E-2,6.690116E-2,5.830154E-2,6.707906E-2,7.084794E-2,8.039979E-2,7.157889E-2,8.281003E-2,8.3899364E-2,9.337075E-2,8.4240265E-2,9.5282055E-2,9.77437E-2,1.08386606E-1,7.571666E-2,1.1199746E-1,1.2282174E-1,1.3507113E-1,1.3168876E-1,1.4367689E-1,1.4843383E-1,1.5806569E-1],"categories":[],"categories_nodes":[],"categories_segments":[],"categories_sizes":[],"default_left":[0,0,0,0,0,0,0,0,0,0,0,0,0,0,0,0,0,0,0,0,0,0,0,0,0,0,0,0,0,0,0,0,0,0,0,0,0,0,0,0,0,0,0,0,0,0,0,0,0,0,0,0,0,0,0,0,0,0,0,0,0,0,0,0,0,0,0,0,0,0,0,0,0,0,0,0,0,0,0,0,0,0,0,0,0,0,0,0,0,0,0,0,0,0,0,0,0,0,0,0,0,0,0,0,0,0,0,0,0,0,0,0,0,0,0,0,0,0,0,0,0,0,0,0,0,0,0],"id":7,"left_children":[1,3,5,7,9,11,13,15,17,19,21,23,25,27,29,31,33,35,37,39,41,43,45,47,49,51,53,55,57,59,61,63,65,67,69,71,73,75,77,79,81,83,85,87,89,91,93,95,97,99,101,103,105,107,109,111,113,115,117,119,121,123,125,-1,-1,-1,-1,-1,-1,-1,-1,-1,-1,-1,-1,-1,-1,-1,-1,-1,-1,-1,-1,-1,-1,-1,-1,-1,-1,-1,-1,-1,-1,-1,-1,-1,-1,-1,-1,-1,-1,-1,-1,-1,-1,-1,-1,-1,-1,-1,-1,-1,-1,-1,-1,-1,-1,-1,-1,-1,-1,-1,-1,-1,-1,-1,-1],"loss_changes":[5.181547E6,7.6535225E5,8.0899025E5,1.275215E5,9.051993E4,1.24468E5,1.46194E5,1.6093E4,1.9678562E4,1.9653574E4,1.6394914E4,1.8120625E4,1.7134E4,1.06275E4,2.4524375E4,9.529625E3,1.8972188E3,4.1981875E3,1.4607047E4,4.205922E3,3.959432E3,4.1781523E3,3.2826328E3,5.102578E3,3.4682188E3,4.8061562E3,4.59175E3,3.063875E3,4.5531875E3,4.034E3,2.840875E3,6.4317188E3,2.0405625E3,1.4486562E3,8.289219E2,1.2249531E3,1.2875781E3,3.7964336E3,3.7209043E3,2.505162E3,1.508547E3,2.510612E3,2.1095728E3,2.5065205E3,1.2357109E3,2.5476523E3,1.6119766E3,3.2717656E3,1.5306797E3,1.7985E3,1.1862969E3,2.75075E3,1.5465625E3,1.96425E3,1.00596875E3,1.7359375E3,6.2996875E2,2.3405625E3,1.0555E3,1.1647188E3,9.7159375E2,5.4465625E2,7.42875E2,0E0,0E0,0E0,0E0,0E0,0E0,0E0,0E0,0E0,0E0,0E0,0E0,0E0,0E0,0E0,0E0,0E0,0E0,0E0,0E0,0E0,0E0,0E0,0E0,0E0,0E0,0E0,0E0,0E0,0E0,0E0,0E0,0E0,0E0,0E0,0E0,0E0,0E0,0E0,0E0,0E0,0E0,0E0,0E0,0E0,0E0,0E0,0E0,0E0,0E0,0E0,0E0,0E0,0E0,0E0,0E0,0E0,0E0,0E0,0E0,0E0,0E0,0E0,0E0],"parents":[2147483647,0,0,1,1,2,2,3,3,4,4,5,5,6,6,7,7,8,8,9,9,10,10,11,11,12,12,13,13,14,14,15,15,16,16,17,17,18,18,19,19,20,20,21,21,22,22,23,23,24,24,25,25,26,26,27,27,28,28,29,29,30,30,31,31,32,32,33,33,34,34,35,35,36,36,37,37,38,38,39,39,40,40,41,41,42,42,43,43,44,44,45,45,46,46,47,47,48,48,49,49,50,50,51,51,52,52,53,53,54,54,55,55,56,56,57,57,58,58,59,59,60,60,61,61,62,62],"right_children":[2,4,6,8,10,12,14,16,18,20,22,24,26,28,30,32,34,36,38,40,42,44,46,48,50,52,54,56,58,60,62,64,66,68,70,72,74,76,78,80,82,84,86,88,90,92,94,96,98,100,102,104,106,108,110,112,114,116,118,120,122,124,126,-1,-1,-1,-1,-1,-1,-1,-1,-1,-1,-1,-1,-1,-1,-1,-1,-1,-1,-1,-1,-1,-1,-1,-1,-1,-1,-1,-1,-1,-1,-1,-1,-1,-1,-1,-1,-1,-1,-1,-1,-1,-1,-1,-1,-1,-1,-1,-1,-1,-1,-1,-1,-1,-1,-1,-1,-1,-1,-1,-1,-1,-1,-1,-1],"split_conditions":[2.857143E0,7.8571427E-1,1.2285714E1,5.345225E-1,1.5714285E0,5.714286E0,2.9142857E1,1.8898223E-1,6.785714E-1,1.25E0,2.1785715E0,4.178571E0,8.285714E0,1.6714285E1,5.8E1,9.5306915E-1,4.258153E-1,5E-1,8.026056E0,1.1428572E0,2.107143E0,5E0,3.642857E0,5E0,5E0,5E0,5E0,5E0,5E0,3.9E1,7.1E1,2.7571428E1,6.714286E0,5.269373E-2,3.5714287E-1,3.9285713E-1,3.5714287E-2,3.0357144E0,4.3E1,5E0,5E0,5E0,5.714286E0,2E0,2E0,5E0,5E0,3.5714285E0,3.7857144E0,5.178571E0,7.321429E0,7.321429E0,7.321429E0,9.428572E0,1.05E1,1E0,1.8E1,1.9678572E1,1.9678572E1,1.9798912E-3,5E1,6.2E1,9.3E1,-2.7373677E-2,1.3484676E-1,-3.460481E-2,1.0033487E-1,2.7834788E-2,-2.825705E-2,-2.555825E-2,-2.0984279E-2,-2.3204504E-2,-1.995675E-2,-8.90571E-3,-1.753878E-2,-1.2106752E-2,6.3177394E-3,3.848396E-2,1.22977324E-1,-1.0703605E-2,-4.948377E-3,-5.047809E-3,1.0699653E-3,-6.25875E-4,6.729514E-3,9.983405E-3,4.02566E-2,3.4741473E-3,9.833856E-3,1.0688102E-2,1.7438192E-2,1.5195951E-2,2.3327433E-2,2.6486434E-2,5.9923258E-2,2.1588244E-2,2.9548185E-2,3.11881E-2,3.947751E-2,3.4083307E-2,4.175432E-2,4.5804728E-2,5.9128866E-2,4.5075156E-2,5.5139173E-2,5.577175E-2,6.690116E-2,5.830154E-2,6.707906E-2,7.084794E-2,8.039979E-2,7.157889E-2,8.281003E-2,8.3899364E-2,9.337075E-2,8.4240265E-2,9.5282055E-2,9.77437E-2,1.08386606E-1,7.571666E-2,1.1199746E-1,1.2282174E-1,1.3507113E-1,1.3168876E-1,1.4367689E-1,1.4843383E-1,1.5806569E-1],"split_indices":[30,30,30,33,30,30,30,33,38,38,38,38,30,30,26,22,31,30,37,30,38,3,38,3,3,3,3,3,3,25,24,38,36,22,38,38,38,38,27,3,3,3,38,30,30,3,29,30,30,38,38,38,38,38,38,10,27,38,38,19,27,27,25,0,0,0,0,0,0,0,0,0,0,0,0,0,0,0,0,0,0,0,0,0,0,0,0,0,0,0,0,0,0,0,0,0,0,0,0,0,0,0,0,0,0,0,0,0,0,0,0,0,0,0,0,0,0,0,0,0,0,0,0,0,0,0,0],"split_type":[0,0,0,0,0,0,0,0,0,0,0,0,0,0,0,0,0,0,0,0,0,0,0,0,0,0,0,0,0,0,0,0,0,0,0,0,0,0,0,0,0,0,0,0,0,0,0,0,0,0,0,0,0,0,0,0,0,0,0,0,0,0,0,0,0,0,0,0,0,0,0,0,0,0,0,0,0,0,0,0,0,0,0,0,0,0,0,0,0,0,0,0,0,0,0,0,0,0,0,0,0,0,0,0,0,0,0,0,0,0,0,0,0,0,0,0,0,0,0,0,0,0,0,0,0,0,0],"sum_hessian":[4.8550185E6,3.8410565E6,1.0139619E6,2.5755942E6,1.2654624E6,7.2771956E5,2.862423E5,1.5567754E6,1.0188188E6,7.4236456E5,5.2309778E5,4.298633E5,2.9785622E5,1.8692325E5,9.931906E4,9.7516675E5,5.816087E5,7.0405575E5,3.1476303E5,4.9881088E5,2.4355367E5,3.24646E5,1.9845178E5,2.6909447E5,1.6076884E5,1.6256397E5,1.3529227E5,8.279089E4,1.0413236E5,5.3972703E4,4.5346355E4,1.964084E5,7.787584E5,3.4922825E5,2.323804E5,4.2371116E5,2.803446E5,3.1173794E5,3.0250818E3,3.2646534E5,1.7234555E5,1.9874092E5,4.4812746E4,2.2584255E5,9.880346E4,1.628693E5,3.5582477E4,1.8601019E5,8.308429E4,1.1060687E5,5.0161973E4,1.1170677E5,5.0857203E4,9.227884E4,4.3013414E4,5.589383E4,2.6897059E4,6.98768E4,3.425556E4,2.8362041E4,2.561066E4,1.4455055E4,3.0891303E4,1.9618966E5,2.1875085E2,7.786589E5,9.945799E1,4.1371332E2,3.4881456E5,1.883159E5,4.40645E4,2.3558577E5,1.8812538E5,1.6528836E4,2.6381578E5,3.013259E5,1.0412052E4,2.4452073E3,5.7987445E2,2.2972402E5,9.674132E4,1.2043615E5,5.1909395E4,1.390479E5,5.969302E4,4.2636457E4,2.1762878E3,1.25349984E5,1.0049256E5,5.4710117E4,4.4093344E4,1.1277929E5,5.0090008E4,3.4233945E4,1.3485317E3,9.151084E4,9.449934E4,4.913654E4,3.3947754E4,5.1902664E4,5.8704203E4,4.314743E4,7.0145425E3,7.547736E4,3.6229414E4,3.3962617E4,1.6894584E4,4.815998E4,4.4118867E4,2.713178E4,1.5881632E4,3.7156066E4,1.8737764E4,1.614414E4,1.0752919E4,3.7445895E4,3.2430904E4,1.8186512E4,1.6069048E4,8.339905E2,2.752805E4,1.6037265E4,9.573396E3,7.288865E3,7.1661895E3,1.3491389E4,1.7399914E4],"tree_param":{"num_deleted":"0","num_feature":"40","num_nodes":"127","size_leaf_vector":"1"}},{"base_weights":[-3.683197E-3,-5.4480505E-1,1.8303612E0,-8.724181E-1,3.0751582E-2,1.2953224E0,3.1815925E0,-1.0554544E0,-6.5603065E-1,-1.9833189E-1,3.2076284E-1,9.5656323E-1,1.7520566E0,2.7081494E0,4.2636065E0,-8.994557E-1,-1.1131599E0,-7.5128555E-1,-5.301662E-1,-2.1256499E-1,7.7002347E-1,1.9316164E-1,4.7378007E-1,7.9981214E-1,1.135126E0,1.5473651E0,2.0302005E0,2.422959E0,2.9669058E0,3.7879903E0,4.7954597E0,-9.081383E-1,1.2173908E0,-1.1764332E0,-9.918187E-1,-7.651729E-1,-1.21540174E-1,-5.4377127E-1,4.448262E-1,-3.083602E-1,-8.599818E-2,1.0590689E0,2.5692642E-1,1.8194358E-1,1.6601467E0,4.4619337E-1,1.1143782E0,7.142211E-1,9.914746E-1,1.0468463E0,1.3304833E0,1.4435122E0,1.7736799E0,1.917742E0,2.2742758E0,2.2986782E0,2.6800807E0,2.803991E0,3.2424521E0,3.497477E0,4.0833597E0,4.567415E0,5.0842834E0,1.8476278E-2,-2.7387785E-2,1.9394081E-2,1.3029665E-1,-3.529368E-2,-1.4575459E-2,-2.9808752E-2,8.017032E-2,-2.4061352E-2,-2.0498473E-2,-7.6413467E-3,1.0344951E-2,-1.7577926E-2,-1.3261641E-2,8.038726E-3,4.196665E-2,-1.09166205E-2,-5.3353375E-3,-4.503806E-3,1.8815427E-3,2.7277375E-2,6.886738E-2,5.6260475E-3,5.8430918E-2,3.3655744E-3,1.0245843E-2,3.748721E-2,7.127009E-2,1.1045431E-2,1.8665908E-2,2.8665135E-2,7.2841294E-2,2.1000778E-2,4.5632336E-2,2.8203722E-2,3.8491596E-2,2.9442137E-2,3.6694426E-2,3.633877E-2,4.3149E-2,4.3182008E-2,1.7671673E-1,4.8079386E-2,5.614337E-2,6.1434723E-2,5.237127E-2,6.463537E-2,7.340961E-2,6.57802E-2,7.497334E-2,7.7747494E-2,8.992145E-2,8.167543E-2,9.247694E-2,9.3672864E-2,1.0465354E-1,7.412175E-2,1.0644942E-1,1.1700712E-1,1.296784E-1,1.2677024E-1,1.411301E-1,1.491069E-1,1.5984008E-1],"categories":[],"categories_nodes":[],"categories_segments":[],"categories_sizes":[],"default_left":[0,0,0,0,0,0,0,0,0,0,0,0,0,0,0,0,0,0,0,0,0,0,0,0,0,0,0,0,0,0,0,0,0,0,0,0,0,0,0,0,0,0,0,0,0,0,0,0,0,0,0,0,0,0,0,0,0,0,0,0,0,0,0,0,0,0,0,0,0,0,0,0,0,0,0,0,0,0,0,0,0,0,0,0,0,0,0,0,0,0,0,0,0,0,0,0,0,0,0,0,0,0,0,0,0,0,0,0,0,0,0,0,0,0,0,0,0,0,0,0,0,0,0,0,0,0,0],"id":8,"left_children":[1,3,5,7,9,11,13,15,17,19,21,23,25,27,29,31,33,35,37,39,41,43,45,47,49,51,53,55,57,59,61,63,65,67,69,71,73,75,77,79,81,83,85,87,89,91,93,95,97,99,101,103,105,107,109,111,113,115,117,119,121,123,125,-1,-1,-1,-1,-1,-1,-1,-1,-1,-1,-1,-1,-1,-1,-1,-1,-1,-1,-1,-1,-1,-1,-1,-1,-1,-1,-1,-1,-1,-1,-1,-1,-1,-1,-1,-1,-1,-1,-1,-1,-1,-1,-1,-1,-1,-1,-1,-1,-1,-1,-1,-1,-1,-1,-1,-1,-1,-1,-1,-1,-1,-1,-1,-1],"loss_changes":[4.789424E6,7.0265725E5,7.9486025E5,9.4054E4,8.980399E4,1.2185725E5,1.59739E5,1.157925E4,1.3046219E4,1.0408715E4,1.1647211E4,1.26556875E4,1.909025E4,1.5998E4,2.3982625E4,6.3866875E3,7.20825E3,5.417E3,6.218875E3,9.023574E3,1.6218569E3,5.352463E3,4.792633E3,3.9492656E3,3.6433438E3,4.537125E3,3.8956875E3,3.2881875E3,5.0915E3,4.2783125E3,2.9151875E3,2.5254375E3,2.5288438E3,8.6875E0,2.1343125E3,1.8290312E3,8.3031366E2,1.9822031E3,1.0880522E3,3.0698984E3,3.0578748E3,1.2927676E3,4.6197012E2,3.5935771E3,7.20313E2,3.5702227E3,2.3332188E3,1.9049375E3,1.1110078E3,1.6778906E3,8.425547E2,2.4085E3,1.01128125E3,2.1726562E3,9.1909375E2,1.469875E3,9.31875E2,1.609375E3,1.2304688E3,1.3055938E3,1.06225E3,1.1415312E3,5.0834375E2,0E0,0E0,0E0,0E0,0E0,0E0,0E0,0E0,0E0,0E0,0E0,0E0,0E0,0E0,0E0,0E0,0E0,0E0,0E0,0E0,0E0,0E0,0E0,0E0,0E0,0E0,0E0,0E0,0E0,0E0,0E0,0E0,0E0,0E0,0E0,0E0,0E0,0E0,0E0,0E0,0E0,0E0,0E0,0E0,0E0,0E0,0E0,0E0,0E0,0E0,0E0,0E0,0E0,0E0,0E0,0E0,0E0,0E0,0E0,0E0,0E0,0E0,0E0,0E0],"parents":[2147483647,0,0,1,1,2,2,3,3,4,4,5,5,6,6,7,7,8,8,9,9,10,10,11,11,12,12,13,13,14,14,15,15,16,16,17,17,18,18,19,19,20,20,21,21,22,22,23,23,24,24,25,25,26,26,27,27,28,28,29,29,30,30,31,31,32,32,33,33,34,34,35,35,36,36,37,37,38,38,39,39,40,40,41,41,42,42,43,43,44,44,45,45,46,46,47,47,48,48,49,49,50,50,51,51,52,52,53,53,54,54,55,55,56,56,57,57,58,58,59,59,60,60,61,61,62,62],"right_children":[2,4,6,8,10,12,14,16,18,20,22,24,26,28,30,32,34,36,38,40,42,44,46,48,50,52,54,56,58,60,62,64,66,68,70,72,74,76,78,80,82,84,86,88,90,92,94,96,98,100,102,104,106,108,110,112,114,116,118,120,122,124,126,-1,-1,-1,-1,-1,-1,-1,-1,-1,-1,-1,-1,-1,-1,-1,-1,-1,-1,-1,-1,-1,-1,-1,-1,-1,-1,-1,-1,-1,-1,-1,-1,-1,-1,-1,-1,-1,-1,-1,-1,-1,-1,-1,-1,-1,-1,-1,-1,-1,-1,-1,-1,-1,-1,-1,-1,-1,-1,-1,-1,-1,-1,-1,-1],"split_conditions":[2.607143E0,6.785714E-1,1.1714286E1,4.1785544E-1,1.3571428E0,5.178571E0,3.1285715E1,1E0,4.2857143E-1,2.5714285E0,1.8928572E0,3.642857E0,7.892857E0,1.6E1,6.2E1,4.75E0,1.0034719E0,1E0,1.7142857E0,1E0,3.7796447E-1,4.571429E0,4E0,5E0,5E0,5E0,5E0,5E0,2.4E1,3.7E1,9.3E1,5.269373E-2,2.7571428E1,3.7796447E-1,4.571429E0,3.9285713E-1,3E0,5E0,6E0,5E0,5E0,1.1E1,3.142857E0,5E0,9E0,5E0,7.714286E0,6.428571E0,7E0,5.142857E0,5E0,7.1E1,6E0,1.7E1,1.2E1,1.35E1,2.5E1,5E0,3E1,1.0000447E-2,5.1E1,5.7E1,1.28E2,1.8476278E-2,-2.7387785E-2,1.9394081E-2,1.3029665E-1,-3.529368E-2,-1.4575459E-2,-2.9808752E-2,8.017032E-2,-2.4061352E-2,-2.0498473E-2,-7.6413467E-3,1.0344951E-2,-1.7577926E-2,-1.3261641E-2,8.038726E-3,4.196665E-2,-1.09166205E-2,-5.3353375E-3,-4.503806E-3,1.8815427E-3,2.7277375E-2,6.886738E-2,5.6260475E-3,5.8430918E-2,3.3655744E-3,1.0245843E-2,3.748721E-2,7.127009E-2,1.1045431E-2,1.8665908E-2,2.8665135E-2,7.2841294E-2,2.1000778E-2,4.5632336E-2,2.8203722E-2,3.8491596E-2,2.9442137E-2,3.6694426E-2,3.633877E-2,4.3149E-2,4.3182008E-2,1.7671673E-1,4.8079386E-2,5.614337E-2,6.1434723E-2,5.237127E-2,6.463537E-2,7.340961E-2,6.57802E-2,7.497334E-2,7.7747494E-2,8.992145E-2,8.167543E-2,9.247694E-2,9.3672864E-2,1.0465354E-1,7.412175E-2,1.0644942E-1,1.1700712E-1,1.296784E-1,1.2677024E-1,1.411301E-1,1.491069E-1,1.5984008E-1],"split_indices":[32,32,28,33,32,32,28,22,32,28,32,32,32,32,23,38,22,28,28,32,35,28,28,3,3,3,3,3,23,27,24,22,38,33,36,38,23,3,23,3,3,23,38,3,23,3,28,28,23,28,23,27,23,6,23,32,23,3,25,19,24,25,23,0,0,0,0,0,0,0,0,0,0,0,0,0,0,0,0,0,0,0,0,0,0,0,0,0,0,0,0,0,0,0,0,0,0,0,0,0,0,0,0,0,0,0,0,0,0,0,0,0,0,0,0,0,0,0,0,0,0,0,0,0,0,0,0],"split_type":[0,0,0,0,0,0,0,0,0,0,0,0,0,0,0,0,0,0,0,0,0,0,0,0,0,0,0,0,0,0,0,0,0,0,0,0,0,0,0,0,0,0,0,0,0,0,0,0,0,0,0,0,0,0,0,0,0,0,0,0,0,0,0,0,0,0,0,0,0,0,0,0,0,0,0,0,0,0,0,0,0,0,0,0,0,0,0,0,0,0,0,0,0,0,0,0,0,0,0,0,0,0,0,0,0,0,0,0,0,0,0,0,0,0,0,0,0,0,0,0,0,0,0,0,0,0,0],"sum_hessian":[4.8258975E6,3.7264392E6,1.0994585E6,2.3747215E6,1.3517178E6,7.876002E5,3.1185828E5,1.2864999E6,1.0882216E6,7.551866E5,5.965311E5,4.522051E5,3.353951E5,2.1694E5,9.491828E4,3.473945E5,9.3910544E5,6.1942744E5,4.687942E5,7.4424875E5,1.0937852E4,3.252821E5,2.71249E5,2.4081486E5,2.1139022E5,1.9321477E5,1.4218033E5,1.0320632E5,1.1373367E5,5.0114832E4,4.4803453E4,3.459763E5,1.4181735E3,6.172347E5,3.2187072E5,6.060619E5,1.3365521E4,4.623434E5,6.4507773E3,4.2361922E5,3.2062956E5,6.9953413E3,3.9425103E3,3.2281528E5,2.4668174E3,2.6005281E5,1.1196209E4,1.6647808E5,7.433678E4,1.4560362E5,6.57866E4,1.3244775E5,6.076701E4,9.73429E4,4.4837426E4,6.95866E4,3.3619723E4,7.148552E4,4.2248145E4,2.5275002E4,2.4839828E4,2.5050254E4,1.97532E4,1.0828694E3,3.4489344E5,1.2007104E3,2.174631E2,6.1721306E5,2.1588026E1,3.2171325E5,1.5748312E2,4.178881E5,1.881738E5,1.0397449E4,2.968072E3,3.268584E5,1.3548498E5,5.4436357E3,1.0071414E3,2.9718147E5,1.26437734E5,2.240266E5,9.660297E4,6.241739E3,7.536025E2,3.7887407E3,1.5376947E2,2.2462856E5,9.818672E4,1.5701255E3,8.9669183E2,1.8019008E5,7.986273E4,9.990618E3,1.2055914E3,1.6360273E5,2.8753584E3,6.3211195E4,1.1125588E4,1.06195195E5,3.940842E4,3.1254314E4,3.4532285E4,1.323274E5,1.2034683E2,2.2111592E4,3.865542E4,5.542017E4,4.1922727E4,2.6489549E4,1.8347877E4,4.552684E4,2.4059758E4,2.6298857E4,7.320866E3,5.5321633E4,1.6163891E4,2.840854E4,1.38396045E4,1.1959885E3,2.4079014E4,1.4085373E4,1.0754455E4,7.1795205E3,1.7870732E4,1.3478283E4,6.2749165E3],"tree_param":{"num_deleted":"0","num_feature":"40","num_nodes":"127","size_leaf_vector":"1"}},{"base_weights":[-2.0315323E-3,-5.4292333E-1,1.7189026E0,-8.76559E-1,2.5278563E-3,1.2572492E0,3.1324902E0,-1.0639993E0,-6.732154E-1,-2.0863757E-1,2.9737544E-1,9.409181E-1,1.7624447E0,2.725928E0,4.2346954E0,-8.982235E-1,-1.1203461E0,-7.711565E-1,-5.511645E-1,-3.174342E-1,-7.810184E-2,2.7329728E-1,1.030524E0,7.658493E-1,1.145487E0,1.5902942E0,2.07548E0,2.4552617E0,3.0593941E0,3.7705457E0,4.658389E0,-9.0288216E-1,3.4884007E0,-1.174929E0,-1.0004586E0,-7.8752506E-1,-2.6400688E-1,-5.6636906E-1,3.5900936E-1,-3.2758412E-1,8.852913E-1,-8.80829E-2,1.5068628E0,1.6823018E-1,4.1537055E-1,8.067725E-1,1.8096231E0,6.855243E-1,9.45897E-1,1.0554526E0,1.3437299E0,1.4369847E0,1.7423648E0,1.9365972E0,2.2594762E0,2.3404505E0,2.699832E0,2.8690126E0,3.333911E0,2.0679104E0,3.827706E0,4.4006886E0,4.877992E0,2.3782734E-2,-2.729774E-2,4.4276062E-2,1.4260818E-1,-3.5255674E-2,1.2142446E-1,-3.0050045E-2,1.081235E-1,-1.8080188E-2,-2.401019E-2,-9.404792E-3,2.8558737E-2,-1.8251706E-2,-1.3948707E-2,5.8998503E-3,3.2968834E-2,-1.1386351E-2,-6.1524254E-3,2.079714E-2,5.3271845E-2,-4.480549E-3,1.6092401E-3,3.6807034E-2,7.023042E-2,2.972454E-3,9.77529E-3,1.0283998E-2,1.7374104E-2,1.8836495E-2,2.8718675E-2,5.021126E-2,1.0848982E-1,1.8339276E-2,2.5272554E-2,2.6164962E-2,3.306848E-2,2.9860174E-2,3.9807554E-2,3.9258637E-2,5.725805E-2,3.9566167E-2,4.637599E-2,4.8714586E-2,5.7702146E-2,6.264353E-2,5.2645758E-2,6.422339E-2,7.2381705E-2,6.4632066E-2,7.333709E-2,7.3857725E-2,8.4745154E-2,8.287849E-2,9.3446374E-2,9.364318E-2,1.0575728E-1,3.8646523E-2,7.258467E-2,1.0643856E-1,1.20898746E-1,1.2617777E-1,1.3511847E-1,1.4353287E-1,1.5423776E-1],"categories":[],"categories_nodes":[],"categories_segments":[],"categories_sizes":[],"default_left":[0,0,0,0,0,0,0,0,0,0,0,0,0,0,0,0,0,0,0,0,0,0,0,0,0,0,0,0,0,0,0,0,0,0,0,0,0,0,0,0,0,0,0,0,0,0,0,0,0,0,0,0,0,0,0,0,0,0,0,0,0,0,0,0,0,0,0,0,0,0,0,0,0,0,0,0,0,0,0,0,0,0,0,0,0,0,0,0,0,0,0,0,0,0,0,0,0,0,0,0,0,0,0,0,0,0,0,0,0,0,0,0,0,0,0,0,0,0,0,0,0,0,0,0,0,0,0],"id":9,"left_children":[1,3,5,7,9,11,13,15,17,19,21,23,25,27,29,31,33,35,37,39,41,43,45,47,49,51,53,55,57,59,61,63,65,67,69,71,73,75,77,79,81,83,85,87,89,91,93,95,97,99,101,103,105,107,109,111,113,115,117,119,121,123,125,-1,-1,-1,-1,-1,-1,-1,-1,-1,-1,-1,-1,-1,-1,-1,-1,-1,-1,-1,-1,-1,-1,-1,-1,-1,-1,-1,-1,-1,-1,-1,-1,-1,-1,-1,-1,-1,-1,-1,-1,-1,-1,-1,-1,-1,-1,-1,-1,-1,-1,-1,-1,-1,-1,-1,-1,-1,-1,-1,-1,-1,-1,-1,-1],"loss_changes":[4.470052E6,6.649231E5,7.4941825E5,8.6408125E4,8.633862E4,1.383405E5,1.2667025E5,1.1017375E4,1.29979375E4,1.1475258E4,1.0214984E4,1.9063812E4,1.79575E4,1.862975E4,1.4953875E4,6.1201094E3,5.75925E3,5.0076875E3,6.7000312E3,5.3803125E3,5.810826E3,8.36343E3,3.2051953E3,4.147578E3,4.3792812E3,5.0099375E3,3.0151562E3,3.1913125E3,4.8208125E3,3.526375E3,2.22025E3,3.5709375E3,7.979761E2,8.283125E2,1.539375E3,1.3835E3,1.1355673E3,2.0286719E3,9.5521155E2,2.7816094E3,6.28657E2,3.1695579E3,5.321382E2,3.510335E3,2.8304766E3,3.8391992E2,9.981865E2,2.3088984E3,1.0187344E3,2.7527812E3,1.5163281E3,1.3740781E3,2.3119688E3,1.85025E3,9.1696875E2,1.4948125E3,1.0719688E3,1.4160312E3,1.52275E3,3.1962646E2,1.96825E3,3.3946875E2,4.913125E2,0E0,0E0,0E0,0E0,0E0,0E0,0E0,0E0,0E0,0E0,0E0,0E0,0E0,0E0,0E0,0E0,0E0,0E0,0E0,0E0,0E0,0E0,0E0,0E0,0E0,0E0,0E0,0E0,0E0,0E0,0E0,0E0,0E0,0E0,0E0,0E0,0E0,0E0,0E0,0E0,0E0,0E0,0E0,0E0,0E0,0E0,0E0,0E0,0E0,0E0,0E0,0E0,0E0,0E0,0E0,0E0,0E0,0E0,0E0,0E0,0E0,0E0,0E0,0E0],"parents":[2147483647,0,0,1,1,2,2,3,3,4,4,5,5,6,6,7,7,8,8,9,9,10,10,11,11,12,12,13,13,14,14,15,15,16,16,17,17,18,18,19,19,20,20,21,21,22,22,23,23,24,24,25,25,26,26,27,27,28,28,29,29,30,30,31,31,32,32,33,33,34,34,35,35,36,36,37,37,38,38,39,39,40,40,41,41,42,42,43,43,44,44,45,45,46,46,47,47,48,48,49,49,50,50,51,51,52,52,53,53,54,54,55,55,56,56,57,57,58,58,59,59,60,60,61,61,62,62],"right_children":[2,4,6,8,10,12,14,16,18,20,22,24,26,28,30,32,34,36,38,40,42,44,46,48,50,52,54,56,58,60,62,64,66,68,70,72,74,76,78,80,82,84,86,88,90,92,94,96,98,100,102,104,106,108,110,112,114,116,118,120,122,124,126,-1,-1,-1,-1,-1,-1,-1,-1,-1,-1,-1,-1,-1,-1,-1,-1,-1,-1,-1,-1,-1,-1,-1,-1,-1,-1,-1,-1,-1,-1,-1,-1,-1,-1,-1,-1,-1,-1,-1,-1,-1,-1,-1,-1,-1,-1,-1,-1,-1,-1,-1,-1,-1,-1,-1,-1,-1,-1,-1,-1,-1,-1,-1,-1],"split_conditions":[2.5357144E0,6.4285713E-1,1.3285714E1,3.7796447E-1,1.3571428E0,5.678571E0,4.2E1,9.5306915E-1,3.9285713E-1,9.6428573E-1,3.7142856E0,3.7857144E0,9.392858E0,1.9607143E1,6.4E1,1.5012083E1,1.0034719E0,8.5714287E-1,1.5714285E0,2.5714285E0,3.7142856E0,1.8928572E0,5.571429E0,1E0,1E0,7E0,1.1E1,1E0,2.7428572E1,7.2E-1,9E1,5.269373E-2,5.3E1,1.7857143E0,9.928572E0,1.8898223E-1,6E0,1E0,5E0,1E0,8E0,1E0,3.4570303E0,1E0,1E0,4E0,2.6E1,3.392857E0,3.392857E0,6.142857E0,7.714286E0,6.785714E0,1E0,1.6E1,1E0,1.3E1,1.35E1,1E0,3E1,1.35E1,3.7E1,6.5E1,1.34E2,2.3782734E-2,-2.729774E-2,4.4276062E-2,1.4260818E-1,-3.5255674E-2,1.2142446E-1,-3.0050045E-2,1.081235E-1,-1.8080188E-2,-2.401019E-2,-9.404792E-3,2.8558737E-2,-1.8251706E-2,-1.3948707E-2,5.8998503E-3,3.2968834E-2,-1.1386351E-2,-6.1524254E-3,2.079714E-2,5.3271845E-2,-4.480549E-3,1.6092401E-3,3.6807034E-2,7.023042E-2,2.972454E-3,9.77529E-3,1.0283998E-2,1.7374104E-2,1.8836495E-2,2.8718675E-2,5.021126E-2,1.0848982E-1,1.8339276E-2,2.5272554E-2,2.6164962E-2,3.306848E-2,2.9860174E-2,3.9807554E-2,3.9258637E-2,5.725805E-2,3.9566167E-2,4.637599E-2,4.8714586E-2,5.7702146E-2,6.264353E-2,5.2645758E-2,6.422339E-2,7.2381705E-2,6.4632066E-2,7.333709E-2,7.3857725E-2,8.4745154E-2,8.287849E-2,9.3446374E-2,9.364318E-2,1.0575728E-1,3.8646523E-2,7.258467E-2,1.0643856E-1,1.20898746E-1,1.2617777E-1,1.3511847E-1,1.4353287E-1,1.5423776E-1],"split_indices":[32,32,28,33,32,32,23,22,32,32,28,30,32,32,25,37,22,28,28,28,28,32,28,9,9,23,23,9,32,17,23,22,27,36,36,39,23,9,23,9,23,9,33,9,9,23,23,32,32,28,28,32,9,6,9,23,32,9,27,32,27,23,23,0,0,0,0,0,0,0,0,0,0,0,0,0,0,0,0,0,0,0,0,0,0,0,0,0,0,0,0,0,0,0,0,0,0,0,0,0,0,0,0,0,0,0,0,0,0,0,0,0,0,0,0,0,0,0,0,0,0,0,0,0,0,0,0],"split_type":[0,0,0,0,0,0,0,0,0,0,0,0,0,0,0,0,0,0,0,0,0,0,0,0,0,0,0,0,0,0,0,0,0,0,0,0,0,0,0,0,0,0,0,0,0,0,0,0,0,0,0,0,0,0,0,0,0,0,0,0,0,0,0,0,0,0,0,0,0,0,0,0,0,0,0,0,0,0,0,0,0,0,0,0,0,0,0,0,0,0,0,0,0,0,0,0,0,0,0,0,0,0,0,0,0,0,0,0,0,0,0,0,0,0,0,0,0,0,0,0,0,0,0,0,0,0,0],"sum_hessian":[4.802172E6,3.653784E6,1.1483879E6,2.2670802E6,1.3867039E6,8.6567594E5,2.8271197E5,1.1796671E6,1.087413E6,8.0801544E5,5.7868844E5,5.3234775E5,3.333282E5,2.0653447E5,7.617749E4,2.992584E5,8.8040875E5,6.032886E5,4.8412444E5,4.4070306E5,3.6731234E5,5.6028956E5,1.839891E4,2.868613E5,2.4548642E5,2.1506489E5,1.18263305E5,1.1400899E5,9.252547E4,3.636035E4,3.981714E4,2.9894216E5,3.1626834E2,6.049639E5,2.754448E5,5.8442494E5,1.886367E4,4.7617062E5,7.953797E3,4.3701622E5,3.686854E3,3.6501522E5,2.2971455E3,3.2209525E5,2.381943E5,1.4296299E4,4.102611E3,1.983699E5,8.8491414E4,1.6882327E5,7.666315E4,1.0710428E5,1.0796062E5,6.740384E4,5.085946E4,7.759768E4,3.641131E4,5.4645504E4,3.7879965E4,1.1829011E3,3.5177453E4,1.8334242E4,2.14829E4,1.2357075E3,2.9770644E5,1.2336439E2,1.9290396E2,6.0493494E5,2.8936028E1,2.753737E5,7.114615E1,3.789322E4,5.4653175E5,1.8127145E4,7.365265E2,3.3666253E5,1.3950808E5,6.5243647E3,1.429432E3,3.068563E5,1.30159914E5,3.0350266E3,6.5182745E2,2.5484425E5,1.1017096E5,1.7227686E3,5.7437695E2,2.2387794E5,9.8217305E4,1.6505697E5,7.313732E4,6.536307E3,7.7599917E3,3.818312E3,2.8429865E2,1.3467372E5,6.3696195E4,6.014515E4,2.8346266E4,1.3822262E5,3.060064E4,7.218197E4,4.481185E3,5.1384297E4,5.571998E4,6.525025E4,4.2710367E4,3.6748953E4,3.0654895E4,2.8673604E4,2.2185855E4,2.785601E4,4.974167E4,1.2552905E4,2.3858404E4,3.8153684E4,1.649182E4,1.7961012E4,1.9918955E4,3.6988672E2,8.1301434E2,1.4772509E4,2.0404943E4,6.3745537E3,1.1959688E4,1.5871449E4,5.611451E3],"tree_param":{"num_deleted":"0","num_feature":"40","num_nodes":"127","size_leaf_vector":"1"}},{"base_weights":[-3.165942E-3,-5.271621E-1,1.6504146E0,-8.803058E-1,-7.0198155E-3,1.2268496E0,2.9969049E0,-1.0453088E0,-6.6506547E-1,-2.2894686E-1,2.8671297E-1,9.402769E-1,1.713961E0,2.6133852E0,4.0764217E0,-8.762429E-1,-1.1098666E0,-7.6939553E-1,-5.731377E-1,-3.4875762E-1,-1.11973956E-1,1.6809078E-1,4.3923992E-1,7.79725E-1,1.15854E0,1.5654927E0,1.9917241E0,2.4697993E0,3.146861E0,3.6144102E0,4.4206696E0,-8.849085E-1,1.0774333E0,-1.1764206E0,-9.82381E-1,-7.8502053E-1,-2.7761263E-1,-1.5136082E-1,-5.8950514E-1,1.1743802E-2,-3.7143058E-1,3.8703996E-1,-1.3296625E-1,7.612894E-1,1.4989164E-1,1.164545E0,4.192557E-1,7.033097E-1,9.832137E-1,1.0566622E0,1.3229387E0,1.4400247E0,1.7506962E0,1.9273436E0,2.288281E0,2.24346E0,2.631001E0,2.8012428E0,3.2482138E0,3.3043277E0,3.8328366E0,4.1288896E0,4.63503E0,1.9768728E-2,-2.6705178E-2,1.1209768E-1,1.4397586E-2,-3.5293467E-2,-1.3572305E-2,-2.9528942E-2,6.269827E-2,-2.4535928E-2,-2.1307435E-2,-1.7338809E-2,2.0089285E-3,-7.6259295E-3,2.3971872E-2,-1.9021265E-2,-1.4917245E-2,-1.909733E-3,2.8102376E-2,-1.262999E-2,-7.641947E-3,6.8723364E-3,3.0701032E-2,-5.768371E-3,1.3806269E-4,1.7575692E-2,5.1367644E-2,2.524766E-3,8.981355E-3,2.9742591E-2,7.0014596E-2,1.0598907E-2,1.7021451E-2,1.874842E-2,2.4427647E-2,5.178997E-2,2.83209E-2,2.9224847E-2,3.50206E-2,6.131229E-2,3.8778335E-2,4.0144823E-2,4.744642E-2,2.6798585E-2,5.3041723E-2,5.3554542E-2,6.1413795E-2,4.9577475E-2,7.273658E-2,6.367388E-2,7.357662E-2,7.4846074E-2,8.335422E-2,5.9027385E-2,8.609185E-2,9.0935946E-2,1.0175785E-1,7.256492E-2,1.0077364E-1,1.11237146E-1,1.211206E-1,1.19979635E-1,1.2995864E-1,1.3661274E-1,1.4750111E-1],"categories":[],"categories_nodes":[],"categories_segments":[],"categories_sizes":[],"default_left":[0,0,0,0,0,0,0,0,0,0,0,0,0,0,0,0,0,0,0,0,0,0,0,0,0,0,0,0,0,0,0,0,0,0,0,0,0,0,0,0,0,0,0,0,0,0,0,0,0,0,0,0,0,0,0,0,0,0,0,0,0,0,0,0,0,0,0,0,0,0,0,0,0,0,0,0,0,0,0,0,0,0,0,0,0,0,0,0,0,0,0,0,0,0,0,0,0,0,0,0,0,0,0,0,0,0,0,0,0,0,0,0,0,0,0,0,0,0,0,0,0,0,0,0,0,0,0],"id":10,"left_children":[1,3,5,7,9,11,13,15,17,19,21,23,25,27,29,31,33,35,37,39,41,43,45,47,49,51,53,55,57,59,61,63,65,67,69,71,73,75,77,79,81,83,85,87,89,91,93,95,97,99,101,103,105,107,109,111,113,115,117,119,121,123,125,-1,-1,-1,-1,-1,-1,-1,-1,-1,-1,-1,-1,-1,-1,-1,-1,-1,-1,-1,-1,-1,-1,-1,-1,-1,-1,-1,-1,-1,-1,-1,-1,-1,-1,-1,-1,-1,-1,-1,-1,-1,-1,-1,-1,-1,-1,-1,-1,-1,-1,-1,-1,-1,-1,-1,-1,-1,-1,-1,-1,-1,-1,-1,-1],"loss_changes":[4.1398902E6,6.6643975E5,6.55706E5,7.6747E4,9.564139E4,1.2208475E5,1.1388725E5,1.33495E4,8.9929375E3,1.1712496E4,1.1424469E4,1.9294594E4,1.33543125E4,1.553775E4,1.144525E4,5.724172E3,7.508875E3,3.3747344E3,3.4411875E3,3.374629E3,4.429929E3,3.8343604E3,4.0031094E3,4.9322812E3,3.9064062E3,4.901625E3,2.1472812E3,5.8270625E3,1.4935938E3,2.0664062E3,2.55475E3,2.7359688E3,2.3696494E3,1.09375E1,1.7913438E3,1.0444375E3,1.4001924E3,1.8206031E3,1.9713438E3,1.7041436E3,2.2467227E3,1.7154902E3,3.311266E3,1.7620791E3,3.3863037E3,1.4954258E3,2.6261797E3,2.0044688E3,2.5193125E3,1.3139375E3,1.9474531E3,1.811E3,1.2664375E3,1.5733438E3,1.7363672E3,1.675375E3,1.864375E3,5.4896094E2,1.02175E3,6.053906E2,4.3825E2,4.339375E2,5.1046875E2,0E0,0E0,0E0,0E0,0E0,0E0,0E0,0E0,0E0,0E0,0E0,0E0,0E0,0E0,0E0,0E0,0E0,0E0,0E0,0E0,0E0,0E0,0E0,0E0,0E0,0E0,0E0,0E0,0E0,0E0,0E0,0E0,0E0,0E0,0E0,0E0,0E0,0E0,0E0,0E0,0E0,0E0,0E0,0E0,0E0,0E0,0E0,0E0,0E0,0E0,0E0,0E0,0E0,0E0,0E0,0E0,0E0,0E0,0E0,0E0,0E0,0E0,0E0,0E0],"parents":[2147483647,0,0,1,1,2,2,3,3,4,4,5,5,6,6,7,7,8,8,9,9,10,10,11,11,12,12,13,13,14,14,15,15,16,16,17,17,18,18,19,19,20,20,21,21,22,22,23,23,24,24,25,25,26,26,27,27,28,28,29,29,30,30,31,31,32,32,33,33,34,34,35,35,36,36,37,37,38,38,39,39,40,40,41,41,42,42,43,43,44,44,45,45,46,46,47,47,48,48,49,49,50,50,51,51,52,52,53,53,54,54,55,55,56,56,57,57,58,58,59,59,60,60,61,61,62,62],"right_children":[2,4,6,8,10,12,14,16,18,20,22,24,26,28,30,32,34,36,38,40,42,44,46,48,50,52,54,56,58,60,62,64,66,68,70,72,74,76,78,80,82,84,86,88,90,92,94,96,98,100,102,104,106,108,110,112,114,116,118,120,122,124,126,-1,-1,-1,-1,-1,-1,-1,-1,-1,-1,-1,-1,-1,-1,-1,-1,-1,-1,-1,-1,-1,-1,-1,-1,-1,-1,-1,-1,-1,-1,-1,-1,-1,-1,-1,-1,-1,-1,-1,-1,-1,-1,-1,-1,-1,-1,-1,-1,-1,-1,-1,-1,-1,-1,-1,-1,-1,-1,-1,-1,-1,-1,-1,-1],"split_conditions":[2.607143E0,6.0714287E-1,1.35E1,1.7857143E-1,1.3214285E0,6E0,4.4E1,1E0,3.5714287E-1,8.9285713E-1,1.8928572E0,4.035714E0,1.1E1,2.7428572E1,6.3E1,4.75E0,1.0034719E0,1.1547005E0,3.5714287E-2,3.7796447E-1,3.7796447E-1,3.7796447E-1,3.7796447E-1,5E0,6E0,8.571428E0,2.1E1,1.6E1,4.548405E-2,4E1,8.5E1,5.269373E-2,3E0,4.258153E-1,8.607142E0,3.5714287E-1,1E0,2.2886887E0,5.714286E-1,5E0,5E0,2.699206E0,5E0,7E0,5E0,6.553667E0,5E0,4E0,3.7796447E-1,4.928571E0,3.7796447E-1,4E0,1.2535664E0,9.392858E0,8.8E-1,1E0,2E1,1.9798912E-3,3.2E1,5E-1,6E1,7.9E1,1.34E2,1.9768728E-2,-2.6705178E-2,1.1209768E-1,1.4397586E-2,-3.5293467E-2,-1.3572305E-2,-2.9528942E-2,6.269827E-2,-2.4535928E-2,-2.1307435E-2,-1.7338809E-2,2.0089285E-3,-7.6259295E-3,2.3971872E-2,-1.9021265E-2,-1.4917245E-2,-1.909733E-3,2.8102376E-2,-1.262999E-2,-7.641947E-3,6.8723364E-3,3.0701032E-2,-5.768371E-3,1.3806269E-4,1.7575692E-2,5.1367644E-2,2.524766E-3,8.981355E-3,2.9742591E-2,7.0014596E-2,1.0598907E-2,1.7021451E-2,1.874842E-2,2.4427647E-2,5.178997E-2,2.83209E-2,2.9224847E-2,3.50206E-2,6.131229E-2,3.8778335E-2,4.0144823E-2,4.744642E-2,2.6798585E-2,5.3041723E-2,5.3554542E-2,6.1413795E-2,4.9577475E-2,7.273658E-2,6.367388E-2,7.357662E-2,7.4846074E-2,8.335422E-2,5.9027385E-2,8.609185E-2,9.0935946E-2,1.0175785E-1,7.256492E-2,1.0077364E-1,1.11237146E-1,1.211206E-1,1.19979635E-1,1.2995864E-1,1.3661274E-1,1.4750111E-1],"split_indices":[32,32,32,32,32,32,23,22,32,32,32,32,23,32,24,38,22,29,38,35,35,35,35,23,23,32,23,23,19,26,23,22,7,31,38,38,23,29,38,23,3,29,3,23,3,31,3,3,35,32,35,3,29,32,17,10,25,19,26,17,25,25,23,0,0,0,0,0,0,0,0,0,0,0,0,0,0,0,0,0,0,0,0,0,0,0,0,0,0,0,0,0,0,0,0,0,0,0,0,0,0,0,0,0,0,0,0,0,0,0,0,0,0,0,0,0,0,0,0,0,0,0,0,0,0,0,0],"split_type":[0,0,0,0,0,0,0,0,0,0,0,0,0,0,0,0,0,0,0,0,0,0,0,0,0,0,0,0,0,0,0,0,0,0,0,0,0,0,0,0,0,0,0,0,0,0,0,0,0,0,0,0,0,0,0,0,0,0,0,0,0,0,0,0,0,0,0,0,0,0,0,0,0,0,0,0,0,0,0,0,0,0,0,0,0,0,0,0,0,0,0,0,0,0,0,0,0,0,0,0,0,0,0,0,0,0,0,0,0,0,0,0,0,0,0,0,0,0,0,0,0,0,0,0,0,0,0],"sum_hessian":[4.777879E6,3.6281658E6,1.149713E6,2.1609892E6,1.4671765E6,8.7459494E5,2.7511812E5,1.223245E6,9.3774425E5,8.357409E5,6.3143556E5,5.5064775E5,3.2394716E5,2.0300267E5,7.211545E4,3.380286E5,8.8521644E5,4.3923672E5,4.9850756E5,4.128604E5,4.2288047E5,3.551976E5,2.7623797E5,3.1727275E5,2.3337502E5,2.1111408E5,1.12833086E5,1.5995825E5,4.304442E4,3.0798559E4,4.1316895E4,3.3653675E5,1.4918518E3,5.81586E5,3.036304E5,4.257099E5,1.3526805E4,1.8623225E4,4.7988434E5,2.4429318E4,3.884311E5,1.7070143E4,4.0581034E5,1.0570979E4,3.4462662E5,7.4046226E3,2.6883334E5,2.3066081E5,8.6611945E4,1.440926E5,8.9282414E4,1.2586162E5,8.525245E4,9.271653E4,2.011655E4,6.654587E4,9.341238E4,9.770473E3,3.327395E4,1.2738863E4,1.8059695E4,1.7511602E4,2.3805293E4,1.1428855E3,3.3539384E5,2.722393E2,1.2196124E3,5.815621E5,2.3879873E1,3.0344212E5,1.8829349E2,2.9577484E5,1.2993507E5,7.226852E3,6.2999526E3,1.6806E4,1.8172236E3,3.2364584E5,1.5623848E5,2.2589244E4,1.8400741E3,2.726258E5,1.1580529E5,1.3677128E4,3.3930144E3,2.8355522E5,1.222551E5,8.926718E3,1.6442609E3,2.3937222E5,1.0525441E5,6.452159E3,9.524633E2,1.860107E5,8.282263E4,1.3518695E5,9.547385E4,4.334828E3,8.227712E4,8.256824E4,6.1524355E4,3.6006685E3,8.568174E4,7.31946E4,5.2667016E4,1.6936476E3,8.3558805E4,4.2404113E4,5.0312418E4,3.5546768E3,1.6561875E4,4.2163953E4,2.4381912E4,4.85883E4,4.4824086E4,7.452121E2,9.025261E3,1.3269789E4,2.000416E4,7.463864E2,1.1992477E4,1.12293125E4,6.8303823E3,1.0709704E4,6.8018984E3,1.8494996E4,5.3102974E3],"tree_param":{"num_deleted":"0","num_feature":"40","num_nodes":"127","size_leaf_vector":"1"}},{"base_weights":[-3.0865707E-3,-5.4701954E-1,1.4858865E0,-8.73736E-1,-4.2478714E-2,1.0208338E0,2.5972447E0,-1.0577265E0,-6.672192E-1,-2.405465E-1,2.1423107E-1,7.421393E-1,1.3976288E0,2.2160947E0,3.6271029E0,-8.857197E-1,-1.117019E0,-7.6797473E-1,-5.6416875E-1,-2.538884E-1,6.554255E-1,2.0006339E-1,1.2545687E0,6.0249776E-1,8.93571E-1,1.2105076E0,1.5961709E0,2.0126054E0,2.52438E0,3.1911197E0,4.1572757E0,-8.95754E-1,7.967326E-1,-1.1748556E0,-9.912945E-1,-7.786386E-1,2.3725014E-2,-5.8011496E-1,2.3592278E-1,-3.5037413E-1,-1.438908E-1,8.7052655E-1,1.8125658E-1,9.4389506E-2,3.2251316E-1,1.0347676E0,2.3137453E0,5.2865595E-1,7.2013617E-1,8.0755967E-1,1.0260024E0,1.2074249E0,5.4780393E0,1.452201E0,1.7129636E0,1.8718458E0,2.2026901E0,2.321796E0,2.6750345E0,2.9113617E0,3.4623172E0,3.9174964E0,4.452182E0,-2.1158634E-2,-2.8137233E-2,1.0760658E-1,9.436559E-3,-3.5253536E-2,1.1415972E-1,-2.9788367E-2,6.3245E-2,-2.3804175E-2,-1.4575579E-2,1.4386593E-2,-1.0407974E-2,-1.8308662E-2,-1.4254868E-2,3.563637E-3,3.37305E-2,-1.1838047E-2,-8.155974E-3,-5.88388E-3,-2.3017644E-3,2.2424439E-2,6.0331434E-2,3.7767005E-3,5.695199E-2,1.7629248E-3,6.934845E-3,7.1739363E-3,1.1966612E-2,2.9036375E-2,6.187572E-2,5.7458024E-2,1.08906575E-1,1.4395752E-2,1.9917693E-2,2.1400409E-2,8.809673E-2,2.1175873E-2,2.6673345E-2,2.9157227E-2,4.342442E-2,3.251165E-2,3.912148E-2,1.15132E-1,1.8754579E-1,4.319228E-2,1.0644618E-1,4.828577E-2,5.6118008E-2,5.3446423E-2,6.1327305E-2,6.343985E-2,7.1679264E-2,6.594175E-2,7.505905E-2,7.781873E-2,8.897463E-2,6.092986E-2,8.877909E-2,1.0027744E-1,1.1172731E-1,1.0921245E-1,1.22507185E-1,1.3095032E-1,1.4284466E-1],"categories":[],"categories_nodes":[],"categories_segments":[],"categories_sizes":[],"default_left":[0,0,0,0,0,0,0,0,0,0,0,0,0,0,0,0,0,0,0,0,0,0,0,0,0,0,0,0,0,0,0,0,0,0,0,0,0,0,0,0,0,0,0,0,0,0,0,0,0,0,0,0,0,0,0,0,0,0,0,0,0,0,0,0,0,0,0,0,0,0,0,0,0,0,0,0,0,0,0,0,0,0,0,0,0,0,0,0,0,0,0,0,0,0,0,0,0,0,0,0,0,0,0,0,0,0,0,0,0,0,0,0,0,0,0,0,0,0,0,0,0,0,0,0,0,0,0],"id":11,"left_children":[1,3,5,7,9,11,13,15,17,19,21,23,25,27,29,31,33,35,37,39,41,43,45,47,49,51,53,55,57,59,61,63,65,67,69,71,73,75,77,79,81,83,85,87,89,91,93,95,97,99,101,103,105,107,109,111,113,115,117,119,121,123,125,-1,-1,-1,-1,-1,-1,-1,-1,-1,-1,-1,-1,-1,-1,-1,-1,-1,-1,-1,-1,-1,-1,-1,-1,-1,-1,-1,-1,-1,-1,-1,-1,-1,-1,-1,-1,-1,-1,-1,-1,-1,-1,-1,-1,-1,-1,-1,-1,-1,-1,-1,-1,-1,-1,-1,-1,-1,-1,-1,-1,-1,-1,-1,-1],"loss_changes":[3.8515258E6,5.741659E5,6.5763025E5,8.03295E4,6.9608625E4,9.4197625E4,1.47332E5,1.1400875E4,1.03415E4,9.237875E3,8.787566E3,1.0903094E4,1.416625E4,1.7179125E4,2.34165E4,4.8396875E3,6.0436875E3,4.2522188E3,6.283047E3,8.0811133E3,1.1561475E3,7.6114824E3,1.8609453E3,2.329711E3,2.8163594E3,2.5725625E3,3.1074062E3,4.4094375E3,3.3148125E3,4.206125E3,3.2080625E3,2.286375E3,2.284983E3,7.5025E2,1.3437031E3,2.1576562E3,1.1314443E3,1.5284531E3,1.0011827E3,1.4082031E3,1.2483379E3,1.0920498E3,3.360464E2,1.5384448E3,1.7350391E3,4.529287E2,7.104995E2,1.0873594E3,1.5532148E3,1.2427891E3,2.218336E3,2.3429062E3,1.4226562E2,2.1562969E3,1.660875E3,1.4705E3,1.1454062E3,1.0272812E3,1.4605312E3,1.1469375E3,8.6653125E2,1.1387188E3,5.2075E2,0E0,0E0,0E0,0E0,0E0,0E0,0E0,0E0,0E0,0E0,0E0,0E0,0E0,0E0,0E0,0E0,0E0,0E0,0E0,0E0,0E0,0E0,0E0,0E0,0E0,0E0,0E0,0E0,0E0,0E0,0E0,0E0,0E0,0E0,0E0,0E0,0E0,0E0,0E0,0E0,0E0,0E0,0E0,0E0,0E0,0E0,0E0,0E0,0E0,0E0,0E0,0E0,0E0,0E0,0E0,0E0,0E0,0E0,0E0,0E0,0E0,0E0,0E0,0E0],"parents":[2147483647,0,0,1,1,2,2,3,3,4,4,5,5,6,6,7,7,8,8,9,9,10,10,11,11,12,12,13,13,14,14,15,15,16,16,17,17,18,18,19,19,20,20,21,21,22,22,23,23,24,24,25,25,26,26,27,27,28,28,29,29,30,30,31,31,32,32,33,33,34,34,35,35,36,36,37,37,38,38,39,39,40,40,41,41,42,42,43,43,44,44,45,45,46,46,47,47,48,48,49,49,50,50,51,51,52,52,53,53,54,54,55,55,56,56,57,57,58,58,59,59,60,60,61,61,62,62],"right_children":[2,4,6,8,10,12,14,16,18,20,22,24,26,28,30,32,34,36,38,40,42,44,46,48,50,52,54,56,58,60,62,64,66,68,70,72,74,76,78,80,82,84,86,88,90,92,94,96,98,100,102,104,106,108,110,112,114,116,118,120,122,124,126,-1,-1,-1,-1,-1,-1,-1,-1,-1,-1,-1,-1,-1,-1,-1,-1,-1,-1,-1,-1,-1,-1,-1,-1,-1,-1,-1,-1,-1,-1,-1,-1,-1,-1,-1,-1,-1,-1,-1,-1,-1,-1,-1,-1,-1,-1,-1,-1,-1,-1,-1,-1,-1,-1,-1,-1,-1,-1,-1,-1,-1,-1,-1,-1],"split_conditions":[2.3214285E0,6.0714287E-1,1.0571428E1,3.7796447E-1,1.25E0,4.714286E0,3.1285715E1,9.5306915E-1,3.5714287E-1,2.4285715E0,4.285714E0,3.2857144E0,6.785714E0,1.7857143E1,6.2E1,3.7857144E0,1.0034719E0,3E0,1.4285715E0,8.9285713E-1,1.4285715E-1,1.7142857E0,1.3E1,2.9285715E0,5E0,8.8E1,7E0,1.35E1,2.1E1,3.8E1,9E1,1.97E0,3E0,2.107143E0,1.05E1,7.1428573E-1,3.5714287E-2,6.4285713E-1,6E0,8.214286E-1,1.0714285E0,1.1E1,3.142857E0,3E0,2E0,4.035714E0,6.1956635E0,4E0,1.6035715E1,3.3214285E0,6.428571E0,5E0,1.55E2,7.1E1,9.428572E0,1.2E1,2E1,2E1,3.2E1,1.0000447E-2,5.8E1,5.8E1,1.38E2,-2.1158634E-2,-2.8137233E-2,1.0760658E-1,9.436559E-3,-3.5253536E-2,1.1415972E-1,-2.9788367E-2,6.3245E-2,-2.3804175E-2,-1.4575579E-2,1.4386593E-2,-1.0407974E-2,-1.8308662E-2,-1.4254868E-2,3.563637E-3,3.37305E-2,-1.1838047E-2,-8.155974E-3,-5.88388E-3,-2.3017644E-3,2.2424439E-2,6.0331434E-2,3.7767005E-3,5.695199E-2,1.7629248E-3,6.934845E-3,7.1739363E-3,1.1966612E-2,2.9036375E-2,6.187572E-2,5.7458024E-2,1.08906575E-1,1.4395752E-2,1.9917693E-2,2.1400409E-2,8.809673E-2,2.1175873E-2,2.6673345E-2,2.9157227E-2,4.342442E-2,3.251165E-2,3.912148E-2,1.15132E-1,1.8754579E-1,4.319228E-2,1.0644618E-1,4.828577E-2,5.6118008E-2,5.3446423E-2,6.1327305E-2,6.343985E-2,7.1679264E-2,6.594175E-2,7.505905E-2,7.781873E-2,8.897463E-2,6.092986E-2,8.877909E-2,1.0027744E-1,1.1172731E-1,1.0921245E-1,1.22507185E-1,1.3095032E-1,1.4284466E-1],"split_indices":[32,32,28,33,32,32,28,22,32,28,28,30,32,28,23,38,22,23,28,32,34,32,23,32,23,27,23,32,23,26,25,17,7,38,38,28,38,38,23,38,38,23,38,23,23,38,33,23,38,38,28,23,27,27,38,27,27,25,26,19,27,27,23,0,0,0,0,0,0,0,0,0,0,0,0,0,0,0,0,0,0,0,0,0,0,0,0,0,0,0,0,0,0,0,0,0,0,0,0,0,0,0,0,0,0,0,0,0,0,0,0,0,0,0,0,0,0,0,0,0,0,0,0,0,0,0,0],"split_type":[0,0,0,0,0,0,0,0,0,0,0,0,0,0,0,0,0,0,0,0,0,0,0,0,0,0,0,0,0,0,0,0,0,0,0,0,0,0,0,0,0,0,0,0,0,0,0,0,0,0,0,0,0,0,0,0,0,0,0,0,0,0,0,0,0,0,0,0,0,0,0,0,0,0,0,0,0,0,0,0,0,0,0,0,0,0,0,0,0,0,0,0,0,0,0,0,0,0,0,0,0,0,0,0,0,0,0,0,0,0,0,0,0,0,0,0,0,0,0,0,0,0,0,0,0,0,0],"sum_hessian":[4.7555455E6,3.4831322E6,1.2724131E6,2.1141248E6,1.3690075E6,8.9704425E5,3.7536894E5,1.1180354E6,9.960893E5,7.7276844E5,5.9623906E5,5.1565047E5,3.8139378E5,2.739755E5,1.0139343E5,2.8661044E5,8.31425E5,5.0364775E5,4.924416E5,7.614311E5,1.13372705E4,5.8823025E5,8.008837E3,2.6827288E5,2.4737761E5,1.9634997E5,1.850438E5,1.6504569E5,1.0892982E5,5.5644977E4,4.574845E4,2.8491197E5,1.698468E3,5.6945025E5,2.6197473E5,4.9695412E5,6.693621E3,4.8281928E5,9.622288E3,4.056266E5,3.5580456E5,7.7982314E3,3.5390396E3,3.1574578E5,2.7248444E5,6.634997E3,1.3738398E3,1.6482258E5,1.0345028E5,1.4998014E5,9.739747E4,1.9621019E5,1.3978958E2,8.288844E4,1.0215537E5,9.483567E4,7.0210016E4,4.646882E4,6.2460996E4,2.7399055E4,2.824592E4,2.5244613E4,2.0503836E4,5.16351E4,2.3327686E5,2.4881668E2,1.4496514E3,5.6942144E5,2.8820406E1,2.6183631E5,1.3843182E2,4.7298738E5,2.3966771E4,3.0018398E3,3.6917812E3,3.749992E5,1.0782011E5,8.503019E3,1.1192694E3,2.5945566E5,1.4617094E5,2.0013953E5,1.5566502E5,7.0411655E3,7.570657E2,3.4301094E3,1.0893024E2,2.5050025E5,6.524555E4,1.3026923E5,1.422152E5,6.2323906E3,4.0260638E2,1.0575062E3,3.1633362E2,1.21131914E5,4.3690668E4,1.0313639E5,3.1389374E2,6.6753055E4,8.3227086E4,8.632344E4,1.1074024E4,8.605629E4,1.1015389E5,4.7701775E1,9.20878E1,8.2401234E4,4.8720102E2,6.1691918E4,4.046345E4,6.224867E4,3.2587004E4,4.771968E4,2.2490334E4,2.7561016E4,1.8907807E4,4.885463E4,1.3606369E4,1.4184572E3,2.5980598E4,1.9398969E4,8.846951E3,9.473706E3,1.5770907E4,1.6013717E4,4.49012E3],"tree_param":{"num_deleted":"0","num_feature":"40","num_nodes":"127","size_leaf_vector":"1"}},{"base_weights":[-2.8823272E-3,-5.358278E-1,1.4182603E0,-9.073436E-1,-1.07507505E-1,9.755602E-1,2.4572961E0,-1.0530895E0,-6.971199E-1,-3.0461675E-1,1.8283983E-1,7.302411E-1,1.3430985E0,2.0922403E0,3.4372368E0,-8.7577933E-1,-1.1145387E0,-7.6035637E-1,-5.6206965E-1,-4.164606E-1,-1.1688458E-1,8.1193306E-2,4.004659E-1,5.7205915E-1,9.164647E-1,1.1841565E0,1.5608207E0,1.9013672E0,2.3811245E0,3.010889E0,3.9492354E0,-8.791667E-1,3.7719853E0,-1.1748264E0,-9.839993E-1,-8.13052E-1,-6.6896105E-1,-6.280275E-1,-4.5305008E-1,-5.122127E-1,-3.1512964E-1,-1.4262353E-1,7.3590505E-1,1.9420974E-2,2.2081806E-1,3.4835976E-1,6.1089957E-1,5.0100166E-1,7.297009E-1,8.2952607E-1,1.0732914E0,1.0997068E0,1.3686533E0,1.457429E0,1.7794523E0,1.7951587E0,2.1282504E0,2.2614377E0,2.623436E0,2.7438521E0,3.235527E0,3.7133572E0,4.2376027E0,-1.9873986E-2,-2.7852235E-2,6.836713E-2,1.2404946E-1,-3.525475E-2,8.490363E-2,-2.9562246E-2,4.246135E-2,-1.7882284E-2,-2.4925578E-2,-2.3753446E-2,-1.8793898E-2,-2.0013943E-2,-1.5997758E-2,-1.5016452E-2,-1.0202263E-2,-1.6803123E-2,-1.2576684E-2,-1.0983515E-2,-5.8970484E-3,-1.3906206E-2,-3.236413E-3,1.7513625E-2,1.1512115E-1,-1.4307235E-3,4.275665E-3,4.1881218E-3,9.897666E-3,8.435629E-3,1.4958133E-2,1.6360983E-2,3.25321E-2,1.29004065E-2,1.8937834E-2,1.9041844E-2,2.5395665E-2,2.262925E-2,2.9847197E-2,2.9051164E-2,3.7722953E-2,3.0519582E-2,3.7337128E-2,3.7952524E-2,4.638268E-2,4.09571E-2,4.878802E-2,5.740171E-2,5.006638E-2,5.0308455E-2,5.9247244E-2,6.0427852E-2,6.9802046E-2,6.330725E-2,7.259434E-2,7.426868E-2,8.403738E-2,4.8232302E-2,8.352921E-2,9.290537E-2,1.05302304E-1,1.0299663E-1,1.1498616E-1,1.24174215E-1,1.3468732E-1],"categories":[],"categories_nodes":[],"categories_segments":[],"categories_sizes":[],"default_left":[0,0,0,0,0,0,0,0,0,0,0,0,0,0,0,0,0,0,0,0,0,0,0,0,0,0,0,0,0,0,0,0,0,0,0,0,0,0,0,0,0,0,0,0,0,0,0,0,0,0,0,0,0,0,0,0,0,0,0,0,0,0,0,0,0,0,0,0,0,0,0,0,0,0,0,0,0,0,0,0,0,0,0,0,0,0,0,0,0,0,0,0,0,0,0,0,0,0,0,0,0,0,0,0,0,0,0,0,0,0,0,0,0,0,0,0,0,0,0,0,0,0,0,0,0,0,0],"id":12,"left_children":[1,3,5,7,9,11,13,15,17,19,21,23,25,27,29,31,33,35,37,39,41,43,45,47,49,51,53,55,57,59,61,63,65,67,69,71,73,75,77,79,81,83,85,87,89,91,93,95,97,99,101,103,105,107,109,111,113,115,117,119,121,123,125,-1,-1,-1,-1,-1,-1,-1,-1,-1,-1,-1,-1,-1,-1,-1,-1,-1,-1,-1,-1,-1,-1,-1,-1,-1,-1,-1,-1,-1,-1,-1,-1,-1,-1,-1,-1,-1,-1,-1,-1,-1,-1,-1,-1,-1,-1,-1,-1,-1,-1,-1,-1,-1,-1,-1,-1,-1,-1,-1,-1,-1,-1,-1,-1],"loss_changes":[3.5884952E6,5.483164E5,5.94385E5,5.65355E4,9.159831E4,8.169894E4,1.3809925E5,1.1871625E4,6.4513438E3,2.0016703E4,1.4316418E4,1.6006781E4,1.2548625E4,1.5503125E4,2.285475E4,4.4203594E3,6.3669375E3,2.4772188E3,1.7320469E3,5.7961953E3,7.8125117E3,3.8048552E3,2.2588516E3,3.290789E3,3.4014062E3,3.2642188E3,3.4554375E3,4.0755625E3,3.2360625E3,3.4161562E3,3.2136875E3,2.9895469E3,9.607324E1,7.40875E2,8.664219E2,1.2596719E3,9.813906E2,5.5566406E2,4.8707617E2,1.3674531E3,1.7544785E3,3.8519985E3,4.9159053E3,2.526747E3,1.1988198E3,1.6665039E3,1.2678223E3,1.872418E3,1.01191797E3,1.9962188E3,1.7175938E3,1.7145625E3,1.2065156E3,1.6139375E3,7.224844E2,2.4464062E3,1.2143125E3,1.7858438E3,9.6128125E2,1.1940312E3,1.1651562E3,8.5665625E2,5.0240625E2,0E0,0E0,0E0,0E0,0E0,0E0,0E0,0E0,0E0,0E0,0E0,0E0,0E0,0E0,0E0,0E0,0E0,0E0,0E0,0E0,0E0,0E0,0E0,0E0,0E0,0E0,0E0,0E0,0E0,0E0,0E0,0E0,0E0,0E0,0E0,0E0,0E0,0E0,0E0,0E0,0E0,0E0,0E0,0E0,0E0,0E0,0E0,0E0,0E0,0E0,0E0,0E0,0E0,0E0,0E0,0E0,0E0,0E0,0E0,0E0,0E0,0E0,0E0,0E0],"parents":[2147483647,0,0,1,1,2,2,3,3,4,4,5,5,6,6,7,7,8,8,9,9,10,10,11,11,12,12,13,13,14,14,15,15,16,16,17,17,18,18,19,19,20,20,21,21,22,22,23,23,24,24,25,25,26,26,27,27,28,28,29,29,30,30,31,31,32,32,33,33,34,34,35,35,36,36,37,37,38,38,39,39,40,40,41,41,42,42,43,43,44,44,45,45,46,46,47,47,48,48,49,49,50,50,51,51,52,52,53,53,54,54,55,55,56,56,57,57,58,58,59,59,60,60,61,61,62,62],"right_children":[2,4,6,8,10,12,14,16,18,20,22,24,26,28,30,32,34,36,38,40,42,44,46,48,50,52,54,56,58,60,62,64,66,68,70,72,74,76,78,80,82,84,86,88,90,92,94,96,98,100,102,104,106,108,110,112,114,116,118,120,122,124,126,-1,-1,-1,-1,-1,-1,-1,-1,-1,-1,-1,-1,-1,-1,-1,-1,-1,-1,-1,-1,-1,-1,-1,-1,-1,-1,-1,-1,-1,-1,-1,-1,-1,-1,-1,-1,-1,-1,-1,-1,-1,-1,-1,-1,-1,-1,-1,-1,-1,-1,-1,-1,-1,-1,-1,-1,-1,-1,-1,-1,-1,-1,-1,-1],"split_conditions":[2.357143E0,7.4535596E-1,1.0571428E1,3.7796447E-1,1.2142857E0,5E0,3.1285715E1,9.5306915E-1,4.2857143E-1,9.285714E-1,1.8928572E0,3.3214285E0,6.821429E0,1.7857143E1,6E1,2.7571428E1,1.0034719E0,3.5714287E-1,5E-1,7.1428573E-1,4.357143E0,5E0,3.0357144E0,5E0,4.964286E0,5E0,5E0,5E0,5E0,3.8E1,9.2E1,