{"learner":{"attributes":{"best_iteration":"456","best_score":"1.9442495049101924"},"feature_names":["dept_id","cat_id","state_id","wday","month","year","mday","week","quarter","is_weekend","is_snap","is_event_1","is_event_2","event_type_cultural","event_type_national","event_type_religious","event_type_sporting","price_max","price_min","price_std","price_momentum","price_pct_change","price_norm","lag_7","lag_14","lag_21","lag_28","lag_56","rmean_7_7","rstd_7_7","rmean_7_14","rstd_7_14","rmean_7_28","rstd_7_28","rmean_28_7","rstd_28_7","rmean_28_14","rstd_28_14","rmean_28_28","rstd_28_28"],"feature_types":["int","int","int","int","int","int","int","int","int","int","int","int","int","int","int","int","int","float","float","float","float","float","float","float","float","float","float","float","float","float","float","float","float","float","float","float","float","float","float","float"],"gradient_booster":{"model":{"cats":{"enc":[],"feature_segments":[],"sorted_idx":[]},"gbtree_model_param":{"num_parallel_tree":"1","num_trees":"532"},"iteration_indptr":[0,1,2,3,4,5,6,7,8,9,10,11,12,13,14,15,16,17,18,19,20,21,22,23,24,25,26,27,28,29,30,31,32,33,34,35,36,37,38,39,40,41,42,43,44,45,46,47,48,49,50,51,52,53,54,55,56,57,58,59,60,61,62,63,64,65,66,67,68,69,70,71,72,73,74,75,76,77,78,79,80,81,82,83,84,85,86,87,88,89,90,91,92,93,94,95,96,97,98,99,100,101,102,103,104,105,106,107,108,109,110,111,112,113,114,115,116,117,118,119,120,121,122,123,124,125,126,127,128,129,130,131,132,133,134,135,136,137,138,139,140,141,142,143,144,145,146,147,148,149,150,151,152,153,154,155,156,157,158,159,160,161,162,163,164,165,166,167,168,169,170,171,172,173,174,175,176,177,178,179,180,181,182,183,184,185,186,187,188,189,190,191,192,193,194,195,196,197,198,199,200,201,202,203,204,205,206,207,208,209,210,211,212,213,214,215,216,217,218,219,220,221,222,223,224,225,226,227,228,229,230,231,232,233,234,235,236,237,238,239,240,241,242,243,244,245,246,247,248,249,250,251,252,253,254,255,256,257,258,259,260,261,262,263,264,265,266,267,268,269,270,271,272,273,274,275,276,277,278,279,280,281,282,283,284,285,286,287,288,289,290,291,292,293,294,295,296,297,298,299,300,301,302,303,304,305,306,307,308,309,310,311,312,313,314,315,316,317,318,319,320,321,322,323,324,325,326,327,328,329,330,331,332,333,334,335,336,337,338,339,340,341,342,343,344,345,346,347,348,349,350,351,352,353,354,355,356,357,358,359,360,361,362,363,364,365,366,367,368,369,370,371,372,373,374,375,376,377,378,379,380,381,382,383,384,385,386,387,388,389,390,391,392,393,394,395,396,397,398,399,400,401,402,403,404,405,406,407,408,409,410,411,412,413,414,415,416,417,418,419,420,421,422,423,424,425,426,427,428,429,430,431,432,433,434,435,436,437,438,439,440,441,442,443,444,445,446,447,448,449,450,451,452,453,454,455,456,457,458,459,460,461,462,463,464,465,466,467,468,469,470,471,472,473,474,475,476,477,478,479,480,481,482,483,484,485,486,487,488,489,490,491,492,493,494,495,496,497,498,499,500,501,502,503,504,505,506,507,508,509,510,511,512,513,514,515,516,517,518,519,520,521,522,523,524,525,526,527,528,529,530,531,532],"tree_info":[0,0,0,0,0,0,0,0,0,0,0,0,0,0,0,0,0,0,0,0,0,0,0,0,0,0,0,0,0,0,0,0,0,0,0,0,0,0,0,0,0,0,0,0,0,0,0,0,0,0,0,0,0,0,0,0,0,0,0,0,0,0,0,0,0,0,0,0,0,0,0,0,0,0,0,0,0,0,0,0,0,0,0,0,0,0,0,0,0,0,0,0,0,0,0,0,0,0,0,0,0,0,0,0,0,0,0,0,0,0,0,0,0,0,0,0,0,0,0,0,0,0,0,0,0,0,0,0,0,0,0,0,0,0,0,0,0,0,0,0,0,0,0,0,0,0,0,0,0,0,0,0,0,0,0,0,0,0,0,0,0,0,0,0,0,0,0,0,0,0,0,0,0,0,0,0,0,0,0,0,0,0,0,0,0,0,0,0,0,0,0,0,0,0,0,0,0,0,0,0,0,0,0,0,0,0,0,0,0,0,0,0,0,0,0,0,0,0,0,0,0,0,0,0,0,0,0,0,0,0,0,0,0,0,0,0,0,0,0,0,0,0,0,0,0,0,0,0,0,0,0,0,0,0,0,0,0,0,0,0,0,0,0,0,0,0,0,0,0,0,0,0,0,0,0,0,0,0,0,0,0,0,0,0,0,0,0,0,0,0,0,0,0,0,0,0,0,0,0,0,0,0,0,0,0,0,0,0,0,0,0,0,0,0,0,0,0,0,0,0,0,0,0,0,0,0,0,0,0,0,0,0,0,0,0,0,0,0,0,0,0,0,0,0,0,0,0,0,0,0,0,0,0,0,0,0,0,0,0,0,0,0,0,0,0,0,0,0,0,0,0,0,0,0,0,0,0,0,0,0,0,0,0,0,0,0,0,0,0,0,0,0,0,0,0,0,0,0,0,0,0,0,0,0,0,0,0,0,0,0,0,0,0,0,0,0,0,0,0,0,0,0,0,0,0,0,0,0,0,0,0,0,0,0,0,0,0,0,0,0,0,0,0,0,0,0,0,0,0,0,0,0,0,0,0,0,0,0,0,0,0,0,0,0,0,0,0,0,0,0,0,0,0,0,0,0,0,0,0,0,0,0,0,0,0,0,0,0,0,0,0,0,0,0,0,0,0,0,0,0,0,0,0,0,0,0,0,0,0,0,0,0,0,0,0,0,0,0,0,0,0,0,0,0,0,0,0,0,0,0,0,0],"trees":[{"base_weights":[5.111383E-4,-5.9423286E-1,2.3220506E0,-9.512958E-1,1.1967998E-1,1.6339697E0,3.747044E0,-1.1000732E0,-6.632292E-1,-1.5531397E-1,4.7635275E-1,1.2802428E0,2.210862E0,3.216008E0,4.673741E0,-1.1247643E0,-9.4207644E-1,-7.5084203E-1,-5.024897E-1,-2.7001482E-1,1.1489182E-1,3.058776E-1,8.644322E-1,1.0574391E0,1.7648661E0,1.9657867E0,2.72489E0,2.9630566E0,3.7154424E0,4.2432547E0,5.196571E0,-1.1255234E0,3.0100777E0,-8.1100696E-1,-9.624942E-1,-8.1083745E-1,-6.4373136E-1,-1.0847205E-2,-5.5911434E-1,-3.2767943E-1,3.970175E-2,3.5754666E-2,5.2492964E-1,2.1107937E-1,5.6968963E-1,7.224963E-1,1.1576486E0,8.4431505E-1,1.2698346E0,1.4924566E0,2.003414E0,1.7091215E0,2.2058797E0,2.4866397E0,2.9453888E0,2.6554935E0,3.2728348E0,3.473428E0,4.0768E0,3.9340653E0,4.558102E0,4.9321E0,5.5540867E0,-3.384185E-2,-2.072251E-2,-2.3774784E-2,1.3474032E-1,-1.7856214E-2,-2.671425E-2,-2.9596679E-2,-2.7092924E-2,-1.5677704E-2,-2.5017966E-2,-2.1221202E-2,-1.4670961E-2,-3.969456E-3,3.472062E-2,-1.8907648E-2,-1.1619157E-2,-1.2290446E-2,-5.3395345E-3,1.953589E-2,-1.4664887E-3,-2.2790947E-3,7.1094576E-3,3.298346E-2,1.0850288E-2,3.5029924E-3,1.1326301E-2,1.4931693E-2,3.4649707E-2,1.793957E-2,2.7577821E-2,6.0124088E-2,3.2937072E-2,2.4511088E-2,5.2261047E-2,3.5187516E-2,4.2614296E-2,4.399509E-2,7.871041E-2,5.602655E-2,6.550932E-2,4.914345E-2,5.9293527E-2,6.1532293E-2,7.101545E-2,7.2197735E-2,8.015827E-2,8.54136E-2,9.5413506E-2,7.7395916E-2,8.78701E-2,9.409095E-2,1.0604323E-1,9.983147E-2,1.1120837E-1,1.1822414E-1,1.2759966E-1,1.105217E-1,1.2268813E-1,1.29033E-1,1.3993584E-1,1.4248046E-1,1.5499757E-1,1.6116545E-1,1.723092E-1],"categories":[],"categories_nodes":[],"categories_segments":[],"categories_sizes":[],"default_left":[0,0,0,0,0,0,0,0,0,0,0,0,0,0,0,0,0,0,0,0,0,0,0,0,0,0,0,0,0,0,0,0,0,0,0,0,0,0,0,0,0,0,0,0,0,0,0,0,0,0,0,0,0,0,0,0,0,0,0,0,0,0,0,0,0,0,0,0,0,0,0,0,0,0,0,0,0,0,0,0,0,0,0,0,0,0,0,0,0,0,0,0,0,0,0,0,0,0,0,0,0,0,0,0,0,0,0,0,0,0,0,0,0,0,0,0,0,0,0,0,0,0,0,0,0,0,0],"id":0,"left_children":[1,3,5,7,9,11,13,15,17,19,21,23,25,27,29,31,33,35,37,39,41,43,45,47,49,51,53,55,57,59,61,63,65,67,69,71,73,75,77,79,81,83,85,87,89,91,93,95,97,99,101,103,105,107,109,111,113,115,117,119,121,123,125,-1,-1,-1,-1,-1,-1,-1,-1,-1,-1,-1,-1,-1,-1,-1,-1,-1,-1,-1,-1,-1,-1,-1,-1,-1,-1,-1,-1,-1,-1,-1,-1,-1,-1,-1,-1,-1,-1,-1,-1,-1,-1,-1,-1,-1,-1,-1,-1,-1,-1,-1,-1,-1,-1,-1,-1,-1,-1,-1,-1,-1,-1,-1,-1],"loss_changes":[5.759043E6,8.4640975E5,8.3405E5,9.48595E4,1.0858001E5,1.17055125E5,1.362875E5,5.692E3,1.0615281E4,1.9373205E4,3.1883555E4,3.8394062E4,2.7459375E4,2.2228875E4,2.267575E4,3.96725E3,5.2659375E2,3.1343125E3,7.4033438E3,7.8370957E3,6.0443584E3,8.373971E3,6.1201484E3,1.102575E4,7.273E3,9.0928125E3,3.6863125E3,1.1123875E4,5.154875E3,5.360125E3,4.2655E3,1.391375E3,1.3130442E3,4.552129E2,2.4240625E2,2.0809844E3,1.7240078E3,3.89772E3,2.91425E3,4.54091E3,3.7311423E3,3.5104045E3,2.8256357E3,3.8672764E3,3.7274512E3,2.4273242E3,2.4226797E3,2.9755E3,1.7785938E3,1.5290938E3,1.4554219E3,1.3495312E3,1.8970625E3,4.9182812E2,8.3003125E2,1.2016562E3,2.06425E3,1.1874688E3,5.438125E2,1.0629062E3,7.1875E2,1.084875E3,6.201875E2,0E0,0E0,0E0,0E0,0E0,0E0,0E0,0E0,0E0,0E0,0E0,0E0,0E0,0E0,0E0,0E0,0E0,0E0,0E0,0E0,0E0,0E0,0E0,0E0,0E0,0E0,0E0,0E0,0E0,0E0,0E0,0E0,0E0,0E0,0E0,0E0,0E0,0E0,0E0,0E0,0E0,0E0,0E0,0E0,0E0,0E0,0E0,0E0,0E0,0E0,0E0,0E0,0E0,0E0,0E0,0E0,0E0,0E0,0E0,0E0,0E0,0E0,0E0,0E0],"parents":[2147483647,0,0,1,1,2,2,3,3,4,4,5,5,6,6,7,7,8,8,9,9,10,10,11,11,12,12,13,13,14,14,15,15,16,16,17,17,18,18,19,19,20,20,21,21,22,22,23,23,24,24,25,25,26,26,27,27,28,28,29,29,30,30,31,31,32,32,33,33,34,34,35,35,36,36,37,37,38,38,39,39,40,40,41,41,42,42,43,43,44,44,45,45,46,46,47,47,48,48,49,49,50,50,51,51,52,52,53,53,54,54,55,55,56,56,57,57,58,58,59,59,60,60,61,61,62,62],"right_children":[2,4,6,8,10,12,14,16,18,20,22,24,26,28,30,32,34,36,38,40,42,44,46,48,50,52,54,56,58,60,62,64,66,68,70,72,74,76,78,80,82,84,86,88,90,92,94,96,98,100,102,104,106,108,110,112,114,116,118,120,122,124,126,-1,-1,-1,-1,-1,-1,-1,-1,-1,-1,-1,-1,-1,-1,-1,-1,-1,-1,-1,-1,-1,-1,-1,-1,-1,-1,-1,-1,-1,-1,-1,-1,-1,-1,-1,-1,-1,-1,-1,-1,-1,-1,-1,-1,-1,-1,-1,-1,-1,-1,-1,-1,-1,-1,-1,-1,-1,-1,-1,-1,-1,-1,-1,-1],"split_conditions":[2E0,5.714286E-1,5.714286E0,3.7796447E-1,1.1428572E0,3.4642856E0,1.1214286E1,3.5714287E-2,4.2857143E-1,5E0,5E0,5E0,5E0,5E0,1.7642857E1,5.071429E0,1E0,3.2142857E-1,1.8898223E-1,1.1428572E0,1.1428572E0,1.7857143E0,1.7142857E0,2.5714285E0,2.5357144E0,4.321429E0,4.321429E0,7.214286E0,7.75E0,4E0,2.9E1,1.9255316E0,1.03078425E-1,1.8898223E-1,5E0,1.8898223E-1,5E0,1.7177163E0,5E0,8.5714287E-1,1.8898223E-1,8.5714287E-1,1.4285715E-1,1.5E0,2.5E0,1.4642857E0,7.1428575E-2,3.4285715E0,3.142857E0,3.642857E0,3.0714285E0,4E0,5.035714E0,4.214286E0,5.464286E0,4E0,9.392858E0,7.071429E0,9.392858E0,1.1214286E1,5E0,2.3E1,3.8E1,-3.384185E-2,-2.072251E-2,-2.3774784E-2,1.3474032E-1,-1.7856214E-2,-2.671425E-2,-2.9596679E-2,-2.7092924E-2,-1.5677704E-2,-2.5017966E-2,-2.1221202E-2,-1.4670961E-2,-3.969456E-3,3.472062E-2,-1.8907648E-2,-1.1619157E-2,-1.2290446E-2,-5.3395345E-3,1.953589E-2,-1.4664887E-3,-2.2790947E-3,7.1094576E-3,3.298346E-2,1.0850288E-2,3.5029924E-3,1.1326301E-2,1.4931693E-2,3.4649707E-2,1.793957E-2,2.7577821E-2,6.0124088E-2,3.2937072E-2,2.4511088E-2,5.2261047E-2,3.5187516E-2,4.2614296E-2,4.399509E-2,7.871041E-2,5.602655E-2,6.550932E-2,4.914345E-2,5.9293527E-2,6.1532293E-2,7.101545E-2,7.2197735E-2,8.015827E-2,8.54136E-2,9.5413506E-2,7.7395916E-2,8.78701E-2,9.409095E-2,1.0604323E-1,9.983147E-2,1.1120837E-1,1.1822414E-1,1.2759966E-1,1.105217E-1,1.2268813E-1,1.29033E-1,1.3993584E-1,1.4248046E-1,1.5499757E-1,1.6116545E-1,1.723092E-1],"split_indices":[32,32,30,33,32,32,30,32,30,3,3,3,3,3,30,36,1,32,39,30,30,30,30,32,32,32,32,32,32,3,26,39,19,39,3,39,3,31,3,32,39,32,34,32,30,32,36,30,30,30,30,3,32,30,32,3,32,30,32,36,3,25,24,0,0,0,0,0,0,0,0,0,0,0,0,0,0,0,0,0,0,0,0,0,0,0,0,0,0,0,0,0,0,0,0,0,0,0,0,0,0,0,0,0,0,0,0,0,0,0,0,0,0,0,0,0,0,0,0,0,0,0,0,0,0,0,0],"split_type":[0,0,0,0,0,0,0,0,0,0,0,0,0,0,0,0,0,0,0,0,0,0,0,0,0,0,0,0,0,0,0,0,0,0,0,0,0,0,0,0,0,0,0,0,0,0,0,0,0,0,0,0,0,0,0,0,0,0,0,0,0,0,0,0,0,0,0,0,0,0,0,0,0,0,0,0,0,0,0,0,0,0,0,0,0,0,0,0,0,0,0,0,0,0,0,0,0,0,0,0,0,0,0,0,0,0,0,0,0,0,0,0,0,0,0,0,0,0,0,0,0,0,0,0,0,0,0],"sum_hessian":[4.1710358E6,3.3203998E6,8.506361E5,2.2133792E6,1.1070204E6,5.736455E5,2.769906E5,1.4595582E6,7.5382106E5,6.250831E5,4.819372E5,3.5560688E5,2.1803866E5,1.7609025E5,1.0090033E5,1.2622841E6,1.9727419E5,4.878869E5,2.6593412E5,4.3881078E5,1.8627234E5,3.348483E5,1.4708889E5,2.4361212E5,1.11994734E5,1.4765027E5,7.038838E4,1.16895875E5,5.9194375E4,5.5344695E4,4.5555633E4,1.2620535E6,2.3060072E2,2.6597887E4,1.706763E5,3.1271597E5,1.7517095E5,2.7465863E4,2.3846827E5,3.699347E5,6.887608E4,1.5613938E5,3.0132969E4,2.463338E5,8.851451E4,9.911584E4,4.7973047E4,1.2160148E5,1.2201066E5,5.2291613E4,5.970312E4,7.136838E4,7.628188E4,3.3841434E4,3.654695E4,5.866506E4,5.823082E4,3.5461035E4,2.373334E4,2.793361E4,2.7411084E4,2.619813E4,1.9357504E4,1.254726E6,7.3275015E3,6.482301E1,1.6577771E2,7.1622944E3,1.9435594E4,1.21451E5,4.92253E4,2.3199646E4,2.895163E5,1.2410793E5,5.1063027E4,2.4880262E4,2.5856006E3,1.686367E5,6.983157E4,2.3900545E5,1.3092925E5,8.714188E3,6.016189E4,1.0039755E5,5.5741832E4,6.665747E3,2.3467223E4,1.5724639E5,8.908742E4,7.882536E4,9.689145E3,6.070738E4,3.8408465E4,3.1594358E3,4.481361E4,1.18018266E5,3.5832136E3,7.4252914E4,4.7757742E4,5.1122258E4,1.1693572E3,3.4051684E4,2.565144E4,5.639906E4,1.4969323E4,3.893584E4,3.7346043E4,2.364751E4,1.0193925E4,2.5786738E4,1.0760212E4,4.596976E4,1.2695295E4,3.829768E4,1.9933143E4,2.1850117E4,1.3610918E4,1.3425606E4,1.0307734E4,1.072778E4,1.7205828E4,8.045521E3,1.9365562E4,1.4741428E4,1.1456703E4,9.900778E3,9.456725E3],"tree_param":{"num_deleted":"0","num_feature":"40","num_nodes":"127","size_leaf_vector":"1"}},{"base_weights":[-5.345782E-4,-5.7881606E-1,2.222527E0,-9.4324183E-1,1.174108E-1,1.6238935E0,3.6845553E0,-1.097698E0,-6.453027E-1,-1.6485684E-1,4.5339084E-1,1.2598542E0,2.1848307E0,3.2466977E0,4.671462E0,-9.320524E-1,-1.142771E0,-7.420708E-1,-4.4544417E-1,-2.8964812E-1,1.0435498E-1,2.9040298E-1,8.212658E-1,1.048298E0,1.7161019E0,1.9583162E0,2.6577733E0,3.0067978E0,3.720133E0,4.2556343E0,5.1609855E0,-9.344425E-1,4.4756346E0,-3.5293892E-2,-1.0149146E0,-4.4475177E-1,-7.637685E-1,-4.675412E-1,7.7669555E-1,-3.8852307E-1,-5.6354698E-2,-2.5989493E-2,4.0586442E-1,1.661712E-1,6.189307E-1,6.617779E-1,1.1988422E0,8.8846534E-1,1.4086678E0,1.4892298E0,2.0543447E0,1.7750697E0,2.3119645E0,2.4339056E0,2.9567544E0,2.7412076E0,3.3794663E0,3.448344E0,4.0863023E0,3.938205E0,4.461467E0,4.8629375E0,5.4502616E0,-2.3159504E-2,-2.9011413E-2,4.419396E-2,1.5863776E-1,-3.1593755E-2,-2.8108273E-2,-1.7525934E-2,6.9293156E-3,-2.518566E-2,-2.057585E-2,-1.6435899E-2,-8.312302E-3,1.6478665E-2,6.2348247E-2,-1.3660091E-2,-7.908848E-3,-4.48211E-3,3.464829E-3,-2.3795764E-3,9.499959E-3,8.884716E-3,1.8799897E-2,2.3416313E-3,9.716702E-3,1.60819E-2,2.6758812E-2,1.5733106E-2,2.5178993E-2,3.3087227E-2,4.447135E-2,2.2756131E-2,3.2994695E-2,3.8144726E-2,4.7991153E-2,4.0106464E-2,5.1511534E-2,5.8716938E-2,7.001598E-2,4.8515193E-2,5.88541E-2,6.319601E-2,7.245462E-2,6.862333E-2,8.014931E-2,8.5940555E-2,9.6782826E-2,7.786708E-2,8.897549E-2,9.502715E-2,1.07450195E-1,9.9831596E-2,1.11716524E-1,1.1692549E-1,1.2697716E-1,1.07623264E-1,1.2241014E-1,1.2929742E-1,1.4145145E-1,1.390498E-1,1.5211815E-1,1.5675764E-1,1.6858639E-1],"categories":[],"categories_nodes":[],"categories_segments":[],"categories_sizes":[],"default_left":[0,0,0,0,0,0,0,0,0,0,0,0,0,0,0,0,0,0,0,0,0,0,0,0,0,0,0,0,0,0,0,0,0,0,0,0,0,0,0,0,0,0,0,0,0,0,0,0,0,0,0,0,0,0,0,0,0,0,0,0,0,0,0,0,0,0,0,0,0,0,0,0,0,0,0,0,0,0,0,0,0,0,0,0,0,0,0,0,0,0,0,0,0,0,0,0,0,0,0,0,0,0,0,0,0,0,0,0,0,0,0,0,0,0,0,0,0,0,0,0,0,0,0,0,0],"id":1,"left_children":[1,3,5,7,9,11,13,15,17,19,21,23,25,27,29,31,33,35,37,39,41,43,45,47,49,51,53,55,57,59,61,63,65,-1,67,69,71,73,75,77,79,81,83,85,87,89,91,93,95,97,99,101,103,105,107,109,111,113,115,117,119,121,123,-1,-1,-1,-1,-1,-1,-1,-1,-1,-1,-1,-1,-1,-1,-1,-1,-1,-1,-1,-1,-1,-1,-1,-1,-1,-1,-1,-1,-1,-1,-1,-1,-1,-1,-1,-1,-1,-1,-1,-1,-1,-1,-1,-1,-1,-1,-1,-1,-1,-1,-1,-1,-1,-1,-1,-1,-1,-1,-1,-1,-1,-1],"loss_changes":[5.323795E6,8.338265E5,7.48195E5,9.9270625E4,1.07084664E5,1.238515E5,1.0729275E5,1.0605375E4,1.42435625E4,2.061501E4,3.0910078E4,3.5500312E4,2.556425E4,1.9521125E4,1.5501125E4,3.9338125E3,4.808875E3,3.2007188E3,6.4893477E3,9.671285E3,7.638127E3,1.458042E4,9.529961E3,1.4472781E4,8.936781E3,1.04535625E4,5.1625625E3,1.1286875E4,5.735125E3,2.6695625E3,2.9808125E3,1.60775E3,3.1567383E2,0E0,6.923125E2,3.1809336E3,2.7284688E3,3.6103047E3,1.261207E3,2.457E3,1.9957177E3,2.4796292E3,1.420584E3,3.6025786E3,2.2169688E3,2.7123008E3,1.27575E3,4.779453E3,2.0200312E3,2.4171094E3,1.2624375E3,3.1298438E3,1.159625E3,1.5297188E3,8.060625E2,2.1693438E3,2.0178125E3,1.0845938E3,6.5478125E2,7.8734375E2,9.30375E2,7.8153125E2,6.3175E2,0E0,0E0,0E0,0E0,0E0,0E0,0E0,0E0,0E0,0E0,0E0,0E0,0E0,0E0,0E0,0E0,0E0,0E0,0E0,0E0,0E0,0E0,0E0,0E0,0E0,0E0,0E0,0E0,0E0,0E0,0E0,0E0,0E0,0E0,0E0,0E0,0E0,0E0,0E0,0E0,0E0,0E0,0E0,0E0,0E0,0E0,0E0,0E0,0E0,0E0,0E0,0E0,0E0,0E0,0E0,0E0,0E0,0E0,0E0,0E0,0E0,0E0],"parents":[2147483647,0,0,1,1,2,2,3,3,4,4,5,5,6,6,7,7,8,8,9,9,10,10,11,11,12,12,13,13,14,14,15,15,16,16,17,17,18,18,19,19,20,20,21,21,22,22,23,23,24,24,25,25,26,26,27,27,28,28,29,29,30,30,31,31,32,32,34,34,35,35,36,36,37,37,38,38,39,39,40,40,41,41,42,42,43,43,44,44,45,45,46,46,47,47,48,48,49,49,50,50,51,51,52,52,53,53,54,54,55,55,56,56,57,57,58,58,59,59,60,60,61,61,62,62],"right_children":[2,4,6,8,10,12,14,16,18,20,22,24,26,28,30,32,34,36,38,40,42,44,46,48,50,52,54,56,58,60,62,64,66,-1,68,70,72,74,76,78,80,82,84,86,88,90,92,94,96,98,100,102,104,106,108,110,112,114,116,118,120,122,124,-1,-1,-1,-1,-1,-1,-1,-1,-1,-1,-1,-1,-1,-1,-1,-1,-1,-1,-1,-1,-1,-1,-1,-1,-1,-1,-1,-1,-1,-1,-1,-1,-1,-1,-1,-1,-1,-1,-1,-1,-1,-1,-1,-1,-1,-1,-1,-1,-1,-1,-1,-1,-1,-1,-1,-1,-1,-1,-1,-1,-1,-1],"split_conditions":[2.0714285E0,5.714286E-1,6.285714E0,3.7796447E-1,1.1428572E0,3.642857E0,1.3428572E1,1E0,5E-1,9.6428573E-1,5E0,5E0,5E0,5E0,2.3E1,1.6714285E1,1.0057291E0,3.5714287E-2,4.2281184E0,5E0,5E0,1.7857143E0,1.75E0,3E0,2.75E0,5.035714E0,4.642857E0,8.857142E0,8.857142E0,1.3E1,3E1,3.9149183E-1,3.3299306E-1,-3.5293892E-2,7.1428575E-2,2E0,2.857143E-1,5E0,1.2892858E1,8.5714287E-1,8.5714287E-1,1.75E0,1.3928572E0,1.5714285E0,2.642857E0,1.5E0,2.5714285E0,2.7142856E0,3.8214285E0,2.642857E0,4.035714E0,4.5E0,4.571429E0,4.857143E0,6.785714E0,7.214286E0,9.428572E0,7.785714E0,1.3E1,1.1214286E1,1.7642857E1,1.9E1,3.8E1,-2.3159504E-2,-2.9011413E-2,4.419396E-2,1.5863776E-1,-3.1593755E-2,-2.8108273E-2,-1.7525934E-2,6.9293156E-3,-2.518566E-2,-2.057585E-2,-1.6435899E-2,-8.312302E-3,1.6478665E-2,6.2348247E-2,-1.3660091E-2,-7.908848E-3,-4.48211E-3,3.464829E-3,-2.3795764E-3,9.499959E-3,8.884716E-3,1.8799897E-2,2.3416313E-3,9.716702E-3,1.60819E-2,2.6758812E-2,1.5733106E-2,2.5178993E-2,3.3087227E-2,4.447135E-2,2.2756131E-2,3.2994695E-2,3.8144726E-2,4.7991153E-2,4.0106464E-2,5.1511534E-2,5.8716938E-2,7.001598E-2,4.8515193E-2,5.88541E-2,6.319601E-2,7.245462E-2,6.862333E-2,8.014931E-2,8.5940555E-2,9.6782826E-2,7.786708E-2,8.897549E-2,9.502715E-2,1.07450195E-1,9.9831596E-2,1.11716524E-1,1.1692549E-1,1.2697716E-1,1.07623264E-1,1.2241014E-1,1.2929742E-1,1.4145145E-1,1.390498E-1,1.5211815E-1,1.5675764E-1,1.6858639E-1],"split_indices":[30,30,30,33,30,30,30,22,38,38,3,3,3,3,23,38,22,38,39,3,3,38,38,38,38,38,38,30,30,23,24,22,22,0,30,23,38,3,38,30,30,38,38,30,38,30,38,30,38,30,38,30,28,28,38,38,38,38,23,36,36,34,23,0,0,0,0,0,0,0,0,0,0,0,0,0,0,0,0,0,0,0,0,0,0,0,0,0,0,0,0,0,0,0,0,0,0,0,0,0,0,0,0,0,0,0,0,0,0,0,0,0,0,0,0,0,0,0,0,0,0,0,0,0,0],"split_type":[0,0,0,0,0,0,0,0,0,0,0,0,0,0,0,0,0,0,0,0,0,0,0,0,0,0,0,0,0,0,0,0,0,0,0,0,0,0,0,0,0,0,0,0,0,0,0,0,0,0,0,0,0,0,0,0,0,0,0,0,0,0,0,0,0,0,0,0,0,0,0,0,0,0,0,0,0,0,0,0,0,0,0,0,0,0,0,0,0,0,0,0,0,0,0,0,0,0,0,0,0,0,0,0,0,0,0,0,0,0,0,0,0,0,0,0,0,0,0,0,0,0,0,0,0],"sum_hessian":[4.1412382E6,3.286363E6,8.548752E5,2.1572132E6,1.1291499E6,6.0653156E5,2.4834367E5,1.4206979E6,7.3651544E5,6.1362456E5,5.1552528E5,3.6782444E5,2.3870711E5,1.7202738E5,7.631629E4,3.0389706E5,1.1168008E6,4.9624E5,2.4027545E5,4.1927347E5,1.943511E5,3.572485E5,1.582768E5,2.5130344E5,1.1652099E5,1.6140873E5,7.729837E4,1.1418074E5,5.7846633E4,4.1272195E4,3.5044098E4,3.0376406E5,1.3300078E2,8.838737E5,2.3292705E5,3.3753914E4,4.6248606E5,2.3600928E5,4.2661836E3,2.9446938E5,1.2480411E5,1.3569172E5,5.8659367E4,2.5922564E5,9.802284E4,1.1127764E5,4.6999164E4,1.7409403E5,7.7209414E4,6.974728E4,4.6773715E4,1.0632477E5,5.508396E4,4.420964E4,3.3088723E4,6.667572E4,4.7505027E4,3.3211387E4,2.4635248E4,1.62471E4,2.5025096E4,1.7273674E4,1.7770424E4,5.0780418E4,2.5298364E5,2.9244953E1,1.0375583E2,1.563079E5,7.661913E4,2.798017E4,5.7737456E3,2.3447548E5,2.280106E5,1.6600064E5,7.000863E4,3.6335537E3,6.3262976E2,1.9183905E5,1.0263031E5,8.0965484E4,4.383862E4,1.17418516E5,1.8273209E4,3.91908E4,1.9468566E4,1.6631122E5,9.291443E4,7.520281E4,2.2820031E4,6.274277E4,4.853487E4,3.5122984E4,1.1876179E4,1.0782089E5,6.627314E4,4.4946777E4,3.2262639E4,4.180343E4,2.7943848E4,3.4722508E4,1.2051207E4,5.761892E4,4.870585E4,1.8428768E4,3.6655195E4,2.7366535E4,1.6843105E4,2.4672627E4,8.416097E3,4.0462598E4,2.6213121E4,2.3209287E4,2.429574E4,2.3113076E4,1.0098311E4,1.0773027E4,1.386222E4,4.6966123E3,1.1550487E4,1.5680841E4,9.344255E3,8.25172E3,9.021954E3,7.65031E3,1.0120113E4],"tree_param":{"num_deleted":"0","num_feature":"40","num_nodes":"125","size_leaf_vector":"1"}},{"base_weights":[-4.378159E-4,-5.895929E-1,2.0475032E0,-9.658506E-1,4.8106067E-2,1.4527173E0,3.3905811E0,-1.0958877E0,-6.7983603E-1,-2.0196055E-1,4.0173748E-1,1.1016365E0,1.9359909E0,2.8830242E0,4.2546544E0,-9.266521E-1,-1.1415931E0,-7.024748E-1,4.816622E-2,-3.0597976E-1,4.0828243E-2,2.505682E-1,7.4255437E-1,9.0469456E-1,1.5242982E0,1.7256749E0,2.376225E0,2.6569128E0,3.3365827E0,3.830733E0,4.8456626E0,-9.3030465E-1,1.5050657E0,-1.1759981E0,-1.0109013E0,-7.6580745E-1,-5.905194E-1,3.6997664E-1,-3.8161653E-1,-3.2597286E-1,6.9878536E-1,-1.0767567E-1,2.632969E-1,1.254865E-1,4.1482294E-1,6.0483676E-1,9.549731E-1,7.178117E-1,1.0875752E0,1.3418072E0,1.7767795E0,1.5114579E0,1.976796E0,2.176977E0,2.6453457E0,2.4358532E0,2.949703E0,3.1140587E0,3.627914E0,3.6160126E0,4.2422233E0,4.4176936E0,5.1368337E0,-2.2557128E-2,-2.8869359E-2,9.817382E-3,1.2377782E-1,-3.5290517E-2,-2.7929436E-2,-3.1494755E-2,-2.7951937E-2,-2.323476E-2,-5.176919E-4,-1.9724758E-2,-1.2877113E-2,5.847597E-3,3.646762E-2,-1.4776072E-2,1.1562568E-2,-1.282624E-2,-5.0813295E-3,3.0066278E-2,2.4588525E-3,-6.3671195E-3,1.5783545E-3,6.277779E-3,3.717436E-2,3.1442025E-3,3.1944048E-2,1.2091214E-2,6.1689813E-2,1.7363017E-2,5.0559215E-2,2.811529E-2,6.366502E-2,2.0923074E-2,4.9370315E-2,3.1401508E-2,4.670207E-2,3.6905058E-2,4.6134572E-2,5.2408233E-2,1.00291476E-1,4.4631425E-2,6.841969E-2,5.6568693E-2,6.664784E-2,6.0260303E-2,7.001344E-2,7.8122355E-2,1.01150006E-1,6.920775E-2,7.750748E-2,8.027954E-2,9.315142E-2,1.5585819E-1,9.302204E-2,9.790276E-2,1.120216E-1,1.0087092E-1,1.1419545E-1,1.1991906E-1,1.3122594E-1,1.2580073E-1,1.4049849E-1,1.4407738E-1,1.6012229E-1],"categories":[],"categories_nodes":[],"categories_segments":[],"categories_sizes":[],"default_left":[0,0,0,0,0,0,0,0,0,0,0,0,0,0,0,0,0,0,0,0,0,0,0,0,0,0,0,0,0,0,0,0,0,0,0,0,0,0,0,0,0,0,0,0,0,0,0,0,0,0,0,0,0,0,0,0,0,0,0,0,0,0,0,0,0,0,0,0,0,0,0,0,0,0,0,0,0,0,0,0,0,0,0,0,0,0,0,0,0,0,0,0,0,0,0,0,0,0,0,0,0,0,0,0,0,0,0,0,0,0,0,0,0,0,0,0,0,0,0,0,0,0,0,0,0,0,0],"id":2,"left_children":[1,3,5,7,9,11,13,15,17,19,21,23,25,27,29,31,33,35,37,39,41,43,45,47,49,51,53,55,57,59,61,63,65,67,69,71,73,75,77,79,81,83,85,87,89,91,93,95,97,99,101,103,105,107,109,111,113,115,117,119,121,123,125,-1,-1,-1,-1,-1,-1,-1,-1,-1,-1,-1,-1,-1,-1,-1,-1,-1,-1,-1,-1,-1,-1,-1,-1,-1,-1,-1,-1,-1,-1,-1,-1,-1,-1,-1,-1,-1,-1,-1,-1,-1,-1,-1,-1,-1,-1,-1,-1,-1,-1,-1,-1,-1,-1,-1,-1,-1,-1,-1,-1,-1,-1,-1,-1],"loss_changes":[4.9626055E6,7.664E5,7.3404675E5,7.471325E4,1.0481606E5,1.0805175E5,1.2367175E5,1.0680375E4,1.0348156E4,1.753459E4,2.5295031E4,3.0703719E4,2.4805188E4,1.82075E4,2.611775E4,2.6103906E3,4.887E3,4.316875E3,2.6194285E3,9.76452E3,6.8800127E3,6.987666E3,4.412117E3,8.599E3,5.3984375E3,9.7506875E3,4.6361562E3,7.66325E3,3.8139375E3,5.3463125E3,5.39625E3,1.6730938E3,1.358766E3,7.25E1,6.966406E2,2.5281875E3,2.3760234E3,1.6026525E3,6.9020886E2,7.579914E3,1.7746919E3,2.0930884E3,4.3954585E3,3.7503552E3,2.8422852E3,2.576336E3,1.2291914E3,2.3511367E3,2.4351719E3,1.4862891E3,2.2894531E3,1.7820469E3,1.8564688E3,1.3063906E3,1.0906094E3,1.277625E3,2.1556875E3,9.0453125E2,9.708125E2,1.9104062E3,6.4625E2,1.02171875E3,1.6988125E3,0E0,0E0,0E0,0E0,0E0,0E0,0E0,0E0,0E0,0E0,0E0,0E0,0E0,0E0,0E0,0E0,0E0,0E0,0E0,0E0,0E0,0E0,0E0,0E0,0E0,0E0,0E0,0E0,0E0,0E0,0E0,0E0,0E0,0E0,0E0,0E0,0E0,0E0,0E0,0E0,0E0,0E0,0E0,0E0,0E0,0E0,0E0,0E0,0E0,0E0,0E0,0E0,0E0,0E0,0E0,0E0,0E0,0E0,0E0,0E0,0E0,0E0,0E0,0E0],"parents":[2147483647,0,0,1,1,2,2,3,3,4,4,5,5,6,6,7,7,8,8,9,9,10,10,11,11,12,12,13,13,14,14,15,15,16,16,17,17,18,18,19,19,20,20,21,21,22,22,23,23,24,24,25,25,26,26,27,27,28,28,29,29,30,30,31,31,32,32,33,33,34,34,35,35,36,36,37,37,38,38,39,39,40,40,41,41,42,42,43,43,44,44,45,45,46,46,47,47,48,48,49,49,50,50,51,51,52,52,53,53,54,54,55,55,56,56,57,57,58,58,59,59,60,60,61,61,62,62],"right_children":[2,4,6,8,10,12,14,16,18,20,22,24,26,28,30,32,34,36,38,40,42,44,46,48,50,52,54,56,58,60,62,64,66,68,70,72,74,76,78,80,82,84,86,88,90,92,94,96,98,100,102,104,106,108,110,112,114,116,118,120,122,124,126,-1,-1,-1,-1,-1,-1,-1,-1,-1,-1,-1,-1,-1,-1,-1,-1,-1,-1,-1,-1,-1,-1,-1,-1,-1,-1,-1,-1,-1,-1,-1,-1,-1,-1,-1,-1,-1,-1,-1,-1,-1,-1,-1,-1,-1,-1,-1,-1,-1,-1,-1,-1,-1,-1,-1,-1,-1,-1,-1,-1,-1,-1,-1,-1],"split_conditions":[1.9285715E0,5E-1,5.75E0,3.7796447E-1,1.1071428E0,3.2857144E0,1.1214286E1,9.989792E-1,1E0,1E0,1E0,1E0,1E0,1E0,1.9E1,3.142857E0,1.0057291E0,3.5714287E-1,7.1428575E-2,2E0,8.5714287E-1,1.5E0,1.5357143E0,2.4642856E0,2.642857E0,4.321429E0,4.571429E0,7.75E0,7.75E0,1E0,2.6E1,1.68E0,2.1E1,7.1428575E-2,7.1428575E-2,3E0,1E0,4E0,1.2066665E0,8.214286E-1,1.4285715E-1,7.1428573E-1,2E0,2.2142856E0,4.571429E0,2.2142856E0,3.7142856E0,3.5E0,4.285714E0,2.392857E0,6.714286E0,6.714286E0,5.857143E0,3.892857E0,7.071429E0,6E0,6E0,2.5E-1,7E0,1.1E1,1.5E1,2E1,2.8E1,-2.2557128E-2,-2.8869359E-2,9.817382E-3,1.2377782E-1,-3.5290517E-2,-2.7929436E-2,-3.1494755E-2,-2.7951937E-2,-2.323476E-2,-5.176919E-4,-1.9724758E-2,-1.2877113E-2,5.847597E-3,3.646762E-2,-1.4776072E-2,1.1562568E-2,-1.282624E-2,-5.0813295E-3,3.0066278E-2,2.4588525E-3,-6.3671195E-3,1.5783545E-3,6.277779E-3,3.717436E-2,3.1442025E-3,3.1944048E-2,1.2091214E-2,6.1689813E-2,1.7363017E-2,5.0559215E-2,2.811529E-2,6.366502E-2,2.0923074E-2,4.9370315E-2,3.1401508E-2,4.670207E-2,3.6905058E-2,4.6134572E-2,5.2408233E-2,1.00291476E-1,4.4631425E-2,6.841969E-2,5.6568693E-2,6.664784E-2,6.0260303E-2,7.001344E-2,7.8122355E-2,1.01150006E-1,6.920775E-2,7.750748E-2,8.027954E-2,9.315142E-2,1.5585819E-1,9.302204E-2,9.790276E-2,1.120216E-1,1.0087092E-1,1.1419545E-1,1.1991906E-1,1.3122594E-1,1.2580073E-1,1.4049849E-1,1.4407738E-1,1.6012229E-1],"split_indices":[32,32,32,33,32,32,30,22,28,9,9,9,9,9,28,36,22,32,36,28,30,32,32,32,30,32,28,32,32,9,23,17,27,32,30,23,9,23,37,32,34,32,28,30,28,30,28,30,28,32,28,28,28,32,30,23,23,17,23,23,23,26,25,0,0,0,0,0,0,0,0,0,0,0,0,0,0,0,0,0,0,0,0,0,0,0,0,0,0,0,0,0,0,0,0,0,0,0,0,0,0,0,0,0,0,0,0,0,0,0,0,0,0,0,0,0,0,0,0,0,0,0,0,0,0,0,0],"split_type":[0,0,0,0,0,0,0,0,0,0,0,0,0,0,0,0,0,0,0,0,0,0,0,0,0,0,0,0,0,0,0,0,0,0,0,0,0,0,0,0,0,0,0,0,0,0,0,0,0,0,0,0,0,0,0,0,0,0,0,0,0,0,0,0,0,0,0,0,0,0,0,0,0,0,0,0,0,0,0,0,0,0,0,0,0,0,0,0,0,0,0,0,0,0,0,0,0,0,0,0,0,0,0,0,0,0,0,0,0,0,0,0,0,0,0,0,0,0,0,0,0,0,0,0,0,0,0],"sum_hessian":[4.1130352E6,3.1941408E6,9.1889456E5,2.0088628E6,1.1852779E6,6.368617E5,2.8203288E5,1.3809889E6,6.2787394E5,6.9430675E5,4.9097112E5,3.6888512E5,2.6797656E5,1.7767386E5,1.04359016E5,2.936635E5,1.0873254E6,6.0893794E5,1.8935996E4,4.8606116E5,2.0824556E5,3.4011575E5,1.5085538E5,2.5163778E5,1.17247336E5,1.8134766E5,8.662888E4,1.1857264E5,5.9101215E4,6.0776387E4,4.358263E4,2.9322403E5,4.394717E2,8.607243E5,2.2660108E5,3.8891862E5,2.2001927E5,1.0828404E4,8.107593E3,4.7657916E5,9.482003E3,1.2488304E5,8.336252E4,1.930837E5,1.4703203E5,9.152385E4,5.9331523E4,1.2446101E5,1.2717677E5,6.806239E4,4.918494E4,9.787076E4,8.347691E4,4.9784246E4,3.6844637E4,6.757053E4,5.100211E4,3.351769E4,2.5583525E4,3.994666E4,2.0829725E4,1.765603E4,2.5926598E4,4.461144E4,2.4861258E5,3.043995E2,1.3507219E2,8.5948175E5,1.2425983E3,1.5189988E5,7.4701195E4,3.8445803E5,4.4606074E3,1.5545942E5,6.455985E4,8.97283E3,1.8555743E3,7.083877E3,1.0237162E3,2.8907825E5,1.875009E5,6.3548613E3,3.1271416E3,7.557967E4,4.930337E4,7.899036E4,4.372165E3,1.8892612E5,4.157578E3,1.459861E5,1.0459377E3,8.936994E4,2.1539158E3,5.8443203E4,8.8832025E2,1.2178926E5,2.671747E3,1.1699313E5,1.0183647E4,4.3371543E4,2.469085E4,4.8268637E4,9.163057E2,9.4944516E4,2.9262458E3,6.083351E4,2.264339E4,2.4022258E4,2.576199E4,3.487043E4,1.9742079E3,3.609497E4,3.147556E4,1.8475727E4,3.2526383E4,2.094578E2,3.330823E4,5.780748E3,1.9802777E4,1.7145904E4,2.2800758E4,7.3104917E3,1.3519233E4,9.585225E3,8.070805E3,9.737415E3,1.6189184E4],"tree_param":{"num_deleted":"0","num_feature":"40","num_nodes":"127","size_leaf_vector":"1"}},{"base_weights":[-2.2146883E-3,-6.0586923E-1,1.8590565E0,-9.5953965E-1,1.1539172E-2,1.2893304E0,3.1368973E0,-1.0929675E0,-6.695123E-1,-2.3943965E-1,2.9654586E-1,9.3714136E-1,1.7194589E0,2.6601083E0,4.009594E0,-9.1982436E-1,-1.1405069E0,-2.6368418E-1,-7.028065E-1,-3.3832833E-1,-1.0105445E-2,1.5676E-1,6.101637E-1,7.566566E-1,1.3244703E0,1.5217664E0,2.134642E0,2.3611398E0,2.9880667E0,3.6442213E0,4.7204194E0,-9.220346E-1,4.1928988E0,-3.5293873E-2,-1.0049776E0,-4.6353692E-1,4.305555E-1,-7.9299474E-1,-5.883201E-1,2.3768744E-1,-3.612813E-1,8.5032785E-1,-3.726307E-2,1.7634599E-2,2.9257455E-1,4.5512542E-1,7.877685E-1,6.1564267E-1,9.425011E-1,1.1202557E0,1.5069945E0,1.3124369E0,1.7753683E0,1.9243704E0,2.3853018E0,2.122854E0,2.6199608E0,2.7911735E0,3.3168855E0,3.3543599E0,3.9430544E0,4.3287077E0,5.041924E0,-2.2019222E-2,-2.8666202E-2,4.1109E-2,1.5006086E-1,-3.1356048E-2,-2.769457E-2,-1.8539459E-2,-5.082805E-3,6.1995047E-3,3.5523806E-2,-2.535592E-2,-2.051446E-2,-1.9586539E-2,-1.3021759E-2,2.5349027E-3,4.563412E-2,-1.4170133E-2,-7.678088E-3,1.6328514E-2,5.918941E-2,-5.483125E-3,2.9366878E-3,1.9977031E-2,-1.990653E-4,2.9164758E-2,8.151413E-3,3.7771795E-2,1.2607173E-2,4.5790356E-2,2.2844382E-2,3.9889116E-2,1.7926814E-2,5.267571E-2,2.773612E-2,5.75211E-2,3.2804213E-2,6.9308884E-2,4.4477645E-2,1.52673E-3,3.9751846E-2,4.9013305E-2,5.7337217E-2,5.458348E-2,6.379273E-2,6.706199E-2,7.7986196E-2,6.0241904E-2,6.85963E-2,7.0225775E-2,8.2318686E-2,7.824744E-2,8.964351E-2,9.2339724E-2,1.05091706E-1,4.2246185E-2,1.0139121E-1,1.13194585E-1,1.2735908E-1,1.2140078E-1,1.3598734E-1,1.4224185E-1,1.5676779E-1],"categories":[],"categories_nodes":[],"categories_segments":[],"categories_sizes":[],"default_left":[0,0,0,0,0,0,0,0,0,0,0,0,0,0,0,0,0,0,0,0,0,0,0,0,0,0,0,0,0,0,0,0,0,0,0,0,0,0,0,0,0,0,0,0,0,0,0,0,0,0,0,0,0,0,0,0,0,0,0,0,0,0,0,0,0,0,0,0,0,0,0,0,0,0,0,0,0,0,0,0,0,0,0,0,0,0,0,0,0,0,0,0,0,0,0,0,0,0,0,0,0,0,0,0,0,0,0,0,0,0,0,0,0,0,0,0,0,0,0,0,0,0,0,0,0],"id":3,"left_children":[1,3,5,7,9,11,13,15,17,19,21,23,25,27,29,31,33,35,37,39,41,43,45,47,49,51,53,55,57,59,61,63,65,-1,67,69,71,73,75,77,79,81,83,85,87,89,91,93,95,97,99,101,103,105,107,109,111,113,115,117,119,121,123,-1,-1,-1,-1,-1,-1,-1,-1,-1,-1,-1,-1,-1,-1,-1,-1,-1,-1,-1,-1,-1,-1,-1,-1,-1,-1,-1,-1,-1,-1,-1,-1,-1,-1,-1,-1,-1,-1,-1,-1,-1,-1,-1,-1,-1,-1,-1,-1,-1,-1,-1,-1,-1,-1,-1,-1,-1,-1,-1,-1,-1,-1],"loss_changes":[4.5923445E6,6.73928E5,7.2871875E5,7.59345E4,8.0404375E4,1.04872625E5,1.28416E5,1.1060375E4,8.3539375E3,1.3555121E4,2.3074457E4,2.6607938E4,2.5575875E4,1.9560875E4,2.8295875E4,3.2772969E3,5.1365E3,6.50503E3,5.8993125E3,5.521715E3,4.2080127E3,6.8792363E3,4.467629E3,6.803703E3,4.5069688E3,1.1204781E4,5.2912188E3,6.43175E3,6.1479375E3,6.2190625E3,4.6281875E3,1.8223438E3,2.7538843E2,0E0,7.260781E2,1.6533633E3,1.7677847E3,1.8206719E3,2.5073438E3,3.1463477E3,4.6984453E3,1.8912478E3,3.433168E3,2.8296946E3,2.6112236E3,2.4291094E3,1.4665E3,1.9047305E3,1.6339844E3,1.2157031E3,1.2469375E3,1.8419844E3,1.831625E3,1.1529375E3,1.4633594E3,1.01446875E3,1.722E3,2.1329375E3,1.568375E3,1.7967188E3,1.7961875E3,9.3321875E2,1.0835625E3,0E0,0E0,0E0,0E0,0E0,0E0,0E0,0E0,0E0,0E0,0E0,0E0,0E0,0E0,0E0,0E0,0E0,0E0,0E0,0E0,0E0,0E0,0E0,0E0,0E0,0E0,0E0,0E0,0E0,0E0,0E0,0E0,0E0,0E0,0E0,0E0,0E0,0E0,0E0,0E0,0E0,0E0,0E0,0E0,0E0,0E0,0E0,0E0,0E0,0E0,0E0,0E0,0E0,0E0,0E0,0E0,0E0,0E0,0E0,0E0,0E0,0E0],"parents":[2147483647,0,0,1,1,2,2,3,3,4,4,5,5,6,6,7,7,8,8,9,9,10,10,11,11,12,12,13,13,14,14,15,15,16,16,17,17,18,18,19,19,20,20,21,21,22,22,23,23,24,24,25,25,26,26,27,27,28,28,29,29,30,30,31,31,32,32,34,34,35,35,36,36,37,37,38,38,39,39,40,40,41,41,42,42,43,43,44,44,45,45,46,46,47,47,48,48,49,49,50,50,51,51,52,52,53,53,54,54,55,55,56,56,57,57,58,58,59,59,60,60,61,61,62,62],"right_children":[2,4,6,8,10,12,14,16,18,20,22,24,26,28,30,32,34,36,38,40,42,44,46,48,50,52,54,56,58,60,62,64,66,-1,68,70,72,74,76,78,80,82,84,86,88,90,92,94,96,98,100,102,104,106,108,110,112,114,116,118,120,122,124,-1,-1,-1,-1,-1,-1,-1,-1,-1,-1,-1,-1,-1,-1,-1,-1,-1,-1,-1,-1,-1,-1,-1,-1,-1,-1,-1,-1,-1,-1,-1,-1,-1,-1,-1,-1,-1,-1,-1,-1,-1,-1,-1,-1,-1,-1,-1,-1,-1,-1,-1,-1,-1,-1,-1,-1,-1,-1,-1,-1,-1,-1],"split_conditions":[1.7857143E0,5E-1,5.464286E0,3.7796447E-1,1E0,3E0,1.0714286E1,1E0,3.5714287E-2,5E0,5E0,5E0,5E0,4E0,2.3E1,1.6714285E1,1.0057291E0,1.1547005E0,3.5714287E-1,7.1428575E-2,3.5714287E-2,1.3214285E0,1.3571428E0,2.357143E0,2.25E0,4.035714E0,4.035714E0,7.214286E0,7.75E0,1.3E1,2.7E1,1.68E0,3.3299306E-1,-3.5293873E-2,2.6726124E-1,1E0,4E0,3.2142857E-1,5E0,2.9113898E0,7.1428573E-1,2.1636355E0,7.1428573E-1,1.4285715E-1,1.4285715E-1,1.4285715E-1,1.4285715E-1,1.4285715E-1,1.4285715E-1,2.857143E-1,4.2857143E-1,3.7796447E-1,4E0,6E0,7E0,6E0,5E0,8E0,1E1,5.7735026E-1,1.6714285E1,1.6714285E1,3.5E1,-2.2019222E-2,-2.8666202E-2,4.1109E-2,1.5006086E-1,-3.1356048E-2,-2.769457E-2,-1.8539459E-2,-5.082805E-3,6.1995047E-3,3.5523806E-2,-2.535592E-2,-2.051446E-2,-1.9586539E-2,-1.3021759E-2,2.5349027E-3,4.563412E-2,-1.4170133E-2,-7.678088E-3,1.6328514E-2,5.918941E-2,-5.483125E-3,2.9366878E-3,1.9977031E-2,-1.990653E-4,2.9164758E-2,8.151413E-3,3.7771795E-2,1.2607173E-2,4.5790356E-2,2.2844382E-2,3.9889116E-2,1.7926814E-2,5.267571E-2,2.773612E-2,5.75211E-2,3.2804213E-2,6.9308884E-2,4.4477645E-2,1.52673E-3,3.9751846E-2,4.9013305E-2,5.7337217E-2,5.458348E-2,6.379273E-2,6.706199E-2,7.7986196E-2,6.0241904E-2,6.85963E-2,7.0225775E-2,8.2318686E-2,7.824744E-2,8.964351E-2,9.2339724E-2,1.05091706E-1,4.2246185E-2,1.0139121E-1,1.13194585E-1,1.2735908E-1,1.2140078E-1,1.3598734E-1,1.4224185E-1,1.5676779E-1],"split_indices":[32,32,32,33,32,32,32,22,38,3,3,3,3,3,23,38,22,29,38,36,38,32,32,32,32,32,32,32,32,23,24,17,22,0,31,23,23,32,3,29,32,31,32,34,34,34,34,34,34,34,34,29,23,23,23,23,23,23,23,29,32,32,23,0,0,0,0,0,0,0,0,0,0,0,0,0,0,0,0,0,0,0,0,0,0,0,0,0,0,0,0,0,0,0,0,0,0,0,0,0,0,0,0,0,0,0,0,0,0,0,0,0,0,0,0,0,0,0,0,0,0,0,0,0,0],"split_type":[0,0,0,0,0,0,0,0,0,0,0,0,0,0,0,0,0,0,0,0,0,0,0,0,0,0,0,0,0,0,0,0,0,0,0,0,0,0,0,0,0,0,0,0,0,0,0,0,0,0,0,0,0,0,0,0,0,0,0,0,0,0,0,0,0,0,0,0,0,0,0,0,0,0,0,0,0,0,0,0,0,0,0,0,0,0,0,0,0,0,0,0,0,0,0,0,0,0,0,0,0,0,0,0,0,0,0,0,0,0,0,0,0,0,0,0,0,0,0,0,0,0,0,0,0],"sum_hessian":[4.0872955E6,3.0863272E6,1.0009684E6,1.9622754E6,1.1240519E6,6.923063E5,3.0866206E5,1.3439725E6,6.183028E5,5.9770694E5,5.263449E5,3.806419E5,3.116644E5,1.9961219E5,1.0904987E5,2.895252E5,1.0544474E6,4.688087E4,5.7142194E5,4.1762594E5,1.8008102E5,3.6407278E5,1.6227211E5,2.5965458E5,1.2098732E5,2.1113714E5,1.0052725E5,1.0442782E5,9.5184375E4,7.2033234E4,3.701663E4,2.894013E5,1.2386162E2,8.3334925E5,2.210981E5,3.6402285E4,1.0478587E4,3.1962388E5,2.5179806E5,1.6003078E4,4.0162284E5,5.508436E3,1.7457258E5,1.7984548E5,1.842273E5,8.664348E4,7.5628625E4,1.4763786E5,1.1201671E5,5.710617E4,6.388115E4,1.156699E5,9.546724E4,5.4675184E4,4.5852066E4,5.4378242E4,5.0049574E4,5.9544363E4,3.5640016E4,3.6575E4,3.5458234E4,1.6696328E4,2.0320303E4,4.376918E4,2.4563212E5,2.8523422E1,9.5338196E1,1.482177E5,7.28804E4,2.3867062E4,1.2535224E4,8.079889E3,2.3986978E3,2.1622688E5,1.0339701E5,1.7750122E5,7.429684E4,1.4298148E4,1.7049292E3,1.955085E5,2.0611436E5,4.3302827E3,1.1781533E3,8.406592E4,9.0506664E4,6.488877E3,1.7335661E5,5.484509E3,1.787428E5,3.6011677E3,8.304231E4,2.5963474E3,7.303228E4,3.6438123E3,1.4399405E5,2.4172874E3,1.0959943E5,1.8527557E3,5.5253418E4,1.879368E3,6.200178E4,1.1462225E3,1.1452368E5,4.6759637E4,4.870761E4,3.5997934E4,1.8677252E4,2.6986959E4,1.8865107E4,3.19754E4,2.2402844E4,1.5405011E4,3.4644562E4,3.0882195E4,2.8662168E4,1.562145E4,2.0018564E4,4.7137994E2,3.610362E4,2.2711867E4,1.2746366E4,7.0255015E3,9.670826E3,7.723497E3,1.2596806E4],"tree_param":{"num_deleted":"0","num_feature":"40","num_nodes":"125","size_leaf_vector":"1"}},{"base_weights":[-7.689066E-4,-5.9656847E-1,1.7671452E0,-9.670991E-1,-9.580351E-3,1.2630237E0,3.0626643E0,-1.1095318E0,-7.227392E-1,-2.6534662E-1,2.6955938E-1,9.3361133E-1,1.7262989E0,2.677196E0,4.0439E0,-1.1108403E0,1.2500635E0,-7.4784386E-1,-1.2844402E-1,-2.871163E-1,7.9130983E-1,1.354454E-1,5.672509E-1,7.615077E-1,1.299987E0,1.5398313E0,2.1117601E0,2.4699218E0,3.0911517E0,3.648482E0,4.5836544E0,-1.1244999E0,-9.969412E-1,-4.8925543E-1,2.669094E0,-8.27417E-1,-6.361631E-1,2.8641602E-1,-4.241254E-1,-3.7899336E-1,-7.478071E-2,1.0397243E0,1.3638486E-1,3.2716722E-4,2.831239E-1,4.297097E-1,7.6859564E-1,6.2104034E-1,9.8653156E-1,1.1093076E0,1.5140799E0,1.3703789E0,1.8372971E0,1.8946301E0,2.3531477E0,2.236351E0,2.819179E0,2.8599627E0,3.459059E0,3.3644671E0,3.871604E0,4.2159066E0,4.8937097E0,-3.402042E-2,-2.988955E-2,-1.1475442E-2,-3.0458836E-2,5.780557E-2,-3.2192267E-2,1.3008834E-1,5.9039723E-3,-2.5252359E-2,-1.0700486E-2,-2.0886395E-2,-1.4755388E-2,5.319036E-3,4.193952E-2,-1.4394234E-2,2.7407963E-2,-1.4656483E-2,-8.227505E-3,-6.4525823E-3,1.6974468E-3,2.509462E-2,5.9346896E-2,1.1539939E-4,2.3360936E-2,-3.43962E-4,4.0205747E-2,8.056838E-3,4.7498345E-2,1.0555832E-2,1.8771486E-2,2.2231588E-2,6.65867E-2,1.5575936E-2,2.2979975E-2,2.8778989E-2,5.7420556E-2,3.266604E-2,7.3387735E-2,4.4780657E-2,7.279812E-2,3.7769828E-2,4.53838E-2,2.5493E-2,5.569367E-2,5.2920446E-2,6.0876038E-2,6.443617E-2,7.428887E-2,6.2270354E-2,7.13928E-2,7.735638E-2,8.858083E-2,8.180071E-2,9.259433E-2,9.93605E-2,1.1034719E-1,9.1074266E-2,1.0449881E-1,1.0942329E-1,1.22255325E-1,1.2066789E-1,1.3416766E-1,1.3928764E-1,1.5251291E-1],"categories":[],"categories_nodes":[],"categories_segments":[],"categories_sizes":[],"default_left":[0,0,0,0,0,0,0,0,0,0,0,0,0,0,0,0,0,0,0,0,0,0,0,0,0,0,0,0,0,0,0,0,0,0,0,0,0,0,0,0,0,0,0,0,0,0,0,0,0,0,0,0,0,0,0,0,0,0,0,0,0,0,0,0,0,0,0,0,0,0,0,0,0,0,0,0,0,0,0,0,0,0,0,0,0,0,0,0,0,0,0,0,0,0,0,0,0,0,0,0,0,0,0,0,0,0,0,0,0,0,0,0,0,0,0,0,0,0,0,0,0,0,0,0,0,0,0],"id":4,"left_children":[1,3,5,7,9,11,13,15,17,19,21,23,25,27,29,31,33,35,37,39,41,43,45,47,49,51,53,55,57,59,61,63,65,67,69,71,73,75,77,79,81,83,85,87,89,91,93,95,97,99,101,103,105,107,109,111,113,115,117,119,121,123,125,-1,-1,-1,-1,-1,-1,-1,-1,-1,-1,-1,-1,-1,-1,-1,-1,-1,-1,-1,-1,-1,-1,-1,-1,-1,-1,-1,-1,-1,-1,-1,-1,-1,-1,-1,-1,-1,-1,-1,-1,-1,-1,-1,-1,-1,-1,-1,-1,-1,-1,-1,-1,-1,-1,-1,-1,-1,-1,-1,-1,-1,-1,-1,-1],"loss_changes":[4.2806975E6,6.6110875E5,6.69011E5,6.4853125E4,8.397739E4,1.12534875E5,1.0851775E5,3.637125E3,1.02371875E4,1.4120074E4,2.2454324E4,2.7173656E4,2.2020875E4,1.766525E4,1.724675E4,1.8285E3,1.6142583E3,5.8498125E3,3.411927E3,1.1733102E4,2.0156353E3,7.7370176E3,4.836875E3,9.267766E3,5.6203438E3,1.0406781E4,5.2292812E3,1.1189625E4,5.83075E3,2.9401875E3,3.869125E3,1.27925E3,1.4202109E3,4.1870486E2,1.4819375E3,2.5924062E3,2.3732734E3,1.4033568E3,1.210282E3,4.8169023E3,3.3478853E3,1.7107129E3,2.9016068E2,3.1994924E3,3.506834E3,1.5832676E3,2.830418E3,2.6646484E3,2.8433516E3,1.9867109E3,1.2607188E3,2.0842344E3,1.4154531E3,9.18875E2,1.1873594E3,1.888E3,1.7555E3,1.2613125E3,8.3565625E2,7.866719E2,1.170375E3,7.4959375E2,8.479375E2,0E0,0E0,0E0,0E0,0E0,0E0,0E0,0E0,0E0,0E0,0E0,0E0,0E0,0E0,0E0,0E0,0E0,0E0,0E0,0E0,0E0,0E0,0E0,0E0,0E0,0E0,0E0,0E0,0E0,0E0,0E0,0E0,0E0,0E0,0E0,0E0,0E0,0E0,0E0,0E0,0E0,0E0,0E0,0E0,0E0,0E0,0E0,0E0,0E0,0E0,0E0,0E0,0E0,0E0,0E0,0E0,0E0,0E0,0E0,0E0,0E0,0E0,0E0,0E0],"parents":[2147483647,0,0,1,1,2,2,3,3,4,4,5,5,6,6,7,7,8,8,9,9,10,10,11,11,12,12,13,13,14,14,15,15,16,16,17,17,18,18,19,19,20,20,21,21,22,22,23,23,24,24,25,25,26,26,27,27,28,28,29,29,30,30,31,31,32,32,33,33,34,34,35,35,36,36,37,37,38,38,39,39,40,40,41,41,42,42,43,43,44,44,45,45,46,46,47,47,48,48,49,49,50,50,51,51,52,52,53,53,54,54,55,55,56,56,57,57,58,58,59,59,60,60,61,61,62,62],"right_children":[2,4,6,8,10,12,14,16,18,20,22,24,26,28,30,32,34,36,38,40,42,44,46,48,50,52,54,56,58,60,62,64,66,68,70,72,74,76,78,80,82,84,86,88,90,92,94,96,98,100,102,104,106,108,110,112,114,116,118,120,122,124,126,-1,-1,-1,-1,-1,-1,-1,-1,-1,-1,-1,-1,-1,-1,-1,-1,-1,-1,-1,-1,-1,-1,-1,-1,-1,-1,-1,-1,-1,-1,-1,-1,-1,-1,-1,-1,-1,-1,-1,-1,-1,-1,-1,-1,-1,-1,-1,-1,-1,-1,-1,-1,-1,-1,-1,-1,-1,-1,-1,-1,-1,-1,-1,-1],"split_conditions":[1.7857143E0,4.642857E-1,6E0,7.1428575E-2,9.6428573E-1,3.2142856E0,1.3428572E1,5.25E0,8.5714287E-1,1.8571428E0,5E0,5E0,5E0,5E0,2.4E1,4E0,1.0511787E-1,2.857143E-1,3.5714287E-2,5E0,1.4285715E-1,1.3214285E0,1.4285715E0,2.5714285E0,2.392857E0,4.642857E0,4.321429E0,8.464286E0,8.857142E0,1.4E1,2.8E1,3.5714287E-2,9.4E-1,2.290649E-3,1.3748921E-1,2E0,5E0,5E0,1.1428572E0,6.785714E-1,6.785714E-1,6E0,1.25E0,3.142857E0,3.7142856E0,1.3214285E0,3.857143E0,2.2142856E0,5.571429E0,4.571429E0,4.357143E0,3.892857E0,5.714286E-1,5E0,5E0,7.071429E0,7E0,7.214286E0,1.0714286E1,7E0,1.7E1,2.5E1,3.5E1,-3.402042E-2,-2.988955E-2,-1.1475442E-2,-3.0458836E-2,5.780557E-2,-3.2192267E-2,1.3008834E-1,5.9039723E-3,-2.5252359E-2,-1.0700486E-2,-2.0886395E-2,-1.4755388E-2,5.319036E-3,4.193952E-2,-1.4394234E-2,2.7407963E-2,-1.4656483E-2,-8.227505E-3,-6.4525823E-3,1.6974468E-3,2.509462E-2,5.9346896E-2,1.1539939E-4,2.3360936E-2,-3.43962E-4,4.0205747E-2,8.056838E-3,4.7498345E-2,1.0555832E-2,1.8771486E-2,2.2231588E-2,6.65867E-2,1.5575936E-2,2.2979975E-2,2.8778989E-2,5.7420556E-2,3.266604E-2,7.3387735E-2,4.4780657E-2,7.279812E-2,3.7769828E-2,4.53838E-2,2.5493E-2,5.569367E-2,5.2920446E-2,6.0876038E-2,6.443617E-2,7.428887E-2,6.2270354E-2,7.13928E-2,7.735638E-2,8.858083E-2,8.180071E-2,9.259433E-2,9.93605E-2,1.1034719E-1,9.1074266E-2,1.0449881E-1,1.0942329E-1,1.22255325E-1,1.2066789E-1,1.3416766E-1,1.3928764E-1,1.5251291E-1],"split_indices":[32,32,30,32,32,32,30,38,28,28,3,3,3,3,23,5,19,32,38,3,34,32,30,30,32,32,32,32,30,23,25,38,18,19,19,23,3,23,38,32,32,23,38,28,28,32,28,32,28,28,30,32,28,23,23,30,23,38,32,23,25,24,26,0,0,0,0,0,0,0,0,0,0,0,0,0,0,0,0,0,0,0,0,0,0,0,0,0,0,0,0,0,0,0,0,0,0,0,0,0,0,0,0,0,0,0,0,0,0,0,0,0,0,0,0,0,0,0,0,0,0,0,0,0,0,0,0],"split_type":[0,0,0,0,0,0,0,0,0,0,0,0,0,0,0,0,0,0,0,0,0,0,0,0,0,0,0,0,0,0,0,0,0,0,0,0,0,0,0,0,0,0,0,0,0,0,0,0,0,0,0,0,0,0,0,0,0,0,0,0,0,0,0,0,0,0,0,0,0,0,0,0,0,0,0,0,0,0,0,0,0,0,0,0,0,0,0,0,0,0,0,0,0,0,0,0,0,0,0,0,0,0,0,0,0,0,0,0,0,0,0,0,0,0,0,0,0,0,0,0,0,0,0,0,0,0,0],"sum_hessian":[4.0639925E6,3.0396202E6,1.02437244E6,1.863379E6,1.1762411E6,7.3742394E5,2.8694853E5,1.1772039E6,6.861751E5,6.1381956E5,5.6242156E5,4.3097984E5,3.064441E5,2.0602102E5,8.09275E4,1.1765521E6,6.5165454E2,6.5836356E5,2.781159E4,6.014298E5,1.2389733E4,3.8774144E5,1.7468014E5,2.9323744E5,1.3774239E5,2.065385E5,9.9905586E4,1.37289E5,6.873202E4,4.6715824E4,3.4211676E4,1.0505486E6,1.260036E5,2.93195E2,3.584595E2,3.8443844E5,2.7392512E5,1.1573264E4,1.6238326E4,4.1978728E5,1.8164255E5,8.98186E3,3.4078728E3,2.0248252E5,1.8525892E5,1.03787055E5,7.0893086E4,1.8054278E5,1.1269467E5,7.286014E4,6.4882254E4,1.3158778E5,7.495072E4,5.260269E4,4.730289E4,8.227669E4,5.5012316E4,4.2216832E4,2.6515191E4,2.0564084E4,2.615174E4,1.5660006E4,1.8551672E4,9.7794894E5,7.259966E4,3.6557646E3,1.22347836E5,5.635423E1,2.3684079E2,2.1338956E2,1.4506996E2,3.7308112E5,1.1357307E4,1.9343189E5,8.0493234E4,1.0540414E4,1.0328491E3,1.5590416E4,6.4791034E2,2.0517658E5,2.1461072E5,8.783141E4,9.381114E4,7.385455E3,1.596405E3,2.8263367E3,5.8153625E2,2.0071736E5,1.765164E3,1.8320873E5,2.0501785E3,7.428694E4,2.9500113E4,6.9574734E4,1.3183572E3,1.06046336E5,7.449644E4,1.094833E5,3.211377E3,7.176577E4,1.0943716E3,6.340009E4,1.4821648E3,7.384668E4,5.7741105E4,1.4278021E3,7.3522914E4,2.670481E4,2.5897883E4,1.7747693E4,2.95552E4,3.8814082E4,4.34626E4,1.9642342E4,3.5369973E4,2.6591486E4,1.5625345E4,1.5883804E4,1.0631389E4,5.471448E3,1.5092635E4,1.2460269E4,1.3691473E4,8.935571E3,6.724435E3,8.014587E3,1.0537084E4],"tree_param":{"num_deleted":"0","num_feature":"40","num_nodes":"127","size_leaf_vector":"1"}},{"base_weights":[-2.4337415E-3,-6.2766534E-1,1.4933218E0,-9.8854345E-1,-8.823324E-2,1.025165E0,2.7080476E0,-1.1054144E0,-7.3317426E-1,-2.875709E-1,2.393035E-1,7.7186376E-1,1.5286996E0,2.3482885E0,3.7543888E0,-9.1669935E-1,-1.1515083E0,-7.9211223E-1,-5.429924E-1,-3.8003948E-1,-7.489964E-2,1.1090039E-1,5.229992E-1,5.011546E-1,1.1076137E0,1.2401037E0,1.9687877E0,2.0682456E0,2.7120793E0,3.3380113E0,4.396047E0,-9.2036384E-1,4.253126E0,-1.176249E0,-1.0253389E0,-8.4045416E-1,-6.711091E-1,-6.0878056E-1,-3.871623E-1,-4.6764308E-1,-1.9635211E-1,-2.2853948E-1,8.292924E-2,5.326625E-3,3.5365444E-1,3.830795E-1,7.720533E-1,3.4631327E-1,6.9000727E-1,4.6487067E-2,1.1566046E0,1.0042553E0,1.5596657E0,1.8308392E0,2.594041E0,5.202291E-1,2.1172478E0,2.476983E0,3.0701923E0,2.961083E0,3.5626643E0,4.0499067E0,4.7299094E0,-2.0457936E-2,-2.8869828E-2,1.7615402E-2,1.4501582E-1,-3.5290863E-2,-2.8235147E-2,-3.0787958E-2,1.3976061E-1,-2.6343357E-2,-2.2436094E-2,-9.919415E-3,-2.221932E-2,-1.986817E-2,-1.518961E-2,-1.3473596E-2,-6.7304117E-3,-1.6212761E-2,-1.0378604E-2,-1.49317235E-2,-4.6597784E-3,-1.0031669E-2,-2.8057005E-3,-8.256917E-3,4.122088E-3,-2.0063743E-2,9.189262E-4,-1.7710999E-2,1.206445E-2,-6.117922E-3,1.2529947E-2,-1.0274423E-2,2.4828132E-2,-1.3089199E-3,1.2720516E-2,1.8152645E-2,3.1396624E-2,2.1385906E-2,-4.7536227E-3,3.0162012E-2,4.192631E-2,2.14691E-2,3.557857E-2,4.0426347E-2,5.462849E-2,5.0451018E-2,6.431359E-2,6.9533765E-2,1.0341989E-1,1.1435258E-2,6.8101384E-2,5.745333E-2,7.070948E-2,6.6362426E-2,7.9999216E-2,8.675521E-2,9.93406E-2,8.2330145E-2,1.0023271E-1,1.00700006E-1,1.1312049E-1,1.1500062E-1,1.2713307E-1,1.3449024E-1,1.4825596E-1],"categories":[],"categories_nodes":[],"categories_segments":[],"categories_sizes":[],"default_left":[0,0,0,0,0,0,0,0,0,0,0,0,0,0,0,0,0,0,0,0,0,0,0,0,0,0,0,0,0,0,0,0,0,0,0,0,0,0,0,0,0,0,0,0,0,0,0,0,0,0,0,0,0,0,0,0,0,0,0,0,0,0,0,0,0,0,0,0,0,0,0,0,0,0,0,0,0,0,0,0,0,0,0,0,0,0,0,0,0,0,0,0,0,0,0,0,0,0,0,0,0,0,0,0,0,0,0,0,0,0,0,0,0,0,0,0,0,0,0,0,0,0,0,0,0,0,0],"id":5,"left_children":[1,3,5,7,9,11,13,15,17,19,21,23,25,27,29,31,33,35,37,39,41,43,45,47,49,51,53,55,57,59,61,63,65,67,69,71,73,75,77,79,81,83,85,87,89,91,93,95,97,99,101,103,105,107,109,111,113,115,117,119,121,123,125,-1,-1,-1,-1,-1,-1,-1,-1,-1,-1,-1,-1,-1,-1,-1,-1,-1,-1,-1,-1,-1,-1,-1,-1,-1,-1,-1,-1,-1,-1,-1,-1,-1,-1,-1,-1,-1,-1,-1,-1,-1,-1,-1,-1,-1,-1,-1,-1,-1,-1,-1,-1,-1,-1,-1,-1,-1,-1,-1,-1,-1,-1,-1,-1],"loss_changes":[3.777226E6,5.544869E5,6.770815E5,5.0933375E4,7.4544055E4,1.0961225E5,1.2466575E5,1.0182375E4,6.00525E3,1.3957785E4,1.5735125E4,5.196853E4,3.6527062E4,2.510125E4,2.2617625E4,4.3598594E3,2.935125E3,2.3917812E3,1.299207E3,7.9600547E3,5.2156694E3,7.6211543E3,4.689629E3,9.256289E3,1.3267969E4,1.3090156E4,9.81775E3,1.05629375E4,9.0135E3,4.335875E3,3.82375E3,2.2969062E3,3.4232495E2,1.9125E1,8.1909375E2,1.0178906E3,2.7641484E3,4.8792578E2,3.7945898E2,2.9661484E3,1.9748965E3,1.5575449E3,2.0700527E3,3.535151E3,4.1264004E3,1.7497783E3,2.9978867E3,5.270582E3,4.316867E3,1.5386906E3,8.885531E3,5.2402812E3,4.0842969E3,4.3500312E3,4.84E3,1.0387437E3,6.534875E3,3.2424688E3,1.812125E3,1.5672969E3,1.3599688E3,6.4128125E2,8.535625E2,0E0,0E0,0E0,0E0,0E0,0E0,0E0,0E0,0E0,0E0,0E0,0E0,0E0,0E0,0E0,0E0,0E0,0E0,0E0,0E0,0E0,0E0,0E0,0E0,0E0,0E0,0E0,0E0,0E0,0E0,0E0,0E0,0E0,0E0,0E0,0E0,0E0,0E0,0E0,0E0,0E0,0E0,0E0,0E0,0E0,0E0,0E0,0E0,0E0,0E0,0E0,0E0,0E0,0E0,0E0,0E0,0E0,0E0,0E0,0E0,0E0,0E0,0E0,0E0],"parents":[2147483647,0,0,1,1,2,2,3,3,4,4,5,5,6,6,7,7,8,8,9,9,10,10,11,11,12,12,13,13,14,14,15,15,16,16,17,17,18,18,19,19,20,20,21,21,22,22,23,23,24,24,25,25,26,26,27,27,28,28,29,29,30,30,31,31,32,32,33,33,34,34,35,35,36,36,37,37,38,38,39,39,40,40,41,41,42,42,43,43,44,44,45,45,46,46,47,47,48,48,49,49,50,50,51,51,52,52,53,53,54,54,55,55,56,56,57,57,58,58,59,59,60,60,61,61,62,62],"right_children":[2,4,6,8,10,12,14,16,18,20,22,24,26,28,30,32,34,36,38,40,42,44,46,48,50,52,54,56,58,60,62,64,66,68,70,72,74,76,78,80,82,84,86,88,90,92,94,96,98,100,102,104,106,108,110,112,114,116,118,120,122,124,126,-1,-1,-1,-1,-1,-1,-1,-1,-1,-1,-1,-1,-1,-1,-1,-1,-1,-1,-1,-1,-1,-1,-1,-1,-1,-1,-1,-1,-1,-1,-1,-1,-1,-1,-1,-1,-1,-1,-1,-1,-1,-1,-1,-1,-1,-1,-1,-1,-1,-1,-1,-1,-1,-1,-1,-1,-1,-1,-1,-1,-1,-1,-1,-1],"split_conditions":[1.5714887E0,6.8525666E-1,5.25E0,2.6726124E-1,1E0,4E0,1.5E1,9.989792E-1,3.9285713E-1,5E0,5E0,2.357143E0,2.9571455E0,8E0,1.9E1,1.6714285E1,1.0057291E0,5.345225E-1,5E0,1.040833E0,9.2796075E-1,1.6071428E0,1.5357143E0,2E0,5.345225E-1,2.857143E0,1.3E1,3.7796447E-1,9.857142E0,9.428572E0,3E1,1.68E0,1.58E0,2.6226526E-1,6.392857E0,5E0,3.5714287E-2,5.714286E-1,6.0714287E-1,6.4285713E-1,5.345225E-1,5.714286E-1,5.345225E-1,3.7796447E-1,3.7796447E-1,4.8795003E-1,3.7796447E-1,8.164966E-1,2.5310245E0,1.18E0,3.5E0,4E0,5E0,7E0,1.3E1,2.9E1,6E0,4E0,1.5E1,1.3E1,5E0,2.3E1,3.8E1,-2.0457936E-2,-2.8869828E-2,1.7615402E-2,1.4501582E-1,-3.5290863E-2,-2.8235147E-2,-3.0787958E-2,1.3976061E-1,-2.6343357E-2,-2.2436094E-2,-9.919415E-3,-2.221932E-2,-1.986817E-2,-1.518961E-2,-1.3473596E-2,-6.7304117E-3,-1.6212761E-2,-1.0378604E-2,-1.49317235E-2,-4.6597784E-3,-1.0031669E-2,-2.8057005E-3,-8.256917E-3,4.122088E-3,-2.0063743E-2,9.189262E-4,-1.7710999E-2,1.206445E-2,-6.117922E-3,1.2529947E-2,-1.0274423E-2,2.4828132E-2,-1.3089199E-3,1.2720516E-2,1.8152645E-2,3.1396624E-2,2.1385906E-2,-4.7536227E-3,3.0162012E-2,4.192631E-2,2.14691E-2,3.557857E-2,4.0426347E-2,5.462849E-2,5.0451018E-2,6.431359E-2,6.9533765E-2,1.0341989E-1,1.1435258E-2,6.8101384E-2,5.745333E-2,7.070948E-2,6.6362426E-2,7.9999216E-2,8.675521E-2,9.93406E-2,8.2330145E-2,1.0023271E-1,1.00700006E-1,1.1312049E-1,1.1500062E-1,1.2713307E-1,1.3449024E-1,1.4825596E-1],"split_indices":[33,33,38,31,38,23,23,22,38,3,3,38,33,24,34,38,22,29,3,33,33,38,38,24,29,38,23,29,36,38,24,17,17,33,38,3,38,38,38,38,29,38,29,29,29,29,29,29,33,17,38,3,3,24,24,27,23,3,24,24,3,25,23,0,0,0,0,0,0,0,0,0,0,0,0,0,0,0,0,0,0,0,0,0,0,0,0,0,0,0,0,0,0,0,0,0,0,0,0,0,0,0,0,0,0,0,0,0,0,0,0,0,0,0,0,0,0,0,0,0,0,0,0,0,0,0,0],"split_type":[0,0,0,0,0,0,0,0,0,0,0,0,0,0,0,0,0,0,0,0,0,0,0,0,0,0,0,0,0,0,0,0,0,0,0,0,0,0,0,0,0,0,0,0,0,0,0,0,0,0,0,0,0,0,0,0,0,0,0,0,0,0,0,0,0,0,0,0,0,0,0,0,0,0,0,0,0,0,0,0,0,0,0,0,0,0,0,0,0,0,0,0,0,0,0,0,0,0,0,0,0,0,0,0,0,0,0,0,0,0,0,0,0,0,0,0,0,0,0,0,0,0,0,0,0,0,0],"sum_hessian":[4.0389742E6,2.8483528E6,1.1906215E6,1.7066252E6,1.1417274E6,8.594076E5,3.312139E5,1.1707981E6,5.358271E5,7.0976656E5,4.3196088E5,5.717799E5,2.876277E5,2.4647453E5,8.473938E4,2.2983878E5,9.409594E5,4.0905453E5,1.2677261E5,4.946801E5,2.1508648E5,2.9737078E5,1.345901E5,3.1655297E5,2.5522692E5,1.7371611E5,1.13911586E5,1.3927345E5,1.0720108E5,5.1396934E4,3.3342453E4,2.2967723E5,1.6155016E2,7.866845E5,1.542749E5,2.922772E5,1.1677735E5,8.913623E4,3.7636383E4,3.349391E5,1.59741E5,1.089896E5,1.06096875E5,2.072428E5,9.012797E4,8.617871E4,4.8411387E4,1.7394186E5,1.4261112E5,1.1263701E4,2.4396322E5,9.995338E4,7.376273E4,9.3327055E4,2.0584533E4,4.273988E3,1.3499947E5,6.4723266E4,4.2477812E4,1.920164E4,3.2195295E4,1.6380049E4,1.6962402E4,3.4377406E4,1.9529983E5,2.2528109E1,1.3902205E2,7.862997E5,3.8478653E2,1.5425102E5,2.38905E1,2.0775945E5,8.451773E4,1.9807E4,9.697035E4,5.8556293E4,3.057993E4,2.725973E4,1.0376651E4,2.0958234E5,1.2535676E5,1.9137875E4,1.4060312E5,6.1091957E4,4.789765E4,1.4005305E4,9.209157E4,7.4962695E3,1.9974653E5,4.4027007E3,8.572527E4,4.794389E3,8.138432E4,2.2979297E3,4.6113457E4,2.8901916E4,1.4503994E5,1.1518236E5,2.7428762E4,2.6485566E3,8.615145E3,1.4989992E5,9.4063305E4,3.861806E4,6.133533E4,4.071683E4,3.30459E4,6.3212383E4,3.0114674E4,1.5554509E4,5.030023E3,3.961093E3,3.128948E2,7.325074E4,6.1748723E4,2.7012857E4,3.7710406E4,2.4430236E4,1.8047576E4,1.2235492E4,6.966148E3,1.6189397E4,1.6005896E4,7.6241567E3,8.755892E3,7.850852E3,9.111551E3],"tree_param":{"num_deleted":"0","num_feature":"40","num_nodes":"127","size_leaf_vector":"1"}},{"base_weights":[-2.5807822E-3,-6.070685E-1,1.5208142E0,-9.709185E-1,-6.7641914E-2,1.0432643E0,2.6287332E0,-1.0909551E0,-6.9114834E-1,-2.896533E-1,1.9655679E-1,7.368192E-1,1.4172468E0,2.2399716E0,3.4857605E0,-8.997166E-1,-1.1417602E0,-7.166506E-1,-6.695556E-2,-3.1273493E-1,5.8711493E-1,7.486574E-2,4.644391E-1,5.861845E-1,1.05764E0,1.1887382E0,1.6764724E0,1.9886549E0,2.516311E0,3.0497966E0,4.0022383E0,-9.0193886E-1,3.8121626E0,-1.1760291E0,-1.0007123E0,-7.6501197E-1,-5.9991956E-1,2.96322E-1,-3.8829777E-1,-3.992293E-1,-1.1488921E-1,8.4227806E-1,3.1281956E-2,6.1778758E-2,1.2827843E0,4.4446102E-1,1.4973387E0,4.8318657E-1,7.99237E-1,9.066607E-1,1.2351006E0,1.0036129E0,1.4038925E0,1.4775909E0,1.9022384E0,1.7095692E0,2.199945E0,2.2590587E0,2.7900617E0,2.7761726E0,3.3456168E0,3.6766272E0,4.458036E0,-2.107929E-2,-2.81509E-2,1.8734682E-2,1.3565099E-1,-3.528975E-2,-2.7257087E-2,-3.0043863E-2,1.3436535E-1,-2.4371523E-2,-2.0043818E-2,-2.038317E-2,-1.4931186E-2,2.8986144E-3,2.745654E-2,-1.454312E-2,1.3308234E-2,-1.5278261E-2,-8.828455E-3,-6.9690063E-3,9.666349E-4,2.0555845E-2,5.197132E-2,-1.744756E-3,2.413139E-2,-1.441322E-3,5.493127E-3,3.2413173E-2,6.0327772E-2,9.513045E-3,1.7511275E-2,5.582839E-2,2.8709792E-2,1.2382063E-2,1.8959926E-2,2.2985086E-2,4.660578E-2,2.6671486E-2,5.6006446E-2,3.6256377E-2,5.5752147E-2,-1.100833E-3,3.0433109E-2,3.9525643E-2,4.8116434E-2,3.7993208E-2,4.707533E-2,5.442921E-2,6.2831044E-2,4.402978E-2,5.2645553E-2,6.2405583E-2,7.278093E-2,6.1544873E-2,7.0489705E-2,7.9446845E-2,8.977212E-2,6.6310845E-2,8.630881E-2,7.4830584E-2,1.0189912E-1,1.0408315E-1,1.2000673E-1,1.2524602E-1,1.4039694E-1],"categories":[],"categories_nodes":[],"categories_segments":[],"categories_sizes":[],"default_left":[0,0,0,0,0,0,0,0,0,0,0,0,0,0,0,0,0,0,0,0,0,0,0,0,0,0,0,0,0,0,0,0,0,0,0,0,0,0,0,0,0,0,0,0,0,0,0,0,0,0,0,0,0,0,0,0,0,0,0,0,0,0,0,0,0,0,0,0,0,0,0,0,0,0,0,0,0,0,0,0,0,0,0,0,0,0,0,0,0,0,0,0,0,0,0,0,0,0,0,0,0,0,0,0,0,0,0,0,0,0,0,0,0,0,0,0,0,0,0,0,0,0,0,0,0,0,0],"id":6,"left_children":[1,3,5,7,9,11,13,15,17,19,21,23,25,27,29,31,33,35,37,39,41,43,45,47,49,51,53,55,57,59,61,63,65,67,69,71,73,75,77,79,81,83,85,87,89,91,93,95,97,99,101,103,105,107,109,111,113,115,117,119,121,123,125,-1,-1,-1,-1,-1,-1,-1,-1,-1,-1,-1,-1,-1,-1,-1,-1,-1,-1,-1,-1,-1,-1,-1,-1,-1,-1,-1,-1,-1,-1,-1,-1,-1,-1,-1,-1,-1,-1,-1,-1,-1,-1,-1,-1,-1,-1,-1,-1,-1,-1,-1,-1,-1,-1,-1,-1,-1,-1,-1,-1,-1,-1,-1,-1],"loss_changes":[3.7001402E6,5.6459575E5,6.0392275E5,5.7689875E4,6.796602E4,9.141225E4,1.14538E5,1.1677875E4,8.210156E3,1.2742422E4,1.7247936E4,2.1185922E4,2.1276125E4,1.6418375E4,2.413825E4,2.647E3,4.58875E3,2.7965938E3,2.3637942E3,1.049827E4,2.2905396E3,5.7511226E3,3.409293E3,6.5460234E3,3.7511094E3,7.6026875E3,7.5523125E3,7.29875E3,7.9230625E3,4.695125E3,7.2621875E3,1.8297188E3,2.6488757E2,5.875E1,7.6928125E2,1.6070781E3,1.1792734E3,1.1744462E3,8.6265137E2,4.9296406E3,3.2234424E3,1.5456763E3,3.5163324E2,4.795826E3,5.709551E2,2.875127E3,6.1305225E2,2.1079883E3,2.4229648E3,1.2771992E3,1.0620156E3,1.1558672E3,1.5217812E3,1.72725E3,1.3255E3,5.805781E2,1.90075E3,1.0845312E3,1.5535312E3,1.7141719E3,1.2006562E3,1.899375E3,1.2548125E3,0E0,0E0,0E0,0E0,0E0,0E0,0E0,0E0,0E0,0E0,0E0,0E0,0E0,0E0,0E0,0E0,0E0,0E0,0E0,0E0,0E0,0E0,0E0,0E0,0E0,0E0,0E0,0E0,0E0,0E0,0E0,0E0,0E0,0E0,0E0,0E0,0E0,0E0,0E0,0E0,0E0,0E0,0E0,0E0,0E0,0E0,0E0,0E0,0E0,0E0,0E0,0E0,0E0,0E0,0E0,0E0,0E0,0E0,0E0,0E0,0E0,0E0,0E0,0E0],"parents":[2147483647,0,0,1,1,2,2,3,3,4,4,5,5,6,6,7,7,8,8,9,9,10,10,11,11,12,12,13,13,14,14,15,15,16,16,17,17,18,18,19,19,20,20,21,21,22,22,23,23,24,24,25,25,26,26,27,27,28,28,29,29,30,30,31,31,32,32,33,33,34,34,35,35,36,36,37,37,38,38,39,39,40,40,41,41,42,42,43,43,44,44,45,45,46,46,47,47,48,48,49,49,50,50,51,51,52,52,53,53,54,54,55,55,56,56,57,57,58,58,59,59,60,60,61,61,62,62],"right_children":[2,4,6,8,10,12,14,16,18,20,22,24,26,28,30,32,34,36,38,40,42,44,46,48,50,52,54,56,58,60,62,64,66,68,70,72,74,76,78,80,82,84,86,88,90,92,94,96,98,100,102,104,106,108,110,112,114,116,118,120,122,124,126,-1,-1,-1,-1,-1,-1,-1,-1,-1,-1,-1,-1,-1,-1,-1,-1,-1,-1,-1,-1,-1,-1,-1,-1,-1,-1,-1,-1,-1,-1,-1,-1,-1,-1,-1,-1,-1,-1,-1,-1,-1,-1,-1,-1,-1,-1,-1,-1,-1,-1,-1,-1,-1,-1,-1,-1,-1,-1,-1,-1,-1,-1,-1,-1],"split_conditions":[1.6428572E0,4.2857143E-1,5.428571E0,3.5634834E-1,9.285714E-1,2.857143E0,1.2E1,9.989792E-1,8.5714287E-1,1.7142857E0,5E0,5E0,4E0,4E0,1.7642857E1,1.6714285E1,1.0057291E0,5E0,3.5714287E-2,5E0,1.4285715E-1,3.2857144E0,2.857143E0,2.4285715E0,2.1785715E0,3.892857E0,3.892857E0,6.75E0,7.214286E0,4E0,3.1E1,1.68E0,1.58E0,7.1428575E-2,4.5E0,3.5714287E-1,2.857143E-1,3E0,7.5E-1,6.4285713E-1,6.785714E-1,6E0,1.4285715E0,1.25E0,7E0,1.25E0,1.4285715E-1,2.142857E0,4.857143E0,3.2142856E0,4.285714E0,1.4285715E-1,5.035714E0,5E0,7E0,2E0,9.392858E0,5E0,9.392858E0,1E0,7.8E-1,2.2E1,3.3E1,-2.107929E-2,-2.81509E-2,1.8734682E-2,1.3565099E-1,-3.528975E-2,-2.7257087E-2,-3.0043863E-2,1.3436535E-1,-2.4371523E-2,-2.0043818E-2,-2.038317E-2,-1.4931186E-2,2.8986144E-3,2.745654E-2,-1.454312E-2,1.3308234E-2,-1.5278261E-2,-8.828455E-3,-6.9690063E-3,9.666349E-4,2.0555845E-2,5.197132E-2,-1.744756E-3,2.413139E-2,-1.441322E-3,5.493127E-3,3.2413173E-2,6.0327772E-2,9.513045E-3,1.7511275E-2,5.582839E-2,2.8709792E-2,1.2382063E-2,1.8959926E-2,2.2985086E-2,4.660578E-2,2.6671486E-2,5.6006446E-2,3.6256377E-2,5.5752147E-2,-1.100833E-3,3.0433109E-2,3.9525643E-2,4.8116434E-2,3.7993208E-2,4.707533E-2,5.442921E-2,6.2831044E-2,4.402978E-2,5.2645553E-2,6.2405583E-2,7.278093E-2,6.1544873E-2,7.0489705E-2,7.9446845E-2,8.977212E-2,6.6310845E-2,8.630881E-2,7.4830584E-2,1.0189912E-1,1.0408315E-1,1.2000673E-1,1.2524602E-1,1.4039694E-1],"split_indices":[32,32,30,33,32,32,28,22,28,28,3,3,3,3,30,38,22,3,38,3,34,28,28,30,32,32,32,32,32,3,23,17,17,30,36,38,32,23,38,32,32,23,38,32,23,32,34,32,28,30,28,28,32,3,23,23,32,3,32,17,17,27,26,0,0,0,0,0,0,0,0,0,0,0,0,0,0,0,0,0,0,0,0,0,0,0,0,0,0,0,0,0,0,0,0,0,0,0,0,0,0,0,0,0,0,0,0,0,0,0,0,0,0,0,0,0,0,0,0,0,0,0,0,0,0,0,0],"split_type":[0,0,0,0,0,0,0,0,0,0,0,0,0,0,0,0,0,0,0,0,0,0,0,0,0,0,0,0,0,0,0,0,0,0,0,0,0,0,0,0,0,0,0,0,0,0,0,0,0,0,0,0,0,0,0,0,0,0,0,0,0,0,0,0,0,0,0,0,0,0,0,0,0,0,0,0,0,0,0,0,0,0,0,0,0,0,0,0,0,0,0,0,0,0,0,0,0,0,0,0,0,0,0,0,0,0,0,0,0,0,0,0,0,0,0,0,0,0,0,0,0,0,0,0,0,0,0],"sum_hessian":[4.0180732E6,2.876622E6,1.1414512E6,1.7178854E6,1.1587366E6,7.976434E5,3.4380788E5,1.2021099E6,5.1577556E5,6.296389E5,5.2909775E5,4.3841028E5,3.5923312E5,2.3652283E5,1.0728505E5,2.5232995E5,9.497799E5,4.9552962E5,2.0245932E4,6.134894E5,1.6149511E4,3.6382503E5,1.6527272E5,2.9833694E5,1.4007336E5,1.909333E5,1.6829981E5,1.2387626E5,1.1264657E5,5.818287E4,4.910217E4,2.5221223E5,1.1771524E2,7.641192E5,1.8566067E5,3.5036512E5,1.451645E5,9.502808E3,1.0743124E4,4.2686856E5,1.8662083E5,1.1067749E4,5.081762E3,3.5992712E5,3.89791E3,1.6213892E5,3.1338054E3,2.0111528E5,9.722166E4,7.56888E4,6.4384555E4,1.0263336E5,8.829994E4,8.948368E4,7.881613E4,5.338113E4,7.049513E4,5.808065E4,5.456592E4,3.0233664E4,2.7949209E4,2.8649475E4,2.04527E4,3.897799E4,2.1323425E5,2.1970684E1,9.574456E1,7.6326906E5,8.50123E2,1.8563652E5,2.416054E1,2.3530144E5,1.15063695E5,8.1640664E4,6.3523832E4,7.1859775E3,2.3168303E3,9.627415E3,1.1157085E3,2.0836934E5,2.184992E5,1.0378682E5,8.283401E4,9.409877E3,1.6578721E3,4.5559385E3,5.2582355E2,1.8891914E5,1.7100798E5,3.0532869E3,8.44623E2,8.468748E4,7.745144E4,1.8709564E3,1.262849E3,1.3649922E5,6.461607E4,9.3141555E4,4.080101E3,7.4328555E4,1.3602451E3,6.1758043E4,2.6265095E3,1.056747E3,1.0157661E5,6.1675445E4,2.6624494E4,2.707845E4,6.240523E4,5.4081195E4,2.4734936E4,8.425014E3,4.4956117E4,4.609444E4,2.4400691E4,1.765926E4,4.042139E4,3.209225E4,2.2473672E4,4.5765845E3,2.5657078E4,1.584753E3,2.6364455E4,1.7477256E4,1.1172218E4,8.998198E3,1.1454501E4],"tree_param":{"num_deleted":"0","num_feature":"40","num_nodes":"127","size_leaf_vector":"1"}},{"base_weights":[-2.893703E-3,-6.029371E-1,1.4312136E0,-9.949267E-1,-1.16621576E-1,9.8239636E-1,2.4773939E0,-1.1005176E0,-7.382295E-1,-3.5515273E-1,1.4226386E-1,7.016495E-1,1.3497924E0,2.1655037E0,3.4419467E0,-8.9946723E-1,-1.1501135E0,-7.925498E-1,-5.714611E-1,-4.6413046E-1,-1.7761093E-1,2.7863283E-2,3.933535E-1,5.594319E-1,1.0025264E0,1.1932193E0,1.67188E0,1.9883931E0,2.548079E0,3.1524355E0,4.0489297E0,-9.026721E-1,3.6006775E0,-1.1762413E0,-1.0176523E0,-5.7675517E-1,-8.258068E-1,-6.345668E-1,-4.217534E-1,-5.346178E-1,-3.0032068E-1,-2.7484423E-1,4.070598E-2,-9.4678946E-2,2.3900212E-1,2.2682613E-1,5.9709525E-1,4.357147E-1,7.887598E-1,8.4592825E-1,1.2365041E0,1.0298754E0,1.4036473E0,1.4877262E0,1.8748361E0,1.7583883E0,2.2425752E0,2.296743E0,2.8173192E0,2.9216917E0,3.4301293E0,3.6615033E0,4.2992983E0,-1.963798E-2,-2.8406369E-2,1.5850669E-2,1.239444E-1,-3.5290826E-2,-2.7384793E-2,-3.0549906E-2,1.0534114E-1,-2.2187276E-2,-9.3683135E-3,-2.647119E-2,-2.2445334E-2,-2.0433858E-2,-1.5903369E-2,-1.3994134E-2,-7.0535145E-3,-3.8206605E-3,-1.6647035E-2,6.1605484E-3,-9.786536E-3,-1.6032135E-2,-6.706314E-3,9.1961084E-4,5.9949372E-2,-5.497261E-3,3.842783E-4,4.888119E-3,1.2680699E-2,2.2303503E-2,5.9138476E-3,1.5525405E-2,2.3952993E-2,1.0344565E-2,1.7237382E-2,4.175682E-2,2.2875097E-2,2.2625849E-2,2.9687556E-2,3.411377E-2,4.118533E-2,2.8148286E-2,3.6142252E-2,4.0234048E-2,4.9490497E-2,4.278286E-2,5.1921036E-2,5.426486E-2,6.4815834E-2,4.8750322E-2,5.756899E-2,6.2581114E-2,7.278997E-2,6.416299E-2,7.339977E-2,8.087428E-2,9.202949E-2,8.037977E-2,9.6433595E-2,9.77614E-2,1.1100111E-1,1.0527787E-1,1.1992497E-1,1.1436177E-1,1.3215059E-1],"categories":[],"categories_nodes":[],"categories_segments":[],"categories_sizes":[],"default_left":[0,0,0,0,0,0,0,0,0,0,0,0,0,0,0,0,0,0,0,0,0,0,0,0,0,0,0,0,0,0,0,0,0,0,0,0,0,0,0,0,0,0,0,0,0,0,0,0,0,0,0,0,0,0,0,0,0,0,0,0,0,0,0,0,0,0,0,0,0,0,0,0,0,0,0,0,0,0,0,0,0,0,0,0,0,0,0,0,0,0,0,0,0,0,0,0,0,0,0,0,0,0,0,0,0,0,0,0,0,0,0,0,0,0,0,0,0,0,0,0,0,0,0,0,0,0,0],"id":7,"left_children":[1,3,5,7,9,11,13,15,17,19,21,23,25,27,29,31,33,35,37,39,41,43,45,47,49,51,53,55,57,59,61,63,65,67,69,71,73,75,77,79,81,83,85,87,89,91,93,95,97,99,101,103,105,107,109,111,113,115,117,119,121,123,125,-1,-1,-1,-1,-1,-1,-1,-1,-1,-1,-1,-1,-1,-1,-1,-1,-1,-1,-1,-1,-1,-1,-1,-1,-1,-1,-1,-1,-1,-1,-1,-1,-1,-1,-1,-1,-1,-1,-1,-1,-1,-1,-1,-1,-1,-1,-1,-1,-1,-1,-1,-1,-1,-1,-1,-1,-1,-1,-1,-1,-1,-1,-1,-1],"loss_changes":[3.4400875E6,5.372744E5,5.53704E5,4.2297E4,7.7675984E4,8.5116375E4,1.06491E5,1.1023625E4,4.1195E3,1.2666406E4,1.7326646E4,2.0015188E4,1.8022938E4,1.8118875E4,1.518075E4,3.1601719E3,3.0675E3,2.4612969E3,1.0553008E3,4.683664E3,5.2858555E3,1.0721853E4,6.4055547E3,9.011406E3,5.499328E3,8.265125E3,4.3654062E3,1.0685125E4,5.718125E3,3.7375E3,2.6847188E3,2.3966406E3,2.5064331E2,2.15625E1,4.5384375E2,1.9726055E3,1.3041875E3,3.8168164E2,2.763838E2,2.3427266E3,1.5983652E3,2.2937217E3,1.5096182E3,2.4961409E3,2.1261875E3,1.5936724E3,1.359791E3,2.6040078E3,1.7608984E3,1.1840234E3,8.1297656E2,2.1672031E3,1.6130312E3,9.1403125E2,1.0425E3,2.0512812E3,2.490625E3,1.0287812E3,1.23E3,2.257125E3,1.2106562E3,5.395469E2,8.4740625E2,0E0,0E0,0E0,0E0,0E0,0E0,0E0,0E0,0E0,0E0,0E0,0E0,0E0,0E0,0E0,0E0,0E0,0E0,0E0,0E0,0E0,0E0,0E0,0E0,0E0,0E0,0E0,0E0,0E0,0E0,0E0,0E0,0E0,0E0,0E0,0E0,0E0,0E0,0E0,0E0,0E0,0E0,0E0,0E0,0E0,0E0,0E0,0E0,0E0,0E0,0E0,0E0,0E0,0E0,0E0,0E0,0E0,0E0,0E0,0E0,0E0,0E0,0E0,0E0],"parents":[2147483647,0,0,1,1,2,2,3,3,4,4,5,5,6,6,7,7,8,8,9,9,10,10,11,11,12,12,13,13,14,14,15,15,16,16,17,17,18,18,19,19,20,20,21,21,22,22,23,23,24,24,25,25,26,26,27,27,28,28,29,29,30,30,31,31,32,32,33,33,34,34,35,35,36,36,37,37,38,38,39,39,40,40,41,41,42,42,43,43,44,44,45,45,46,46,47,47,48,48,49,49,50,50,51,51,52,52,53,53,54,54,55,55,56,56,57,57,58,58,59,59,60,60,61,61,62,62],"right_children":[2,4,6,8,10,12,14,16,18,20,22,24,26,28,30,32,34,36,38,40,42,44,46,48,50,52,54,56,58,60,62,64,66,68,70,72,74,76,78,80,82,84,86,88,90,92,94,96,98,100,102,104,106,108,110,112,114,116,118,120,122,124,126,-1,-1,-1,-1,-1,-1,-1,-1,-1,-1,-1,-1,-1,-1,-1,-1,-1,-1,-1,-1,-1,-1,-1,-1,-1,-1,-1,-1,-1,-1,-1,-1,-1,-1,-1,-1,-1,-1,-1,-1,-1,-1,-1,-1,-1,-1,-1,-1,-1,-1,-1,-1,-1,-1,-1,-1,-1,-1,-1,-1,-1,-1,-1,-1],"split_conditions":[1.6428572E0,6.341265E-1,5.428571E0,7.1428575E-2,8.5714287E-1,2.9285715E0,1.3428572E1,9.989792E-1,3.5714287E-1,7.1428573E-1,5E0,5E0,5E0,8.857142E0,2.6E1,1.6714285E1,1.0057291E0,3.5714287E-2,5E0,5E0,5E0,1.2857143E0,1.1785715E0,2.3214285E0,2.2142856E0,3.8214285E0,3.6785715E0,4E0,4E0,1.7642857E1,2.9E1,1.68E0,1.58E0,2.6226526E-1,3.5714285E0,5.345225E-1,2.1428572E-1,5.3571427E-1,6.0714287E-1,3.5714287E-2,3.5714287E-2,3.7796447E-1,1.9E1,1.1428572E0,1.8928572E0,3.5714287E-2,1.8214285E0,2.142857E0,1.1924752E-1,2.142857E0,2.9285715E0,3.857143E0,6.071429E0,4.214286E0,6.071429E0,6.392857E0,6.392857E0,9.428572E0,1.1214286E1,4E0,2.3E1,2.9E1,2.8613048E-2,-1.963798E-2,-2.8406369E-2,1.5850669E-2,1.239444E-1,-3.5290826E-2,-2.7384793E-2,-3.0549906E-2,1.0534114E-1,-2.2187276E-2,-9.3683135E-3,-2.647119E-2,-2.2445334E-2,-2.0433858E-2,-1.5903369E-2,-1.3994134E-2,-7.0535145E-3,-3.8206605E-3,-1.6647035E-2,6.1605484E-3,-9.786536E-3,-1.6032135E-2,-6.706314E-3,9.1961084E-4,5.9949372E-2,-5.497261E-3,3.842783E-4,4.888119E-3,1.2680699E-2,2.2303503E-2,5.9138476E-3,1.5525405E-2,2.3952993E-2,1.0344565E-2,1.7237382E-2,4.175682E-2,2.2875097E-2,2.2625849E-2,2.9687556E-2,3.411377E-2,4.118533E-2,2.8148286E-2,3.6142252E-2,4.0234048E-2,4.9490497E-2,4.278286E-2,5.1921036E-2,5.426486E-2,6.4815834E-2,4.8750322E-2,5.756899E-2,6.2581114E-2,7.278997E-2,6.416299E-2,7.339977E-2,8.087428E-2,9.202949E-2,8.037977E-2,9.6433595E-2,9.77614E-2,1.1100111E-1,1.0527787E-1,1.1992497E-1,1.1436177E-1,1.3215059E-1],"split_indices":[30,33,30,30,30,30,30,22,38,38,3,3,3,30,26,38,22,38,3,3,3,38,38,38,38,38,38,3,3,30,24,17,17,33,36,29,38,38,38,38,38,29,27,30,38,38,38,30,22,30,38,30,38,30,38,38,38,38,36,3,25,27,19,0,0,0,0,0,0,0,0,0,0,0,0,0,0,0,0,0,0,0,0,0,0,0,0,0,0,0,0,0,0,0,0,0,0,0,0,0,0,0,0,0,0,0,0,0,0,0,0,0,0,0,0,0,0,0,0,0,0,0,0,0,0,0,0],"split_type":[0,0,0,0,0,0,0,0,0,0,0,0,0,0,0,0,0,0,0,0,0,0,0,0,0,0,0,0,0,0,0,0,0,0,0,0,0,0,0,0,0,0,0,0,0,0,0,0,0,0,0,0,0,0,0,0,0,0,0,0,0,0,0,0,0,0,0,0,0,0,0,0,0,0,0,0,0,0,0,0,0,0,0,0,0,0,0,0,0,0,0,0,0,0,0,0,0,0,0,0,0,0,0,0,0,0,0,0,0,0,0,0,0,0,0,0,0,0,0,0,0,0,0,0,0,0,0],"sum_hessian":[3.997651E6,2.8184058E6,1.1792454E6,1.5605438E6,1.257862E6,8.2522294E5,3.5402238E5,1.1057104E6,4.5483338E5,6.5466675E5,6.0319525E5,4.6777544E5,3.5744753E5,2.6752322E5,8.649914E4,2.1879495E5,8.8691544E5,3.4307866E5,1.1175471E5,4.056623E5,2.4900442E5,4.14393E5,1.8880222E5,3.1763928E5,1.5013616E5,2.4052911E5,1.1691842E5,1.8287294E5,8.465028E4,5.8571754E4,2.7927387E4,2.1864047E5,1.5448721E2,7.4078406E5,1.4613136E5,4.581695E4,2.9726172E5,7.86121E4,3.314261E4,2.8361772E5,1.2204462E5,1.7227652E5,7.67279E4,2.6221006E5,1.5218295E5,1.0389105E5,8.491118E4,2.0633244E5,1.11306836E5,8.994473E4,6.0191434E4,1.3541952E5,1.05109586E5,6.1305438E4,5.5612984E4,9.600867E4,8.686427E4,4.3788418E4,4.0861867E4,3.19998E4,2.6571951E4,1.0972348E4,1.695504E4,3.3072973E4,1.8556748E5,2.3227337E1,1.3125987E2,7.404425E5,3.4155893E2,1.4611067E5,2.0688301E1,2.8356656E4,1.7460293E4,1.7194966E5,1.2531206E5,5.4367793E4,2.424431E4,2.6734328E4,6.408283E3,1.3456022E4,2.701617E5,5.9451094E3,1.1609951E5,2.8427625E4,1.4384889E5,7.6337484E4,3.9041745E2,1.4376073E5,1.1844932E5,1.0762076E5,4.456219E4,5.6453413E3,9.82457E4,6.0860867E4,2.405031E4,1.24708586E5,8.162384E4,4.6400215E3,1.0666681E5,5.4898754E4,3.5045973E4,3.4823383E4,2.536805E4,8.8874836E4,4.6544684E4,8.382229E4,2.1287295E4,4.891006E4,1.2395376E4,4.518467E4,1.0428313E4,5.245579E4,4.355288E4,4.6916414E4,3.994786E4,2.1332504E4,2.2455912E4,2.7521182E4,1.3340685E4,1.7515209E4,1.4484592E4,1.6263289E4,1.0308663E4,7.562993E3,3.4093545E3,3.0330706E3,1.3921969E4],"tree_param":{"num_deleted":"0","num_feature":"40","num_nodes":"127","size_leaf_vector":"1"}},{"base_weights":[-2.4447276E-3,-6.189735E-1,1.3094802E0,-9.744952E-1,-1.18793294E-1,8.9152014E-1,2.3193898E0,-1.1096474E0,-7.3858994E-1,-3.2232177E-1,1.1500537E-1,6.04193E-1,1.2303349E0,2.023773E0,3.2369723E0,-8.662824E-1,-1.1532567E0,-7.578978E-1,-1.96132E-2,-3.4710214E-1,4.7977722E-1,4.7508776E-3,3.549724E-1,4.7199512E-1,8.8313407E-1,1.0297179E0,1.4573053E0,1.834096E0,2.3252978E0,2.9202476E0,3.8439877E0,-8.7051475E-1,3.5041935E0,-1.1706469E0,-1.0331361E0,-8.648192E-1,-6.9103026E-1,-1.7370021E-1,6.080431E-1,-4.2783755E-1,-1.6370441E-1,7.3996735E-1,-4.1502997E-2,-1.5187766E-2,6.949785E-1,3.3932573E-1,1.7558621E0,3.4627292E-1,6.120078E-1,7.282453E-1,1.0322881E0,8.632286E-1,1.2149999E0,1.2810299E0,1.650202E0,1.7006277E0,2.0462513E0,2.1227956E0,2.5512571E0,2.7037299E0,3.1810634E0,3.4754078E0,4.1233215E0,-1.7849887E-2,-2.775935E-2,5.871647E-2,1.24702334E-1,-3.063235E-2,-3.5291214E-2,-3.1109339E-2,2.1152446E-2,-2.0466013E-2,-2.6879443E-2,-2.228502E-2,-1.702177E-2,9.213264E-4,-1.48495445E-2,7.3310374E-3,3.708782E-2,-1.5737707E-2,-9.736295E-3,-8.427941E-3,-1.2241112E-3,1.9533489E-2,6.857755E-2,-4.176103E-3,1.4443649E-2,-3.792856E-3,2.3947128E-3,1.4335004E-2,4.2348653E-2,7.032891E-3,1.4257849E-2,4.7167547E-2,8.131957E-2,9.979409E-3,3.8189936E-2,1.7489288E-2,3.1486843E-2,2.1590365E-2,7.25991E-2,3.0318452E-2,5.4962076E-2,2.4521532E-2,3.2858383E-2,3.433082E-2,4.26811E-2,3.2518923E-2,4.092536E-2,4.764683E-2,5.781904E-2,4.7543224E-2,5.89496E-2,5.689547E-2,6.634371E-2,5.510295E-2,6.8979815E-2,7.066408E-2,8.391946E-2,1.8230444E-2,8.18079E-2,9.1096945E-2,1.0306792E-1,9.698992E-2,1.1023659E-1,1.1865672E-1,1.3261606E-1],"categories":[],"categories_nodes":[],"categories_segments":[],"categories_sizes":[],"default_left":[0,0,0,0,0,0,0,0,0,0,0,0,0,0,0,0,0,0,0,0,0,0,0,0,0,0,0,0,0,0,0,0,0,0,0,0,0,0,0,0,0,0,0,0,0,0,0,0,0,0,0,0,0,0,0,0,0,0,0,0,0,0,0,0,0,0,0,0,0,0,0,0,0,0,0,0,0,0,0,0,0,0,0,0,0,0,0,0,0,0,0,0,0,0,0,0,0,0,0,0,0,0,0,0,0,0,0,0,0,0,0,0,0,0,0,0,0,0,0,0,0,0,0,0,0,0,0],"id":8,"left_children":[1,3,5,7,9,11,13,15,17,19,21,23,25,27,29,31,33,35,37,39,41,43,45,47,49,51,53,55,57,59,61,63,65,67,69,71,73,75,77,79,81,83,85,87,89,91,93,95,97,99,101,103,105,107,109,111,113,115,117,119,121,123,125,-1,-1,-1,-1,-1,-1,-1,-1,-1,-1,-1,-1,-1,-1,-1,-1,-1,-1,-1,-1,-1,-1,-1,-1,-1,-1,-1,-1,-1,-1,-1,-1,-1,-1,-1,-1,-1,-1,-1,-1,-1,-1,-1,-1,-1,-1,-1,-1,-1,-1,-1,-1,-1,-1,-1,-1,-1,-1,-1,-1,-1,-1,-1,-1],"loss_changes":[3.2192402E6,4.814857E5,5.370935E5,5.04595E4,5.353071E4,8.761175E4,1.010205E5,1.0677125E4,8.0025E3,1.1954055E4,1.3851645E4,1.7957328E4,1.8802375E4,1.610475E4,1.7430562E4,2.8328125E3,1.7805E3,4.0126875E3,1.4583496E3,8.637891E3,2.4447344E3,4.936975E3,3.6116113E3,5.815664E3,3.6161797E3,6.760703E3,6.5849688E3,4.89125E3,4.9686875E3,3.3546562E3,3.1809375E3,2.3054297E3,1.3680347E2,6.364375E2,7.2184375E2,1.2281406E3,2.2115156E3,7.951991E2,6.784386E2,4.0479062E3,2.5690908E3,1.6489536E3,3.0674545E2,3.6850396E3,1.5661333E3,2.3240059E3,3.122627E2,2.1975586E3,1.9845977E3,1.110375E3,1.3795703E3,1.2268828E3,1.5195625E3,1.6565781E3,1.5837812E3,3.246375E3,1.6450938E3,2.8902969E3,2.4659688E3,1.5824375E3,9.784375E2,6.2946875E2,8.5678125E2,0E0,0E0,0E0,0E0,0E0,0E0,0E0,0E0,0E0,0E0,0E0,0E0,0E0,0E0,0E0,0E0,0E0,0E0,0E0,0E0,0E0,0E0,0E0,0E0,0E0,0E0,0E0,0E0,0E0,0E0,0E0,0E0,0E0,0E0,0E0,0E0,0E0,0E0,0E0,0E0,0E0,0E0,0E0,0E0,0E0,0E0,0E0,0E0,0E0,0E0,0E0,0E0,0E0,0E0,0E0,0E0,0E0,0E0,0E0,0E0,0E0,0E0,0E0,0E0],"parents":[2147483647,0,0,1,1,2,2,3,3,4,4,5,5,6,6,7,7,8,8,9,9,10,10,11,11,12,12,13,13,14,14,15,15,16,16,17,17,18,18,19,19,20,20,21,21,22,22,23,23,24,24,25,25,26,26,27,27,28,28,29,29,30,30,31,31,32,32,33,33,34,34,35,35,36,36,37,37,38,38,39,39,40,40,41,41,42,42,43,43,44,44,45,45,46,46,47,47,48,48,49,49,50,50,51,51,52,52,53,53,54,54,55,55,56,56,57,57,58,58,59,59,60,60,61,61,62,62],"right_children":[2,4,6,8,10,12,14,16,18,20,22,24,26,28,30,32,34,36,38,40,42,44,46,48,50,52,54,56,58,60,62,64,66,68,70,72,74,76,78,80,82,84,86,88,90,92,94,96,98,100,102,104,106,108,110,112,114,116,118,120,122,124,126,-1,-1,-1,-1,-1,-1,-1,-1,-1,-1,-1,-1,-1,-1,-1,-1,-1,-1,-1,-1,-1,-1,-1,-1,-1,-1,-1,-1,-1,-1,-1,-1,-1,-1,-1,-1,-1,-1,-1,-1,-1,-1,-1,-1,-1,-1,-1,-1,-1,-1,-1,-1,-1,-1,-1,-1,-1,-1,-1,-1,-1,-1,-1,-1],"split_conditions":[1.5E0,3.9285713E-1,5.25E0,3.5714287E-2,8.5714287E-1,2.6785715E0,1.2892858E1,8.054832E-1,8.5714287E-1,1.5714285E0,5E0,5E0,4E0,9E0,2.6E1,1.6714285E1,1.0057291E0,4.1785544E-1,3E0,5E0,3.7796447E-1,2.4285715E0,3.142857E0,2E0,1.9642857E0,3.6785715E0,3.6785715E0,4E0,5E0,1.6E1,2.9E1,1.24E0,3.3299306E-1,9.989792E-1,2.1901376E0,3E0,5E0,7.1428575E-2,1.030616E0,6.0714287E-1,6.0714287E-1,2.3704531E0,1.1071428E0,1.1071428E0,3.5714285E0,1.1785715E0,1.2E1,3.857143E0,3.7142856E0,5.142857E0,4.428571E0,4.142857E0,5.285714E0,5E0,9E0,8E0,6.75E0,7.75E0,8.464286E0,2E0,2.3E1,1.8E1,4.6E1,-1.7849887E-2,-2.775935E-2,5.871647E-2,1.24702334E-1,-3.063235E-2,-3.5291214E-2,-3.1109339E-2,2.1152446E-2,-2.0466013E-2,-2.6879443E-2,-2.228502E-2,-1.702177E-2,9.213264E-4,-1.48495445E-2,7.3310374E-3,3.708782E-2,-1.5737707E-2,-9.736295E-3,-8.427941E-3,-1.2241112E-3,1.9533489E-2,6.857755E-2,-4.176103E-3,1.4443649E-2,-3.792856E-3,2.3947128E-3,1.4335004E-2,4.2348653E-2,7.032891E-3,1.4257849E-2,4.7167547E-2,8.131957E-2,9.979409E-3,3.8189936E-2,1.7489288E-2,3.1486843E-2,2.1590365E-2,7.25991E-2,3.0318452E-2,5.4962076E-2,2.4521532E-2,3.2858383E-2,3.433082E-2,4.26811E-2,3.2518923E-2,4.092536E-2,4.764683E-2,5.781904E-2,4.7543224E-2,5.89496E-2,5.689547E-2,6.634371E-2,5.510295E-2,6.8979815E-2,7.066408E-2,8.391946E-2,1.8230444E-2,8.18079E-2,9.1096945E-2,1.0306792E-1,9.698992E-2,1.1023659E-1,1.1865672E-1,1.3261606E-1],"split_indices":[32,32,32,32,32,32,32,22,28,28,3,3,3,23,23,38,22,33,23,3,35,28,28,32,32,32,32,3,3,23,25,18,22,22,37,0,3,36,33,32,32,33,38,32,28,32,23,28,28,28,28,28,28,3,23,28,32,32,32,28,24,27,23,0,0,0,0,0,0,0,0,0,0,0,0,0,0,0,0,0,0,0,0,0,0,0,0,0,0,0,0,0,0,0,0,0,0,0,0,0,0,0,0,0,0,0,0,0,0,0,0,0,0,0,0,0,0,0,0,0,0,0,0,0,0,0,0],"split_type":[0,0,0,0,0,0,0,0,0,0,0,0,0,0,0,0,0,0,0,0,0,0,0,0,0,0,0,0,0,0,0,0,0,0,0,0,0,0,0,0,0,0,0,0,0,0,0,0,0,0,0,0,0,0,0,0,0,0,0,0,0,0,0,0,0,0,0,0,0,0,0,0,0,0,0,0,0,0,0,0,0,0,0,0,0,0,0,0,0,0,0,0,0,0,0,0,0,0,0,0,0,0,0,0,0,0,0,0,0,0,0,0,0,0,0,0,0,0,0,0,0,0,0,0,0,0,0],"sum_hessian":[3.9800705E6,2.7076382E6,1.2724324E6,1.5826845E6,1.1249536E6,8.9997325E5,3.7245906E5,1.0062113E6,5.7647325E5,6.014093E5,5.235443E5,4.869914E5,4.1298188E5,2.8170678E5,9.075227E4,1.5291139E5,8.5329994E5,5.613969E5,1.5076354E4,5.8338694E5,1.802241E4,3.5872678E5,1.6481752E5,3.304069E5,1.5658448E5,2.1922219E5,1.937597E5,1.729327E5,1.0877407E5,5.9641688E4,3.1110584E4,1.5276467E5,1.4671309E2,7.4537594E5,1.0792399E5,2.1599734E5,3.4539953E5,1.2105699E4,2.9706545E3,4.0506603E5,1.783209E5,1.2021566E4,6.0008433E3,3.4865647E5,1.0070337E4,1.6299889E5,1.8186161E3,1.7409077E5,1.5631616E5,7.6820164E4,7.976433E4,1.1547159E5,1.03750586E5,1.01247984E5,9.251171E4,1.0616048E5,6.677223E4,5.7373027E4,5.1401047E4,3.2597842E4,2.7043848E4,1.3421488E4,1.7689096E4,2.5345824E4,1.2741885E5,4.5351723E1,1.01361374E2,2.7498648E4,7.178773E5,1.0768665E5,2.3734523E2,3.149078E4,1.8450656E5,2.4340534E5,1.01994195E5,7.399168E3,4.706531E3,1.8828914E3,1.0877631E3,2.0915228E5,1.9591375E5,9.126573E4,8.705518E4,1.1370275E4,6.512915E2,5.057314E3,9.435294E2,1.6061123E5,1.8804522E5,7.7305864E3,2.3397502E3,9.200633E4,7.099257E4,1.5287125E3,2.8990353E2,1.7157025E5,2.5205107E3,1.4659347E5,9.722685E3,7.643531E4,3.8485016E2,7.766328E4,2.1010476E3,9.642833E4,1.9043268E4,7.74279E4,2.6322684E4,3.0050176E4,7.119781E4,7.561139E4,1.6900316E4,7.382016E4,3.2340326E4,3.5036195E4,3.1736031E4,2.1902504E4,3.5470523E4,2.8633627E4,2.2767418E4,3.5735162E2,3.224049E4,1.726329E4,9.780559E3,6.0650894E3,7.356399E3,1.1312695E4,6.376401E3],"tree_param":{"num_deleted":"0","num_feature":"40","num_nodes":"127","size_leaf_vector":"1"}},{"base_weights":[-1.846119E-3,-6.259276E-1,1.2161304E0,-9.837682E-1,-1.5386786E-1,7.9092175E-1,2.1143293E0,-1.1075178E0,-7.473975E-1,-3.4577054E-1,8.545313E-2,5.375691E-1,1.1065958E0,1.8118391E0,2.933131E0,-8.57367E-1,-1.1526461E0,-7.722115E-1,-1.8793878E-1,-4.5318577E-1,-1.8040654E-1,-2.0549279E-2,3.1556997E-1,4.1244885E-1,8.005136E-1,9.696767E-1,1.3868796E0,1.590981E0,2.0521898E0,2.567707E0,3.4114025E0,-5.426305E-1,-9.2465764E-1,-1.1704485E0,-1.0300672E0,-8.798962E-1,-7.1919703E-1,1.5566264E-1,-4.767102E-1,-5.2452064E-1,-2.896978E-1,-2.6990736E-1,1.8840251E-2,-5.0772056E-2,5.1775014E-1,2.9169193E-1,1.2859862E0,3.0923742E-1,5.793355E-1,6.5273046E-1,9.323082E-1,8.411771E-1,1.1692764E0,1.2549065E0,1.5921255E0,1.446197E0,1.8843007E0,1.8907788E0,2.3724825E0,2.3939507E0,2.9143286E0,3.1233606E0,3.8409984E0,-1.7447058E-2,7.066213E-2,5.6420032E-2,-2.7791359E-2,-3.0456962E-2,-3.5291377E-2,-3.0935142E-2,1.2370435E-1,-2.706616E-2,-2.0699767E-2,-2.297332E-2,-1.8228332E-2,2.1318672E-3,3.585167E-2,-1.6656065E-2,1.1798603E-2,-1.5890151E-2,6.79773E-3,-8.917568E-3,2.0795356E-2,-1.5869789E-2,-7.4170525E-3,4.1091448E-4,4.8155095E-2,-4.572446E-3,1.6864649E-3,2.5382584E-2,6.4645833E-3,5.2506183E-3,1.23207355E-2,4.977311E-2,2.7007964E-2,-7.7121053E-3,9.688035E-3,1.6378025E-2,3.443258E-2,1.9091701E-2,4.527991E-2,2.7580323E-2,5.570884E-2,-1.6923565E-3,2.5514156E-2,1.5641667E-2,3.561384E-2,3.4884617E-2,4.0745728E-2,4.495195E-2,5.181003E-2,4.0426403E-2,4.615516E-2,5.290097E-2,6.0475722E-2,5.372509E-2,6.2456172E-2,6.785866E-2,7.740252E-2,5.7167485E-2,7.4254334E-2,5.9189815E-2,8.885416E-2,8.7818176E-2,1.0181626E-1,1.0863665E-1,1.24746494E-1],"categories":[],"categories_nodes":[],"categories_segments":[],"categories_sizes":[],"default_left":[0,0,0,0,0,0,0,0,0,0,0,0,0,0,0,0,0,0,0,0,0,0,0,0,0,0,0,0,0,0,0,0,0,0,0,0,0,0,0,0,0,0,0,0,0,0,0,0,0,0,0,0,0,0,0,0,0,0,0,0,0,0,0,0,0,0,0,0,0,0,0,0,0,0,0,0,0,0,0,0,0,0,0,0,0,0,0,0,0,0,0,0,0,0,0,0,0,0,0,0,0,0,0,0,0,0,0,0,0,0,0,0,0,0,0,0,0,0,0,0,0,0,0,0,0,0,0],"id":9,"left_children":[1,3,5,7,9,11,13,15,17,19,21,23,25,27,29,31,33,35,37,39,41,43,45,47,49,51,53,55,57,59,61,63,65,67,69,71,73,75,77,79,81,83,85,87,89,91,93,95,97,99,101,103,105,107,109,111,113,115,117,119,121,123,125,-1,-1,-1,-1,-1,-1,-1,-1,-1,-1,-1,-1,-1,-1,-1,-1,-1,-1,-1,-1,-1,-1,-1,-1,-1,-1,-1,-1,-1,-1,-1,-1,-1,-1,-1,-1,-1,-1,-1,-1,-1,-1,-1,-1,-1,-1,-1,-1,-1,-1,-1,-1,-1,-1,-1,-1,-1,-1,-1,-1,-1,-1,-1,-1],"loss_changes":[3.012624E6,4.426765E5,5.1283162E5,4.3600875E4,5.1895188E4,7.288544E4,1.06847875E5,1.1043375E4,7.11075E3,1.1138914E4,1.2266184E4,1.6632875E4,1.55694375E4,1.67185E4,2.0326938E4,3.166125E3,1.80675E3,2.799E3,2.158907E3,4.4333047E3,4.403769E3,5.6009033E3,3.673998E3,5.9003633E3,3.1738438E3,6.9902344E3,3.6036406E3,6.9683125E3,7.792125E3,3.9629062E3,6.218375E3,2.9745942E3,5.9728125E2,6.6425E2,6.0435156E2,6.843906E2,1.7075625E3,8.734646E2,8.076533E2,1.0242656E3,8.578008E2,1.00068164E3,6.243103E2,3.5447993E3,1.8159365E3,2.1487744E3,5.455386E2,1.6420195E3,2.4842422E3,1.0740078E3,1.0300078E3,1.3837734E3,1.2336562E3,7.683047E2,6.545156E2,9.976875E2,8.575E2,1.9099688E3,1.1505625E3,1.7355469E3,9.750469E2,1.5854375E3,1.386625E3,0E0,0E0,0E0,0E0,0E0,0E0,0E0,0E0,0E0,0E0,0E0,0E0,0E0,0E0,0E0,0E0,0E0,0E0,0E0,0E0,0E0,0E0,0E0,0E0,0E0,0E0,0E0,0E0,0E0,0E0,0E0,0E0,0E0,0E0,0E0,0E0,0E0,0E0,0E0,0E0,0E0,0E0,0E0,0E0,0E0,0E0,0E0,0E0,0E0,0E0,0E0,0E0,0E0,0E0,0E0,0E0,0E0,0E0,0E0,0E0,0E0,0E0,0E0,0E0],"parents":[2147483647,0,0,1,1,2,2,3,3,4,4,5,5,6,6,7,7,8,8,9,9,10,10,11,11,12,12,13,13,14,14,15,15,16,16,17,17,18,18,19,19,20,20,21,21,22,22,23,23,24,24,25,25,26,26,27,27,28,28,29,29,30,30,31,31,32,32,33,33,34,34,35,35,36,36,37,37,38,38,39,39,40,40,41,41,42,42,43,43,44,44,45,45,46,46,47,47,48,48,49,49,50,50,51,51,52,52,53,53,54,54,55,55,56,56,57,57,58,58,59,59,60,60,61,61,62,62],"right_children":[2,4,6,8,10,12,14,16,18,20,22,24,26,28,30,32,34,36,38,40,42,44,46,48,50,52,54,56,58,60,62,64,66,68,70,72,74,76,78,80,82,84,86,88,90,92,94,96,98,100,102,104,106,108,110,112,114,116,118,120,122,124,126,-1,-1,-1,-1,-1,-1,-1,-1,-1,-1,-1,-1,-1,-1,-1,-1,-1,-1,-1,-1,-1,-1,-1,-1,-1,-1,-1,-1,-1,-1,-1,-1,-1,-1,-1,-1,-1,-1,-1,-1,-1,-1,-1,-1,-1,-1,-1,-1,-1,-1,-1,-1,-1,-1,-1,-1,-1,-1,-1,-1,-1,-1,-1,-1],"split_conditions":[1.4285715E0,3.5714287E-1,4.857143E0,3.5714287E-2,8.5714287E-1,2.5714285E0,1.2E1,8.054832E-1,7.1428573E-1,6.4285713E-1,1E0,1E0,1E0,6.75E0,1.9E1,1.68E0,1.0057291E0,3.7796447E-1,1.8898223E-1,1E0,1E0,2.142857E0,2.5714285E0,2.0714285E0,1.8571428E0,3.6785715E0,3.6785715E0,1E0,1E0,1E0,3E1,5.608079E0,2.87994E-1,9.989792E-1,4.642857E0,1E0,1E0,5E0,1.2429696E0,1.4285715E0,1.4285715E0,1.4285715E-1,5.346215E0,1.0714285E0,1.4285715E-1,1.0714285E0,2.6226526E-1,1.4285715E-1,4E0,2.7857144E0,4.857143E0,1.4285715E-1,8.5714287E-1,3.142857E0,6E0,5E0,8E0,9.392858E0,9.392858E0,1E0,7.8E-1,2E1,4.2E1,-1.7447058E-2,7.066213E-2,5.6420032E-2,-2.7791359E-2,-3.0456962E-2,-3.5291377E-2,-3.0935142E-2,1.2370435E-1,-2.706616E-2,-2.0699767E-2,-2.297332E-2,-1.8228332E-2,2.1318672E-3,3.585167E-2,-1.6656065E-2,1.1798603E-2,-1.5890151E-2,6.79773E-3,-8.917568E-3,2.0795356E-2,-1.5869789E-2,-7.4170525E-3,4.1091448E-4,4.8155095E-2,-4.572446E-3,1.6864649E-3,2.5382584E-2,6.4645833E-3,5.2506183E-3,1.23207355E-2,4.977311E-2,2.7007964E-2,-7.7121053E-3,9.688035E-3,1.6378025E-2,3.443258E-2,1.9091701E-2,4.527991E-2,2.7580323E-2,5.570884E-2,-1.6923565E-3,2.5514156E-2,1.5641667E-2,3.561384E-2,3.4884617E-2,4.0745728E-2,4.495195E-2,5.181003E-2,4.0426403E-2,4.615516E-2,5.290097E-2,6.0475722E-2,5.372509E-2,6.2456172E-2,6.785866E-2,7.740252E-2,5.7167485E-2,7.4254334E-2,5.9189815E-2,8.885416E-2,8.7818176E-2,1.0181626E-1,1.0863665E-1,1.24746494E-1],"split_indices":[32,32,30,32,30,32,28,22,28,32,9,9,9,32,28,17,22,33,39,9,9,28,28,30,32,32,32,9,9,9,25,37,22,22,36,23,9,23,39,28,28,28,39,32,34,32,39,28,28,30,28,28,28,28,23,23,23,32,32,17,17,27,23,0,0,0,0,0,0,0,0,0,0,0,0,0,0,0,0,0,0,0,0,0,0,0,0,0,0,0,0,0,0,0,0,0,0,0,0,0,0,0,0,0,0,0,0,0,0,0,0,0,0,0,0,0,0,0,0,0,0,0,0,0,0,0,0],"split_type":[0,0,0,0,0,0,0,0,0,0,0,0,0,0,0,0,0,0,0,0,0,0,0,0,0,0,0,0,0,0,0,0,0,0,0,0,0,0,0,0,0,0,0,0,0,0,0,0,0,0,0,0,0,0,0,0,0,0,0,0,0,0,0,0,0,0,0,0,0,0,0,0,0,0,0,0,0,0,0,0,0,0,0,0,0,0,0,0,0,0,0,0,0,0,0,0,0,0,0,0,0,0,0,0,0,0,0,0,0,0,0,0,0,0,0,0,0,0,0,0,0,0,0,0,0,0,0],"sum_hessian":[3.9633678E6,2.6205958E6,1.3427718E6,1.4906331E6,1.1299628E6,9.1134356E5,4.3142828E5,9.783972E5,5.1223597E5,6.271078E5,5.0285488E5,5.055806E5,4.0576294E5,3.1504572E5,1.16382555E5,1.4953595E5,8.288612E5,4.9048062E5,2.1755346E4,3.801628E5,2.4694502E5,3.4426944E5,1.5858544E5,3.4257362E5,1.6300695E5,2.726031E5,1.3315986E5,1.6418662E5,1.508591E5,6.598013E4,5.040242E4,2.634206E4,1.231939E5,7.237371E5,1.0512409E5,1.618006E5,3.2868003E5,9.93468E3,1.1820666E4,2.6467366E5,1.1548918E5,1.7040139E5,7.6543625E4,3.2596947E5,1.8299984E4,1.54779E5,3.806434E3,2.1167047E5,1.3090316E5,7.684699E4,8.615997E4,1.6584353E5,1.06759555E5,8.105358E4,5.210629E4,1.099326E5,5.4254023E4,1.00315734E5,5.054336E4,4.3957176E4,2.2022957E4,3.0179725E4,2.0222697E4,2.5994037E4,3.480238E2,7.448877E1,1.2311941E5,2.664616E4,6.9709094E5,1.051028E5,2.1302603E1,1.4478562E5,1.7014975E4,2.3187616E5,9.680387E4,9.18849E3,7.4618964E2,1.0843053E4,9.776134E2,2.6287144E5,1.8021888E3,1.1460943E5,8.7974915E2,1.3708674E4,1.5669272E5,7.629783E4,2.4579219E2,1.6716025E5,1.588092E5,8.770235E3,9.529749E3,7.815626E4,7.662275E4,1.9321781E3,1.8742559E3,4.997898E3,2.0667258E5,1.23640875E5,7.2622812E3,7.541119E4,1.4358073E3,8.497172E4,1.1882456E3,1.6995623E3,1.6414397E5,2.8640999E3,1.0389546E5,4.285999E4,3.819359E4,3.075385E4,2.135244E4,5.315267E4,5.6779934E4,2.8279844E4,2.5974178E4,6.587767E4,3.443806E4,3.299507E4,1.7548287E4,6.271731E3,3.7685445E4,1.0605802E3,2.0962377E4,1.7507299E4,1.2672426E4,1.1957305E4,8.265393E3],"tree_param":{"num_deleted":"0","num_feature":"40","num_nodes":"127","size_leaf_vector":"1"}},{"base_weights":[-2.6684834E-3,-6.41872E-1,1.1114005E0,-9.940912E-1,-1.9703038E-1,7.209415E-1,2.0015314E0,-1.105737E0,-7.5706005E-1,-4.038687E-1,1.7876856E-3,4.6353042E-1,1.0356832E0,1.7560477E0,2.8759933E0,-8.523532E-1,-1.15188E0,-7.854673E-1,-2.4049605E-1,1.5607634E-1,-4.294345E-1,-9.7660154E-2,2.1712159E-1,3.0333552E-1,6.49886E-1,8.551363E-1,1.2378292E0,1.5860612E0,2.050272E0,2.5816607E0,3.4490547E0,-5.566985E-1,-9.1601145E-1,-1.1702543E0,-1.0261207E0,-8.284544E-1,-6.8025994E-1,1.7993635E-1,-5.333929E-1,-3.23409E-2,1.0066614E0,-5.0225484E-1,-2.6386952E-1,-1.9390042E-1,1.2597262E-2,9.1911405E-1,1.9284135E-1,1.8208063E-1,4.3102983E-1,5.2393526E-1,7.9784423E-1,7.148385E-1,1.0131656E0,1.0894923E0,1.403186E0,1.4511479E0,1.8604884E0,1.843984E0,2.2729719E0,2.2810078E0,2.7314124E0,3.1864219E0,3.823574E0,-1.7817782E-2,4.9226724E-2,4.353794E-2,-2.7519941E-2,-3.0328112E-2,-3.529106E-2,-3.0896401E-2,1.4265727E-2,-1.909272E-2,-2.5829904E-2,-2.192148E-2,-1.6842814E-2,-9.55614E-5,2.1046285E-2,-1.9425703E-2,7.273679E-3,-4.6173516E-3,8.984474E-3,1.7744081E-2,4.354033E-2,-1.796304E-2,-1.2289774E-2,-1.0718693E-2,-3.6824786E-3,7.9905065E-3,-6.589554E-3,1.5828421E-2,-2.399662E-4,1.9865412E-2,5.291582E-2,1.7802267E-3,9.312188E-3,1.9967321E-2,4.9985703E-3,3.1062705E-2,1.2542108E-2,3.2747775E-2,1.5132333E-2,2.11495E-2,2.7331604E-2,-4.0638186E-3,2.1712333E-2,2.8511634E-2,3.506642E-2,3.1299092E-2,4.1333683E-2,3.9905775E-2,4.759661E-2,4.031269E-2,4.7104575E-2,5.1003687E-2,5.9418924E-2,4.6098113E-2,5.7441726E-2,6.0835883E-2,7.186753E-2,1.5485268E-2,6.9154486E-2,7.5992405E-2,8.676869E-2,8.650806E-2,9.976791E-2,1.10542834E-1,1.2580465E-1],"categories":[],"categories_nodes":[],"categories_segments":[],"categories_sizes":[],"default_left":[0,0,0,0,0,0,0,0,0,0,0,0,0,0,0,0,0,0,0,0,0,0,0,0,0,0,0,0,0,0,0,0,0,0,0,0,0,0,0,0,0,0,0,0,0,0,0,0,0,0,0,0,0,0,0,0,0,0,0,0,0,0,0,0,0,0,0,0,0,0,0,0,0,0,0,0,0,0,0,0,0,0,0,0,0,0,0,0,0,0,0,0,0,0,0,0,0,0,0,0,0,0,0,0,0,0,0,0,0,0,0,0,0,0,0,0,0,0,0,0,0,0,0,0,0,0,0],"id":10,"left_children":[1,3,5,7,9,11,13,15,17,19,21,23,25,27,29,31,33,35,37,39,41,43,45,47,49,51,53,55,57,59,61,63,65,67,69,71,73,75,77,79,81,83,85,87,89,91,93,95,97,99,101,103,105,107,109,111,113,115,117,119,121,123,125,-1,-1,-1,-1,-1,-1,-1,-1,-1,-1,-1,-1,-1,-1,-1,-1,-1,-1,-1,-1,-1,-1,-1,-1,-1,-1,-1,-1,-1,-1,-1,-1,-1,-1,-1,-1,-1,-1,-1,-1,-1,-1,-1,-1,-1,-1,-1,-1,-1,-1,-1,-1,-1,-1,-1,-1,-1,-1,-1,-1,-1,-1,-1,-1],"loss_changes":[2.8108812E6,3.929813E5,5.0015912E5,3.7042375E4,4.557886E4,8.104059E4,9.418275E4,1.1124125E4,6.576875E3,7.776547E3,1.210206E4,1.6426742E4,1.6422781E4,1.7129875E4,1.6207875E4,2.75825E3,1.858125E3,1.9204375E3,2.8775933E3,3.8016404E3,6.2630625E3,4.102235E3,3.0427705E3,4.5814707E3,4.7393594E3,5.2692656E3,5.205125E3,8.0355625E3,5.7565625E3,2.8511875E3,3.1905312E3,2.1265498E3,3.7885156E2,6.821875E2,5.801875E2,1.8838125E3,7.3822656E2,9.165963E2,1.2198081E3,7.83455E2,7.9271533E2,3.2239297E3,2.0920615E3,2.4465674E3,1.9112517E3,1.2933916E3,2.708481E3,1.134418E3,1.1280723E3,1.5218594E3,1.2284219E3,9.5383984E2,1.0909219E3,1.4879844E3,1.3402344E3,1.8572188E3,1.3734375E3,1.4115156E3,1.8050938E3,8.985E2,1.3416562E3,7.937344E2,6.662969E2,0E0,0E0,0E0,0E0,0E0,0E0,0E0,0E0,0E0,0E0,0E0,0E0,0E0,0E0,0E0,0E0,0E0,0E0,0E0,0E0,0E0,0E0,0E0,0E0,0E0,0E0,0E0,0E0,0E0,0E0,0E0,0E0,0E0,0E0,0E0,0E0,0E0,0E0,0E0,0E0,0E0,0E0,0E0,0E0,0E0,0E0,0E0,0E0,0E0,0E0,0E0,0E0,0E0,0E0,0E0,0E0,0E0,0E0,0E0,0E0,0E0,0E0,0E0,0E0],"parents":[2147483647,0,0,1,1,2,2,3,3,4,4,5,5,6,6,7,7,8,8,9,9,10,10,11,11,12,12,13,13,14,14,15,15,16,16,17,17,18,18,19,19,20,20,21,21,22,22,23,23,24,24,25,25,26,26,27,27,28,28,29,29,30,30,31,31,32,32,33,33,34,34,35,35,36,36,37,37,38,38,39,39,40,40,41,41,42,42,43,43,44,44,45,45,46,46,47,47,48,48,49,49,50,50,51,51,52,52,53,53,54,54,55,55,56,56,57,57,58,58,59,59,60,60,61,61,62,62],"right_children":[2,4,6,8,10,12,14,16,18,20,22,24,26,28,30,32,34,36,38,40,42,44,46,48,50,52,54,56,58,60,62,64,66,68,70,72,74,76,78,80,82,84,86,88,90,92,94,96,98,100,102,104,106,108,110,112,114,116,118,120,122,124,126,-1,-1,-1,-1,-1,-1,-1,-1,-1,-1,-1,-1,-1,-1,-1,-1,-1,-1,-1,-1,-1,-1,-1,-1,-1,-1,-1,-1,-1,-1,-1,-1,-1,-1,-1,-1,-1,-1,-1,-1,-1,-1,-1,-1,-1,-1,-1,-1,-1,-1,-1,-1,-1,-1,-1,-1,-1,-1,-1,-1,-1,-1,-1,-1],"split_conditions":[1.3214285E0,3.2142857E-1,4.821429E0,3.5714287E-2,7.1428573E-1,2.4642856E0,1.2892858E1,8.054832E-1,8.164966E-1,3.5714287E-2,5E0,4E0,4E0,7.75E0,2.6E1,1.68E0,1.0057291E0,2.857143E-1,3.5714287E-2,1.976047E0,5E0,1E0,7.1428575E-2,1.7857143E0,1.8214285E0,3.392857E0,3.392857E0,5E0,4E0,1.2E1,3.6E1,5.25E0,2.87994E-1,9.989792E-1,2.1070263E0,3.5714287E-2,5E0,3E0,5.3571427E-1,2E0,3E0,5E-1,5.714286E-1,3.7796447E-1,3.7796447E-1,2.5933135E0,9.6428573E-1,3.7796447E-1,4.258153E-1,3.7796447E-1,3E0,3.7796447E-1,5E0,7E0,7E0,6.035714E0,7E0,4E0,9E0,1.1547005E0,1.7E1,2E1,5.2E1,-1.7817782E-2,4.9226724E-2,4.353794E-2,-2.7519941E-2,-3.0328112E-2,-3.529106E-2,-3.0896401E-2,1.4265727E-2,-1.909272E-2,-2.5829904E-2,-2.192148E-2,-1.6842814E-2,-9.55614E-5,2.1046285E-2,-1.9425703E-2,7.273679E-3,-4.6173516E-3,8.984474E-3,1.7744081E-2,4.354033E-2,-1.796304E-2,-1.2289774E-2,-1.0718693E-2,-3.6824786E-3,7.9905065E-3,-6.589554E-3,1.5828421E-2,-2.399662E-4,1.9865412E-2,5.291582E-2,1.7802267E-3,9.312188E-3,1.9967321E-2,4.9985703E-3,3.1062705E-2,1.2542108E-2,3.2747775E-2,1.5132333E-2,2.11495E-2,2.7331604E-2,-4.0638186E-3,2.1712333E-2,2.8511634E-2,3.506642E-2,3.1299092E-2,4.1333683E-2,3.9905775E-2,4.759661E-2,4.031269E-2,4.7104575E-2,5.1003687E-2,5.9418924E-2,4.6098113E-2,5.7441726E-2,6.0835883E-2,7.186753E-2,1.5485268E-2,6.9154486E-2,7.5992405E-2,8.676869E-2,8.650806E-2,9.976791E-2,1.10542834E-1,1.2580465E-1],"split_indices":[32,32,32,32,32,32,32,22,29,38,3,3,3,32,23,17,22,38,38,29,3,32,36,32,32,32,32,3,3,23,24,38,22,22,37,38,3,23,38,23,23,32,38,35,35,31,32,35,37,35,23,29,23,23,23,32,23,23,23,29,25,25,23,0,0,0,0,0,0,0,0,0,0,0,0,0,0,0,0,0,0,0,0,0,0,0,0,0,0,0,0,0,0,0,0,0,0,0,0,0,0,0,0,0,0,0,0,0,0,0,0,0,0,0,0,0,0,0,0,0,0,0,0,0,0,0,0],"split_type":[0,0,0,0,0,0,0,0,0,0,0,0,0,0,0,0,0,0,0,0,0,0,0,0,0,0,0,0,0,0,0,0,0,0,0,0,0,0,0,0,0,0,0,0,0,0,0,0,0,0,0,0,0,0,0,0,0,0,0,0,0,0,0,0,0,0,0,0,0,0,0,0,0,0,0,0,0,0,0,0,0,0,0,0,0,0,0,0,0,0,0,0,0,0,0,0,0,0,0,0,0,0,0,0,0,0,0,0,0,0,0,0,0,0,0,0,0,0,0,0,0,0,0,0,0,0,0],"sum_hessian":[3.9472162E6,2.508151E6,1.4390654E6,1.3998041E6,1.1083469E6,1.00028825E6,4.387771E5,9.5158525E5,4.4821884E5,5.432163E5,5.6513056E5,5.502616E5,4.5002666E5,3.426041E5,9.6173016E4,1.4659952E5,8.0498575E5,4.2485397E5,2.3364883E4,2.3718564E4,5.1949775E5,3.8659116E5,1.7853938E5,2.959025E5,2.5435911E5,2.3771744E5,2.1230923E5,2.171543E5,1.2544979E5,6.354425E4,3.262877E4,2.5975396E4,1.2062412E5,7.023534E5,1.0263238E5,3.0160778E5,1.2324618E5,9.593845E3,1.3771039E4,1.9418422E4,4.3001436E3,3.6080253E5,1.5869522E5,2.0641645E5,1.801747E5,5.966815E3,1.7257256E5,1.5178048E5,1.44122E5,1.3740198E5,1.16957125E5,1.25928E5,1.1178943E5,1.11920484E5,1.0038876E5,1.4558961E5,7.156468E4,6.513201E4,6.031778E4,2.113566E4,4.240859E4,1.918779E4,1.3440981E4,2.554382E4,4.3157684E2,6.6259705E1,1.2055786E5,2.5968945E4,6.763844E5,1.0237662E5,2.5576474E2,4.3710344E4,2.5789744E5,8.650699E4,3.6739188E4,7.101872E3,2.4919731E3,1.2005375E4,1.7656636E3,1.4212474E4,5.2059478E3,2.2257358E3,2.0744077E3,1.7665969E5,1.8414284E5,9.548324E4,6.3211977E4,1.09362705E4,1.9548019E5,6.9270957E3,1.7324761E5,4.5773784E3,1.3894366E3,8.0811E4,9.176156E4,4.701185E3,1.470793E5,3.0227754E3,1.4109923E5,4.5657935E3,1.3283619E5,6.425946E4,5.2697668E4,1.3049539E3,1.2462305E5,7.967792E4,3.2111514E4,9.647169E4,1.5448794E4,7.181441E4,2.857435E4,7.653897E4,6.905064E4,3.0661482E4,4.09032E4,1.2191796E4,5.2940215E4,2.0121322E4,4.0196457E4,2.8572842E2,2.0849932E4,1.9004832E4,2.3403756E4,6.052328E3,1.313546E4,9.785587E3,3.655395E3],"tree_param":{"num_deleted":"0","num_feature":"40","num_nodes":"127","size_leaf_vector":"1"}},{"base_weights":[-2.921845E-3,-6.3345647E-1,1.0599463E0,-1.0083939E0,-2.1406595E-1,6.731177E-1,1.8566253E0,-1.1033133E0,-7.757928E-1,-4.249915E-1,-3.2283952E-3,4.4645023E-1,9.696135E-1,1.5970464E0,2.6058638E0,-8.436541E-1,-1.1509199E0,-8.3360434E-1,-6.6438586E-1,-5.2595574E-1,-2.732355E-1,-3.2826398E-2,5.7125646E-1,3.2168132E-1,6.0066587E-1,8.611646E-1,1.1699319E0,1.4220152E0,1.8377421E0,2.343348E0,3.1370242E0,-5.382436E-1,-9.1005826E-1,-1.170128E0,-1.0201505E0,-8.8508755E-1,-7.240789E-1,-4.0098143E-1,-7.052416E-1,-1.3787125E-1,-5.4915243E-1,-3.5060036E-1,-1.8860053E-1,-1.5239394E-1,7.654718E-2,9.0712374E-1,2.419339E-1,2.5054002E-1,4.1891804E-1,5.288475E-1,7.5104165E-1,7.944473E-1,1.0439413E0,1.0466639E0,1.3134627E0,1.3485651E0,1.6330605E0,1.701079E0,1.9956632E0,2.1500413E0,2.5629554E0,2.8826237E0,3.5634675E0,-1.664524E-2,8.900714E-2,5.8626678E-2,-2.7346635E-2,-3.0264966E-2,-3.5290778E-2,-3.0712154E-2,1.0443673E-2,-2.2329919E-2,-2.7098943E-2,-2.525146E-2,-2.053536E-2,-5.5852705E-3,-1.596685E-2,-2.3615457E-2,-1.735103E-2,-1.0133563E-2,1.3841436E-2,-1.8988553E-2,-1.3581449E-2,-1.1627721E-2,-8.879034E-3,-1.408124E-2,-3.967136E-3,5.8091986E-3,-5.338069E-3,5.21711E-4,5.240893E-3,2.1129137E-2,4.787533E-2,5.129631E-3,2.1987552E-2,-5.565184E-3,7.948259E-3,1.087791E-2,1.7235555E-2,2.218698E-2,1.4720182E-2,1.9519469E-2,2.8669124E-2,2.141668E-2,2.7400443E-2,3.0528018E-2,5.0545044E-2,3.553464E-2,2.9307302E-2,3.7754923E-2,5.0214365E-2,3.6691725E-2,4.360279E-2,4.62851E-2,5.3923946E-2,4.7152497E-2,5.509492E-2,5.5817287E-2,6.574731E-2,5.114456E-2,6.68534E-2,7.289717E-2,8.4336475E-2,7.697202E-2,9.1304965E-2,1.02163725E-1,1.1557891E-1],"categories":[],"categories_nodes":[],"categories_segments":[],"categories_sizes":[],"default_left":[0,0,0,0,0,0,0,0,0,0,0,0,0,0,0,0,0,0,0,0,0,0,0,0,0,0,0,0,0,0,0,0,0,0,0,0,0,0,0,0,0,0,0,0,0,0,0,0,0,0,0,0,0,0,0,0,0,0,0,0,0,0,0,0,0,0,0,0,0,0,0,0,0,0,0,0,0,0,0,0,0,0,0,0,0,0,0,0,0,0,0,0,0,0,0,0,0,0,0,0,0,0,0,0,0,0,0,0,0,0,0,0,0,0,0,0,0,0,0,0,0,0,0,0,0,0,0],"id":11,"left_children":[1,3,5,7,9,11,13,15,17,19,21,23,25,27,29,31,33,35,37,39,41,43,45,47,49,51,53,55,57,59,61,63,65,67,69,71,73,75,77,79,81,83,85,87,89,91,93,95,97,99,101,103,105,107,109,111,113,115,117,119,121,123,125,-1,-1,-1,-1,-1,-1,-1,-1,-1,-1,-1,-1,-1,-1,-1,-1,-1,-1,-1,-1,-1,-1,-1,-1,-1,-1,-1,-1,-1,-1,-1,-1,-1,-1,-1,-1,-1,-1,-1,-1,-1,-1,-1,-1,-1,-1,-1,-1,-1,-1,-1,-1,-1,-1,-1,-1,-1,-1,-1,-1,-1,-1,-1,-1],"loss_changes":[2.6347178E6,3.8800894E5,4.5112238E5,2.876275E4,5.1796625E4,6.622328E4,9.3046375E4,1.1435625E4,2.4308281E3,8.920773E3,9.904359E3,1.0745109E4,9.273094E3,1.496625E4,1.7154562E4,2.9065312E3,1.9618125E3,1.4005312E3,1.3877422E3,3.1472656E3,1.522957E3,7.2443105E3,3.1563066E3,2.1352598E3,2.6965781E3,3.3762344E3,2.6507031E3,3.1857188E3,3.2233125E3,3.4890625E3,4.4009375E3,1.4919961E3,5.0721875E2,6.8325E2,4.9226562E2,4.3221875E2,3.6898047E2,4.8825E2,1.1601914E3,2.3628574E3,2.6655781E3,2.4534668E2,1.7578953E3,2.339042E3,1.6797545E3,1.9716787E3,5.0175922E2,1.1196572E3,1.1426133E3,1.3590625E3,1.6569453E3,1.9425469E3,1.2474688E3,7.736328E2,1.3686172E3,2.0058438E3,7.833125E2,1.400125E3,1.8300312E3,1.5239688E3,1.2630625E3,1.2882188E3,6.743906E2,0E0,0E0,0E0,0E0,0E0,0E0,0E0,0E0,0E0,0E0,0E0,0E0,0E0,0E0,0E0,0E0,0E0,0E0,0E0,0E0,0E0,0E0,0E0,0E0,0E0,0E0,0E0,0E0,0E0,0E0,0E0,0E0,0E0,0E0,0E0,0E0,0E0,0E0,0E0,0E0,0E0,0E0,0E0,0E0,0E0,0E0,0E0,0E0,0E0,0E0,0E0,0E0,0E0,0E0,0E0,0E0,0E0,0E0,0E0,0E0,0E0,0E0,0E0,0E0],"parents":[2147483647,0,0,1,1,2,2,3,3,4,4,5,5,6,6,7,7,8,8,9,9,10,10,11,11,12,12,13,13,14,14,15,15,16,16,17,17,18,18,19,19,20,20,21,21,22,22,23,23,24,24,25,25,26,26,27,27,28,28,29,29,30,30,31,31,32,32,33,33,34,34,35,35,36,36,37,37,38,38,39,39,40,40,41,41,42,42,43,43,44,44,45,45,46,46,47,47,48,48,49,49,50,50,51,51,52,52,53,53,54,54,55,55,56,56,57,57,58,58,59,59,60,60,61,61,62,62],"right_children":[2,4,6,8,10,12,14,16,18,20,22,24,26,28,30,32,34,36,38,40,42,44,46,48,50,52,54,56,58,60,62,64,66,68,70,72,74,76,78,80,82,84,86,88,90,92,94,96,98,100,102,104,106,108,110,112,114,116,118,120,122,124,126,-1,-1,-1,-1,-1,-1,-1,-1,-1,-1,-1,-1,-1,-1,-1,-1,-1,-1,-1,-1,-1,-1,-1,-1,-1,-1,-1,-1,-1,-1,-1,-1,-1,-1,-1,-1,-1,-1,-1,-1,-1,-1,-1,-1,-1,-1,-1,-1,-1,-1,-1,-1,-1,-1,-1,-1,-1,-1,-1,-1,-1,-1,-1,-1],"split_conditions":[1.3214285E0,5.587211E-1,4.642857E0,3.5714287E-2,7.1428573E-1,2.5E0,1.2E1,8.054832E-1,2.857143E-1,5.3571427E-1,2E0,1.8571428E0,3.5714285E0,7.071429E0,2.5E1,1.68E0,1.0057291E0,2.5E-1,3.5714287E-2,3.5714287E-2,7.5E-1,9.285714E-1,1.4285715E-1,2E0,3E0,5E0,4E0,8E0,9E0,1.4E1,3.3E1,1.6714285E1,2.87994E-1,9.989792E-1,2.0068564E0,3E0,7.1428575E-2,3E0,2.857143E-1,2E0,4.2857143E-1,6.4285713E-1,1.4285715E-1,3.5714287E-2,1.1785715E0,2.2677867E0,1.6071428E0,1.4285715E-1,1.7857143E0,1.18E0,2.5714285E0,3E0,5.857143E0,1.18E0,6.071429E0,5E0,8E0,7.785714E0,1.1E1,7E0,1.9E1,1.5E0,4.7E1,-1.664524E-2,8.900714E-2,5.8626678E-2,-2.7346635E-2,-3.0264966E-2,-3.5290778E-2,-3.0712154E-2,1.0443673E-2,-2.2329919E-2,-2.7098943E-2,-2.525146E-2,-2.053536E-2,-5.5852705E-3,-1.596685E-2,-2.3615457E-2,-1.735103E-2,-1.0133563E-2,1.3841436E-2,-1.8988553E-2,-1.3581449E-2,-1.1627721E-2,-8.879034E-3,-1.408124E-2,-3.967136E-3,5.8091986E-3,-5.338069E-3,5.21711E-4,5.240893E-3,2.1129137E-2,4.787533E-2,5.129631E-3,2.1987552E-2,-5.565184E-3,7.948259E-3,1.087791E-2,1.7235555E-2,2.218698E-2,1.4720182E-2,1.9519469E-2,2.8669124E-2,2.141668E-2,2.7400443E-2,3.0528018E-2,5.0545044E-2,3.553464E-2,2.9307302E-2,3.7754923E-2,5.0214365E-2,3.6691725E-2,4.360279E-2,4.62851E-2,5.3923946E-2,4.7152497E-2,5.509492E-2,5.5817287E-2,6.574731E-2,5.114456E-2,6.68534E-2,7.289717E-2,8.4336475E-2,7.697202E-2,9.1304965E-2,1.02163725E-1,1.1557891E-1],"split_indices":[32,33,30,32,30,30,28,22,28,32,28,32,38,30,23,17,22,38,38,38,38,32,34,23,23,23,23,27,23,26,26,38,22,22,37,0,30,0,38,23,38,32,28,38,38,33,38,28,38,17,38,32,28,17,38,23,23,38,25,23,28,17,25,0,0,0,0,0,0,0,0,0,0,0,0,0,0,0,0,0,0,0,0,0,0,0,0,0,0,0,0,0,0,0,0,0,0,0,0,0,0,0,0,0,0,0,0,0,0,0,0,0,0,0,0,0,0,0,0,0,0,0,0,0,0,0,0],"split_type":[0,0,0,0,0,0,0,0,0,0,0,0,0,0,0,0,0,0,0,0,0,0,0,0,0,0,0,0,0,0,0,0,0,0,0,0,0,0,0,0,0,0,0,0,0,0,0,0,0,0,0,0,0,0,0,0,0,0,0,0,0,0,0,0,0,0,0,0,0,0,0,0,0,0,0,0,0,0,0,0,0,0,0,0,0,0,0,0,0,0,0,0,0,0,0,0,0,0,0,0,0,0,0,0,0,0,0,0,0,0,0,0,0,0,0,0,0,0,0,0,0,0,0,0,0,0,0],"sum_hessian":[3.9313838E6,2.4675425E6,1.4638412E6,1.3028158E6,1.1647269E6,9.853879E5,4.7845347E5,9.252396E5,3.7757606E5,5.8224094E5,5.8248594E5,5.584578E5,4.2693003E5,3.5534606E5,1.2310739E5,1.4335789E5,7.8188175E5,2.4857453E5,1.2900155E5,3.4962728E5,2.3261367E5,5.539476E5,2.8538316E4,3.087043E5,2.4975348E5,2.7698412E5,1.499459E5,2.0574298E5,1.496031E5,8.239404E4,4.0713348E4,2.5605678E4,1.177522E5,6.817328E5,1.0014895E5,1.6908392E5,7.949061E4,1.7324707E4,1.11676836E5,1.9720158E4,3.2990712E5,1.215233E5,1.11090375E5,2.6464128E5,2.893063E5,1.41273125E4,1.4411003E4,1.7827755E5,1.3042678E5,1.690323E5,8.072119E4,2.0292189E5,7.406224E4,8.0674055E4,6.927184E4,1.526335E5,5.310948E4,8.020921E4,6.939388E4,4.3829945E4,3.8564094E4,2.5508049E4,1.52053E4,2.5486285E4,1.1939313E2,6.0422043E1,1.1769178E5,2.5367355E4,6.5636544E5,9.988748E4,2.614804E2,1.9377242E4,1.4970669E5,1.9998895E4,5.9491715E4,6.5723833E3,1.0752324E4,6.784878E4,4.382806E4,1.4787712E4,4.932447E3,1.7651494E5,1.5339219E5,7.24549E4,4.90684E4,1.8569992E4,9.252038E4,1.8190209E4,2.4645106E5,1.8051097E5,1.0879535E5,1.0915901E4,3.2114106E3,1.2593497E4,1.8175063E3,5.699177E3,1.7257838E5,9.576823E4,3.4658547E4,2.5921209E4,1.431111E5,5.415482E4,2.6566365E4,1.2097203E5,8.194986E4,7.1142336E4,2.9199072E3,2.7100922E4,5.3573137E4,6.0110082E4,9.161765E3,6.9486086E4,8.3147414E4,3.430136E4,1.8808121E4,4.1037055E4,3.9172156E4,4.1082727E4,2.8311156E4,6.5681562E3,3.726179E4,2.5118832E4,1.3445263E4,8.597972E3,1.6910076E4,9.845075E3,5.3602246E3],"tree_param":{"num_deleted":"0","num_feature":"40","num_nodes":"127","size_leaf_vector":"1"}},{"base_weights":[-3.645341E-3,-6.3875777E-1,9.89478E-1,-1.0091226E0,-2.308381E-1,5.9378916E-1,1.6947773E0,-1.100833E0,-7.7479255E-1,-4.136576E-1,-2.2510272E-2,3.805286E-1,8.43547E-1,1.4555037E0,2.4342864E0,-8.3501023E-1,-1.1500572E0,-8.2939124E-1,-6.620047E-1,-5.163259E-1,-2.4892251E-1,-1.15453474E-1,1.8518458E-1,2.2969165E-1,5.5488557E-1,6.799854E-1,1.0276392E0,1.2884912E0,1.689287E0,2.1390908E0,2.8703866E0,-5.2292764E-1,-9.0371877E-1,-1.1698523E0,-1.0153471E0,-8.7881285E-1,-7.1992135E-1,-3.9242938E-1,-7.068588E-1,-5.8050066E-1,-3.6876377E-1,-3.298442E-1,-7.0606865E-2,-2.0744684E-1,8.553387E-2,5.4450072E-2,3.4004056E-1,1.3690925E-1,4.2274797E-1,4.5808342E-1,7.6773375E-1,5.815292E-1,8.525645E-1,9.058756E-1,1.1851289E0,1.1238989E0,1.4706967E0,1.5069299E0,1.8888416E0,1.9281603E0,2.366138E0,2.554514E0,3.1738064E0,-1.634621E-2,9.782178E-2,6.152528E-2,-2.7171306E-2,-3.0027432E-2,-3.5290904E-2,-3.0574894E-2,-3.1673429E-3,-2.7353639E-2,-2.3948396E-2,-2.2978071E-2,-1.8322853E-2,-7.078851E-3,-1.4719989E-2,-2.2860952E-2,-1.5602753E-2,-6.934527E-3,-1.8058753E-2,1.2560459E-3,-1.181124E-2,-1.6123232E-2,-8.361659E-3,-9.449147E-3,-2.8796535E-4,3.4518058E-3,-6.6997632E-3,1.5336111E-2,1.9185006E-3,3.670125E-5,6.7215557E-3,8.591368E-3,1.5732514E-2,3.68267E-3,1.7366461E-2,2.4012763E-2,1.2038289E-2,9.667969E-3,1.5494268E-2,2.1360166E-2,2.8067393E-2,1.5044396E-2,2.111434E-2,2.431677E-2,3.153247E-2,2.5184788E-2,3.1245777E-2,3.2841362E-2,3.8683422E-2,3.0662572E-2,3.7378993E-2,4.1397024E-2,4.9016297E-2,4.2049102E-2,4.912674E-2,5.3861953E-2,6.1798997E-2,3.374051E-2,5.8568317E-2,6.7900695E-2,7.5822555E-2,2.0939583E-2,7.7557564E-2,9.022611E-2,1.0567817E-1],"categories":[],"categories_nodes":[],"categories_segments":[],"categories_sizes":[],"default_left":[0,0,0,0,0,0,0,0,0,0,0,0,0,0,0,0,0,0,0,0,0,0,0,0,0,0,0,0,0,0,0,0,0,0,0,0,0,0,0,0,0,0,0,0,0,0,0,0,0,0,0,0,0,0,0,0,0,0,0,0,0,0,0,0,0,0,0,0,0,0,0,0,0,0,0,0,0,0,0,0,0,0,0,0,0,0,0,0,0,0,0,0,0,0,0,0,0,0,0,0,0,0,0,0,0,0,0,0,0,0,0,0,0,0,0,0,0,0,0,0,0,0,0,0,0,0,0],"id":12,"left_children":[1,3,5,7,9,11,13,15,17,19,21,23,25,27,29,31,33,35,37,39,41,43,45,47,49,51,53,55,57,59,61,63,65,67,69,71,73,75,77,79,81,83,85,87,89,91,93,95,97,99,101,103,105,107,109,111,113,115,117,119,121,123,125,-1,-1,-1,-1,-1,-1,-1,-1,-1,-1,-1,-1,-1,-1,-1,-1,-1,-1,-1,-1,-1,-1,-1,-1,-1,-1,-1,-1,-1,-1,-1,-1,-1,-1,-1,-1,-1,-1,-1,-1,-1,-1,-1,-1,-1,-1,-1,-1,-1,-1,-1,