{"learner":{"attributes":{"best_iteration":"197","best_score":"1.9378706182875027"},"feature_names":["dept_id","cat_id","state_id","wday","month","year","mday","week","quarter","is_weekend","is_snap","is_event_1","is_event_2","event_type_cultural","event_type_national","event_type_religious","event_type_sporting","price_max","price_min","price_std","price_momentum","price_pct_change","price_norm","lag_7","lag_14","lag_21","lag_28","lag_56","rmean_7_7","rstd_7_7","rmean_7_14","rstd_7_14","rmean_7_28","rstd_7_28","rmean_28_7","rstd_28_7","rmean_28_14","rstd_28_14","rmean_28_28","rstd_28_28"],"feature_types":["int","int","int","int","int","int","int","int","int","int","int","int","int","int","int","int","int","float","float","float","float","float","float","float","float","float","float","float","float","float","float","float","float","float","float","float","float","float","float","float"],"gradient_booster":{"model":{"cats":{"enc":[],"feature_segments":[],"sorted_idx":[]},"gbtree_model_param":{"num_parallel_tree":"1","num_trees":"273"},"iteration_indptr":[0,1,2,3,4,5,6,7,8,9,10,11,12,13,14,15,16,17,18,19,20,21,22,23,24,25,26,27,28,29,30,31,32,33,34,35,36,37,38,39,40,41,42,43,44,45,46,47,48,49,50,51,52,53,54,55,56,57,58,59,60,61,62,63,64,65,66,67,68,69,70,71,72,73,74,75,76,77,78,79,80,81,82,83,84,85,86,87,88,89,90,91,92,93,94,95,96,97,98,99,100,101,102,103,104,105,106,107,108,109,110,111,112,113,114,115,116,117,118,119,120,121,122,123,124,125,126,127,128,129,130,131,132,133,134,135,136,137,138,139,140,141,142,143,144,145,146,147,148,149,150,151,152,153,154,155,156,157,158,159,160,161,162,163,164,165,166,167,168,169,170,171,172,173,174,175,176,177,178,179,180,181,182,183,184,185,186,187,188,189,190,191,192,193,194,195,196,197,198,199,200,201,202,203,204,205,206,207,208,209,210,211,212,213,214,215,216,217,218,219,220,221,222,223,224,225,226,227,228,229,230,231,232,233,234,235,236,237,238,239,240,241,242,243,244,245,246,247,248,249,250,251,252,253,254,255,256,257,258,259,260,261,262,263,264,265,266,267,268,269,270,271,272,273],"tree_info":[0,0,0,0,0,0,0,0,0,0,0,0,0,0,0,0,0,0,0,0,0,0,0,0,0,0,0,0,0,0,0,0,0,0,0,0,0,0,0,0,0,0,0,0,0,0,0,0,0,0,0,0,0,0,0,0,0,0,0,0,0,0,0,0,0,0,0,0,0,0,0,0,0,0,0,0,0,0,0,0,0,0,0,0,0,0,0,0,0,0,0,0,0,0,0,0,0,0,0,0,0,0,0,0,0,0,0,0,0,0,0,0,0,0,0,0,0,0,0,0,0,0,0,0,0,0,0,0,0,0,0,0,0,0,0,0,0,0,0,0,0,0,0,0,0,0,0,0,0,0,0,0,0,0,0,0,0,0,0,0,0,0,0,0,0,0,0,0,0,0,0,0,0,0,0,0,0,0,0,0,0,0,0,0,0,0,0,0,0,0,0,0,0,0,0,0,0,0,0,0,0,0,0,0,0,0,0,0,0,0,0,0,0,0,0,0,0,0,0,0,0,0,0,0,0,0,0,0,0,0,0,0,0,0,0,0,0,0,0,0,0,0,0,0,0,0,0,0,0,0,0,0,0,0,0,0,0,0,0,0,0,0,0,0,0,0,0,0,0,0,0,0,0],"trees":[{"base_weights":[6.5186893E-4,-6.0008985E-1,3.1697526E0,-9.043862E-1,3.1216052E-1,2.2565427E0,4.7629595E0,-1.0480042E0,-6.0465956E-1,1.3530436E-2,7.970111E-1,1.7421325E0,2.9227934E0,4.079209E0,5.423315E0,-1.0507697E0,2.6200542E0,-7.171896E-1,-4.534391E-1,-1.2846927E-1,2.161276E-1,6.0393715E-1,1.0415118E0,1.4971328E0,1.9968603E0,2.6313622E0,3.2346325E0,3.7826073E0,4.318588E0,4.947498E0,5.6902485E0,-1.1081312E0,-9.34899E-1,1.1784261E0,4.2933135E0,-3.0744106E-1,-7.4465406E-1,-4.7962853E-1,8.82889E-2,-1.5572986E-1,6.6428286E-1,1.9068283E-1,1.3008201E0,5.747703E-1,1.9379214E0,1.0160823E0,2.5134525E0,1.4679222E0,3.2365022E0,1.8050927E0,2.2301447E0,2.4224067E0,2.8799648E0,3.074692E0,3.5757194E0,3.9709628E0,3.5027769E0,4.51517E0,4.0565214E0,5.1187882E0,4.7073193E0,5.512144E0,5.874646E0,-3.3598058E-2,-2.983083E-2,-2.898434E-2,-2.519993E-2,1.3003153E-1,1.9172143E-2,5.7043467E-2,1.5569036E-1,-1.3199562E-2,1.0344546E-2,-2.2423608E-2,4.362291E-2,-1.6420053E-2,-1.1754022E-2,-2.3859374E-3,2.5280165E-2,-7.521994E-3,-9.940846E-4,1.5837222E-2,6.959389E-2,2.215423E-3,1.0202033E-2,3.1000406E-2,6.674287E-2,1.3041526E-2,2.2544893E-2,4.4501018E-2,8.829508E-2,2.6927311E-2,3.8718823E-2,6.643326E-2,1.1656877E-1,4.9640924E-2,3.7300903E-2,1.2939273E-1,8.221992E-2,5.3142466E-2,1.0076758E-1,6.608657E-2,1.0558034E-1,8.004996E-2,6.352864E-2,1.16929E-1,8.529305E-2,9.866737E-2,8.429497E-2,1.12554014E-1,1.0059329E-1,1.1345465E-1,1.2559295E-1,1.0008483E-1,1.1553688E-1,1.3175356E-1,1.4315768E-1,1.14466175E-1,1.2977861E-1,1.5080337E-1,1.5907647E-1,1.3426045E-1,1.483879E-1,1.594963E-1,1.6760024E-1,1.7267992E-1,1.8211284E-1],"categories":[],"categories_nodes":[],"categories_segments":[],"categories_sizes":[],"default_left":[0,0,0,0,0,0,0,0,0,0,0,0,0,0,0,0,0,0,0,0,0,0,0,0,0,0,0,0,0,0,0,0,0,0,0,0,0,0,0,0,0,0,0,0,0,0,0,0,0,0,0,0,0,0,0,0,0,0,0,0,0,0,0,0,0,0,0,0,0,0,0,0,0,0,0,0,0,0,0,0,0,0,0,0,0,0,0,0,0,0,0,0,0,0,0,0,0,0,0,0,0,0,0,0,0,0,0,0,0,0,0,0,0,0,0,0,0,0,0,0,0,0,0,0,0,0,0],"id":0,"left_children":[1,3,5,7,9,11,13,15,17,19,21,23,25,27,29,31,33,35,37,39,41,43,45,47,49,51,53,55,57,59,61,63,65,67,69,71,73,75,77,79,81,83,85,87,89,91,93,95,97,99,101,103,105,107,109,111,113,115,117,119,121,123,125,-1,-1,-1,-1,-1,-1,-1,-1,-1,-1,-1,-1,-1,-1,-1,-1,-1,-1,-1,-1,-1,-1,-1,-1,-1,-1,-1,-1,-1,-1,-1,-1,-1,-1,-1,-1,-1,-1,-1,-1,-1,-1,-1,-1,-1,-1,-1,-1,-1,-1,-1,-1,-1,-1,-1,-1,-1,-1,-1,-1,-1,-1,-1,-1],"loss_changes":[8.771303E6,1.0751379E6,1.0681715E6,1.2501675E5,1.4026931E5,1.59938E5,1.207455E5,1.99215E4,1.600925E4,1.7247432E4,1.7430219E4,1.643075E4,1.8465375E4,9.30625E3,1.72395E4,1.30385E4,3.561044E3,6.069875E3,5.695117E3,7.617345E3,6.817924E3,8.026E3,6.0942812E3,6.8133125E3,5.7695E3,5.449375E3,5.341E3,3.072875E3,3.718125E3,1.975125E3,2.81275E3,1.7605E3,1.9250625E3,1.3518613E3,1.4513994E3,2.9298997E3,3.1134062E3,2.2765E3,2.3438135E3,3.9686787E3,2.6434194E3,4.212951E3,1.3954932E3,4.9970547E3,2.0099727E3,5.2089375E3,1.1213008E3,5.534375E3,1.1644883E3,3.6990156E3,2.034625E3,4.2724375E3,1.7831562E3,3.7800625E3,1.2090938E3,1.405125E3,1.3520625E3,1.2834375E3,1.9990938E3,4.414375E2,1.0955938E3,6.01125E2,9.405E2,0E0,0E0,0E0,0E0,0E0,0E0,0E0,0E0,0E0,0E0,0E0,0E0,0E0,0E0,0E0,0E0,0E0,0E0,0E0,0E0,0E0,0E0,0E0,0E0,0E0,0E0,0E0,0E0,0E0,0E0,0E0,0E0,0E0,0E0,0E0,0E0,0E0,0E0,0E0,0E0,0E0,0E0,0E0,0E0,0E0,0E0,0E0,0E0,0E0,0E0,0E0,0E0,0E0,0E0,0E0,0E0,0E0,0E0,0E0,0E0,0E0,0E0,0E0,0E0],"parents":[2147483647,0,0,1,1,2,2,3,3,4,4,5,5,6,6,7,7,8,8,9,9,10,10,11,11,12,12,13,13,14,14,15,15,16,16,17,17,18,18,19,19,20,20,21,21,22,22,23,23,24,24,25,25,26,26,27,27,28,28,29,29,30,30,31,31,32,32,33,33,34,34,35,35,36,36,37,37,38,38,39,39,40,40,41,41,42,42,43,43,44,44,45,45,46,46,47,47,48,48,49,49,50,50,51,51,52,52,53,53,54,54,55,55,56,56,57,57,58,58,59,59,60,60,61,61,62,62],"right_children":[2,4,6,8,10,12,14,16,18,20,22,24,26,28,30,32,34,36,38,40,42,44,46,48,50,52,54,56,58,60,62,64,66,68,70,72,74,76,78,80,82,84,86,88,90,92,94,96,98,100,102,104,106,108,110,112,114,116,118,120,122,124,126,-1,-1,-1,-1,-1,-1,-1,-1,-1,-1,-1,-1,-1,-1,-1,-1,-1,-1,-1,-1,-1,-1,-1,-1,-1,-1,-1,-1,-1,-1,-1,-1,-1,-1,-1,-1,-1,-1,-1,-1,-1,-1,-1,-1,-1,-1,-1,-1,-1,-1,-1,-1,-1,-1,-1,-1,-1,-1,-1,-1,-1,-1,-1,-1],"split_conditions":[2.892857E0,7.8571427E-1,9.892858E0,5.345225E-1,1.6071428E0,5.142857E0,1.975E1,8.142497E0,5E-1,1.1785715E0,2.1785715E0,3.75E0,7.107143E0,1.2857142E1,2.9392857E1,7.1428575E-2,9.254936E0,1.8898223E-1,1.0714285E0,1.6428572E0,2.357143E0,3.2142856E0,4.357143E0,5.785714E0,4E0,4E0,5E0,1.8E1,1.7E1,1.7E1,4.8E1,3.9002103E-1,5.181877E-1,4E0,6.4776935E-2,1.2838814E0,4.645644E0,4E0,1.5205818E0,4E0,2.8028235E0,4E0,2.8794105E0,4E0,3.5744166E0,5E0,5.483501E0,1.7E1,1E0,7.5E0,7.5E0,1.7E1,5.345225E-1,1.7E1,1.7E1,4E0,5E0,5E0,4E0,5E0,4E0,3.442857E1,6.6E1,-3.3598058E-2,-2.983083E-2,-2.898434E-2,-2.519993E-2,1.3003153E-1,1.9172143E-2,5.7043467E-2,1.5569036E-1,-1.3199562E-2,1.0344546E-2,-2.2423608E-2,4.362291E-2,-1.6420053E-2,-1.1754022E-2,-2.3859374E-3,2.5280165E-2,-7.521994E-3,-9.940846E-4,1.5837222E-2,6.959389E-2,2.215423E-3,1.0202033E-2,3.1000406E-2,6.674287E-2,1.3041526E-2,2.2544893E-2,4.4501018E-2,8.829508E-2,2.6927311E-2,3.8718823E-2,6.643326E-2,1.1656877E-1,4.9640924E-2,3.7300903E-2,1.2939273E-1,8.221992E-2,5.3142466E-2,1.0076758E-1,6.608657E-2,1.0558034E-1,8.004996E-2,6.352864E-2,1.16929E-1,8.529305E-2,9.866737E-2,8.429497E-2,1.12554014E-1,1.0059329E-1,1.1345465E-1,1.2559295E-1,1.0008483E-1,1.1553688E-1,1.3175356E-1,1.4315768E-1,1.14466175E-1,1.2977861E-1,1.5080337E-1,1.5907647E-1,1.3426045E-1,1.483879E-1,1.594963E-1,1.6760024E-1,1.7267992E-1,1.8211284E-1],"split_indices":[32,32,32,33,32,32,32,39,32,32,32,32,32,32,32,30,37,39,30,30,30,30,30,30,3,3,3,6,6,6,24,39,39,7,19,31,39,3,33,3,33,3,33,3,33,3,33,6,24,30,30,6,35,6,6,3,3,3,3,3,3,34,26,0,0,0,0,0,0,0,0,0,0,0,0,0,0,0,0,0,0,0,0,0,0,0,0,0,0,0,0,0,0,0,0,0,0,0,0,0,0,0,0,0,0,0,0,0,0,0,0,0,0,0,0,0,0,0,0,0,0,0,0,0,0,0,0],"split_type":[0,0,0,0,0,0,0,0,0,0,0,0,0,0,0,0,0,0,0,0,0,0,0,0,0,0,0,0,0,0,0,0,0,0,0,0,0,0,0,0,0,0,0,0,0,0,0,0,0,0,0,0,0,0,0,0,0,0,0,0,0,0,0,0,0,0,0,0,0,0,0,0,0,0,0,0,0,0,0,0,0,0,0,0,0,0,0,0,0,0,0,0,0,0,0,0,0,0,0,0,0,0,0,0,0,0,0,0,0,0,0,0,0,0,0,0,0,0,0,0,0,0,0,0,0,0,0],"sum_hessian":[4.607231E6,3.8730485E6,7.3418244E5,2.904278E6,9.687704E5,4.6668625E5,2.6749616E5,1.9634574E6,9.4082075E5,5.995166E5,3.6925372E5,2.6335572E5,2.0333053E5,1.3142547E5,1.3607069E5,1.9619792E6,1.4781257E3,5.3941294E5,4.014078E5,3.5247094E5,2.470457E5,2.063286E5,1.6292511E5,1.3424666E5,1.2910908E5,1.0511192E5,9.821861E4,5.8708496E4,7.271697E4,4.891242E4,8.715826E4,1.3123101E6,6.4966906E5,7.954269E2,6.826988E2,3.388573E4,5.0552725E5,3.8289728E5,1.8510535E4,3.4075466E5,1.1716291E4,2.4138514E5,5.660572E3,2.0191603E5,4.4125693E3,1.6016075E5,2.7643657E3,1.3203216E5,2.214492E3,7.0867305E4,5.8241773E4,5.7118887E4,4.799304E4,6.6875195E4,3.1343418E4,3.5077484E4,2.3631012E4,4.15355E4,3.1181467E4,2.853264E4,2.0379783E4,4.4359457E4,4.27988E4,1.1889394E6,1.2337077E5,4.887397E5,1.6092939E5,1.1453011E2,6.808968E2,1.8740909E2,4.952897E2,2.8163352E4,5.7223804E3,5.048854E5,6.418249E2,2.162109E5,1.6668636E5,1.5143025E4,3.3675093E3,1.9197914E5,1.487755E5,1.0826481E4,8.8980927E2,1.3545073E5,1.0593439E5,4.3923193E3,1.2682523E3,1.1264912E5,8.926691E4,3.0412063E3,1.371363E3,1.1187681E5,4.828393E4,2.2730405E3,4.9132516E2,7.207458E4,5.9957574E4,6.9459753E2,1.5198945E3,6.936714E4,1.500163E3,5.7039848E4,1.2019253E3,3.1605246E4,2.551364E4,1.6720951E3,4.6320945E4,3.696231E4,2.9912885E4,1.7487111E4,1.3856307E4,1.8695068E4,1.6382416E4,1.5997695E4,7.633317E3,2.8072588E4,1.3462913E4,1.6471957E4,1.4709511E4,1.9041555E4,9.491086E3,1.0356015E4,1.0023769E4,1.2269433E4,3.2090025E4,2.6677629E4,1.6121173E4],"tree_param":{"num_deleted":"0","num_feature":"40","num_nodes":"127","size_leaf_vector":"1"}},{"base_weights":[-4.3269686E-4,-5.8566046E-1,3.0035114E0,-8.9605135E-1,2.897082E-1,2.0793903E0,4.4751062E0,-1.045157E0,-5.814508E-1,4.4831056E-2,8.4012944E-1,1.6713753E0,2.7836313E0,3.8688326E0,5.318701E0,-1.0480361E0,2.1290345E0,-6.789433E-1,-3.528935E-1,-1.4811902E-1,3.555784E-1,8.030323E-1,2.6225991E0,1.4964988E0,2.214791E0,2.500264E0,3.1332705E0,3.5652988E0,4.40727E0,4.8359184E0,5.5981827E0,-1.1075912E0,-9.2849195E-1,4.9062963E0,1.3095659E0,-7.46391E-1,-5.5674976E-1,-4.4539356E-1,-1.6089445E-1,-2.8316182E-1,1.5280698E-3,2.6879984E-1,7.268924E-1,5.09953E-1,1.0055238E0,2.2679002E0,5.0733976E0,1.2794851E0,1.7509097E0,2.009839E0,2.4595654E0,2.250022E0,2.73446E0,2.9272118E0,3.4301918E0,3.3271358E0,3.8744922E0,4.2477226E0,4.713299E0,4.5348225E0,5.072121E0,5.406817E0,5.843591E0,-2.9215295E-2,-3.445532E-2,-2.8765736E-2,-2.4129918E-2,9.852109E-2,1.6557504E-1,8.732976E-2,2.213594E-2,-1.3571654E-2,-2.2870166E-2,-2.2585718E-2,-1.5613425E-2,-1.5531855E-2,-1.0563197E-2,-7.719672E-3,-1.0942655E-3,7.221034E-3,-9.4666425E-3,-1.132308E-2,1.2334908E-3,4.4878065E-3,1.2600973E-2,3.8342558E-2,1.8252501E-2,2.43581E-3,1.854433E-2,2.583734E-2,4.0159397E-2,6.211629E-2,1.2334083E-1,8.882634E-2,1.630823E-1,3.306319E-2,4.495425E-2,4.7021326E-2,5.9184436E-2,5.398708E-2,6.70442E-2,6.869738E-2,8.153418E-2,6.0447384E-2,7.411991E-2,7.48151E-2,8.821135E-2,7.76482E-2,9.2816316E-2,9.839343E-2,1.15420766E-1,9.485737E-2,1.0824534E-1,1.11368395E-1,1.23241834E-1,1.22254856E-1,1.34593E-1,1.363667E-1,1.4796926E-1,1.2281457E-1,1.4027135E-1,1.4846757E-1,1.5927675E-1,1.5401545E-1,1.6595092E-1,1.7239457E-1,1.838133E-1],"categories":[],"categories_nodes":[],"categories_segments":[],"categories_sizes":[],"default_left":[0,0,0,0,0,0,0,0,0,0,0,0,0,0,0,0,0,0,0,0,0,0,0,0,0,0,0,0,0,0,0,0,0,0,0,0,0,0,0,0,0,0,0,0,0,0,0,0,0,0,0,0,0,0,0,0,0,0,0,0,0,0,0,0,0,0,0,0,0,0,0,0,0,0,0,0,0,0,0,0,0,0,0,0,0,0,0,0,0,0,0,0,0,0,0,0,0,0,0,0,0,0,0,0,0,0,0,0,0,0,0,0,0,0,0,0,0,0,0,0,0,0,0,0,0,0,0],"id":1,"left_children":[1,3,5,7,9,11,13,15,17,19,21,23,25,27,29,31,33,35,37,39,41,43,45,47,49,51,53,55,57,59,61,63,65,67,69,71,73,75,77,79,81,83,85,87,89,91,93,95,97,99,101,103,105,107,109,111,113,115,117,119,121,123,125,-1,-1,-1,-1,-1,-1,-1,-1,-1,-1,-1,-1,-1,-1,-1,-1,-1,-1,-1,-1,-1,-1,-1,-1,-1,-1,-1,-1,-1,-1,-1,-1,-1,-1,-1,-1,-1,-1,-1,-1,-1,-1,-1,-1,-1,-1,-1,-1,-1,-1,-1,-1,-1,-1,-1,-1,-1,-1,-1,-1,-1,-1,-1,-1],"loss_changes":[8.0239245E6,1.0379294E6,1.012072E6,1.3228525E5,1.3477938E5,1.3134962E5,1.467915E5,1.7489125E4,2.0205562E4,4.149541E4,2.035575E4,2.7501625E4,1.6602375E4,2.727525E4,1.615475E4,1.360725E4,3.9369253E3,5.2381562E3,4.81541E3,8.628322E3,8.541945E3,1.7898828E4,5.4381914E3,1.20868125E4,3.52725E3,5.4191875E3,4.576875E3,7.8465E3,2.908875E3,3.0954375E3,3.52125E3,6.980875E3,2.39525E3,3.6423438E2,1.2244043E3,1.91975E3,1.6088125E3,1.2344297E3,1.057678E3,3.808588E3,3.038438E3,3.8738604E3,3.2781309E3,5.7169355E3,8.571156E3,1.9824434E3,5.820508E2,4.588078E3,4.100375E3,1.8082344E3,1.3967969E3,2.315625E3,2.3590938E3,2.4911562E3,1.909375E3,2.784875E3,1.7370625E3,1.602625E3,7.2296875E2,1.1737812E3,6.798125E2,1.413E3,8.62375E2,0E0,0E0,0E0,0E0,0E0,0E0,0E0,0E0,0E0,0E0,0E0,0E0,0E0,0E0,0E0,0E0,0E0,0E0,0E0,0E0,0E0,0E0,0E0,0E0,0E0,0E0,0E0,0E0,0E0,0E0,0E0,0E0,0E0,0E0,0E0,0E0,0E0,0E0,0E0,0E0,0E0,0E0,0E0,0E0,0E0,0E0,0E0,0E0,0E0,0E0,0E0,0E0,0E0,0E0,0E0,0E0,0E0,0E0,0E0,0E0,0E0,0E0,0E0,0E0],"parents":[2147483647,0,0,1,1,2,2,3,3,4,4,5,5,6,6,7,7,8,8,9,9,10,10,11,11,12,12,13,13,14,14,15,15,16,16,17,17,18,18,19,19,20,20,21,21,22,22,23,23,24,24,25,25,26,26,27,27,28,28,29,29,30,30,31,31,32,32,33,33,34,34,35,35,36,36,37,37,38,38,39,39,40,40,41,41,42,42,43,43,44,44,45,45,46,46,47,47,48,48,49,49,50,50,51,51,52,52,53,53,54,54,55,55,56,56,57,57,58,58,59,59,60,60,61,61,62,62],"right_children":[2,4,6,8,10,12,14,16,18,20,22,24,26,28,30,32,34,36,38,40,42,44,46,48,50,52,54,56,58,60,62,64,66,68,70,72,74,76,78,80,82,84,86,88,90,92,94,96,98,100,102,104,106,108,110,112,114,116,118,120,122,124,126,-1,-1,-1,-1,-1,-1,-1,-1,-1,-1,-1,-1,-1,-1,-1,-1,-1,-1,-1,-1,-1,-1,-1,-1,-1,-1,-1,-1,-1,-1,-1,-1,-1,-1,-1,-1,-1,-1,-1,-1,-1,-1,-1,-1,-1,-1,-1,-1,-1,-1,-1,-1,-1,-1,-1,-1,-1,-1,-1,-1,-1,-1,-1,-1],"split_conditions":[2.9285715E0,1.004619E0,9.571428E0,5.345225E-1,1.8214285E0,5.5E0,2.3E1,5.464286E0,6.4285713E-1,1.3571428E0,8.142497E0,5.285714E0,8.285714E0,1.5142858E1,3.4142857E1,7.1428575E-2,5E0,5E-1,8.214286E-1,9.6428573E-1,2.4285715E0,1.8571428E0,3.1642857E1,3.4285715E0,4E0,6E0,8E0,1.4E1,2.3142857E1,2.3142857E1,5.6E1,9.917245E-1,2.857143E-1,5.5E0,4.2E-1,3.5714287E-2,1.4285715E-1,4E0,4E0,3.5714287E-2,2.857143E-1,4E0,1.4285715E-1,5.714286E-1,3.2857144E0,9E0,6.4776935E-2,4E0,4E0,6.428571E0,6.714286E0,5.5E0,4E0,6.142857E0,1.3E1,1.0642858E1,1.5E1,1.8E1,2E1,1.8E1,5E0,3.2E1,9.9E1,-2.9215295E-2,-3.445532E-2,-2.8765736E-2,-2.4129918E-2,9.852109E-2,1.6557504E-1,8.732976E-2,2.213594E-2,-1.3571654E-2,-2.2870166E-2,-2.2585718E-2,-1.5613425E-2,-1.5531855E-2,-1.0563197E-2,-7.719672E-3,-1.0942655E-3,7.221034E-3,-9.4666425E-3,-1.132308E-2,1.2334908E-3,4.4878065E-3,1.2600973E-2,3.8342558E-2,1.8252501E-2,2.43581E-3,1.854433E-2,2.583734E-2,4.0159397E-2,6.211629E-2,1.2334083E-1,8.882634E-2,1.630823E-1,3.306319E-2,4.495425E-2,4.7021326E-2,5.9184436E-2,5.398708E-2,6.70442E-2,6.869738E-2,8.153418E-2,6.0447384E-2,7.411991E-2,7.48151E-2,8.821135E-2,7.76482E-2,9.2816316E-2,9.839343E-2,1.15420766E-1,9.485737E-2,1.0824534E-1,1.11368395E-1,1.23241834E-1,1.22254856E-1,1.34593E-1,1.363667E-1,1.4796926E-1,1.2281457E-1,1.4027135E-1,1.4846757E-1,1.5927675E-1,1.5401545E-1,1.6595092E-1,1.7239457E-1,1.838133E-1],"split_indices":[30,33,28,33,38,36,28,38,30,30,39,28,34,34,28,30,7,38,38,38,28,30,36,34,3,23,23,23,34,34,23,22,38,36,18,38,28,3,3,38,28,3,34,28,34,23,19,3,3,28,28,30,3,30,34,36,28,23,23,23,3,26,23,0,0,0,0,0,0,0,0,0,0,0,0,0,0,0,0,0,0,0,0,0,0,0,0,0,0,0,0,0,0,0,0,0,0,0,0,0,0,0,0,0,0,0,0,0,0,0,0,0,0,0,0,0,0,0,0,0,0,0,0,0,0,0,0],"split_type":[0,0,0,0,0,0,0,0,0,0,0,0,0,0,0,0,0,0,0,0,0,0,0,0,0,0,0,0,0,0,0,0,0,0,0,0,0,0,0,0,0,0,0,0,0,0,0,0,0,0,0,0,0,0,0,0,0,0,0,0,0,0,0,0,0,0,0,0,0,0,0,0,0,0,0,0,0,0,0,0,0,0,0,0,0,0,0,0,0,0,0,0,0,0,0,0,0,0,0,0,0,0,0,0,0,0,0,0,0,0,0,0,0,0,0,0,0,0,0,0,0,0,0,0,0,0,0],"sum_hessian":[4.5642535E6,3.8200362E6,7.442174E5,2.8200828E6,9.9995344E5,4.571459E5,2.870715E5,1.9132771E6,9.068056E5,6.9206306E5,3.0789038E5,2.8945188E5,1.6769405E5,1.6703528E5,1.200362E5,1.9115442E6,1.7328562E3,6.356585E5,2.7114716E5,4.2695653E5,2.6510653E5,3.016153E5,6.275061E3,2.1898592E5,7.0465945E4,9.263222E4,7.506183E4,1.0682585E5,6.020943E4,4.4021094E4,7.601511E4,1.2758984E6,6.356459E5,3.9307675E2,1.3397794E3,4.0957497E5,2.2608353E5,1.8298656E5,8.8160586E4,2.2442912E5,2.025274E5,2.148885E5,5.0218023E4,1.23243164E5,1.7837216E5,5.4842637E3,7.907972E2,1.1818387E5,1.0080205E5,3.836054E4,3.210541E4,4.4789887E4,4.7842332E4,4.4320625E4,3.0741201E4,6.035446E4,4.647139E4,3.959129E4,2.0618143E4,1.9365682E4,2.465541E4,4.2729973E4,3.328514E4,2.9891544E5,9.76983E5,5.1072734E5,1.2491853E5,1.1044144E2,2.826353E2,3.5080527E2,9.8897424E2,2.1076469E4,3.884985E5,3.530903E4,1.907745E5,1.0306323E5,7.992333E4,4.9665844E4,3.8494742E4,1.3068639E4,2.1136048E5,1.9154371E4,1.8337303E5,1.201702E5,9.4718305E4,8.88167E3,4.133635E4,2.4833234E4,9.840993E4,1.24469E5,5.3903164E4,4.956834E3,5.2742957E2,1.1792622E2,6.728709E2,6.530073E4,5.2883137E4,5.517812E4,4.562393E4,1.9835205E4,1.8525334E4,1.9385293E4,1.2720118E4,2.1691629E4,2.3098256E4,2.207132E4,2.577101E4,1.4618051E4,2.9702572E4,2.26046E4,8.136603E3,3.802089E4,2.2333572E4,2.7440154E4,1.9031238E4,2.2995605E4,1.6595684E4,1.1694374E4,8.923768E3,4.699941E3,1.466574E4,1.6246709E4,8.408702E3,1.3432588E4,2.9297385E4,2.481743E4,8.467711E3],"tree_param":{"num_deleted":"0","num_feature":"40","num_nodes":"127","size_leaf_vector":"1"}},{"base_weights":[-1.2259404E-3,-5.902622E-1,2.819813E0,-8.995835E-1,2.543534E-1,1.9869274E0,4.3550634E0,-1.0459926E0,-6.094538E-1,-7.2393506E-3,7.1288514E-1,1.5367692E0,2.592321E0,3.6498215E0,5.0647736E0,-1.0477654E0,3.3728712E0,-7.2268796E-1,-4.7360167E-1,-1.6644919E-1,1.707414E-1,5.2155334E-1,8.9414227E-1,1.3695793E0,1.8510011E0,2.3525429E0,2.9163823E0,3.3730938E0,3.9687054E0,4.617556E0,5.4401565E0,-1.1138887E0,-9.464084E-1,1.1268427E0,4.4382415E0,-7.434044E-1,-1.12199925E-1,-4.900104E-1,7.916355E-1,-1.8166913E-1,1.5473467E0,1.5792614E-1,2.3164964E0,5.0068533E-1,2.2380373E0,8.768822E-1,2.8341737E0,1.2145996E0,1.6541802E0,1.7811162E0,3.0565739E0,2.1710634E0,2.673196E0,2.8410392E0,3.6566896E0,3.1605926E0,3.7239661E0,3.7834506E0,4.237782E0,4.8062034E0,4.328975E0,5.230773E0,5.6808314E0,-1.9650698E-2,-3.394347E-2,-2.986792E-2,-2.6501646E-2,7.924328E-2,-2.510131E-2,1.4602925E-1,6.766191E-3,6.357887E-2,-2.2365233E-2,-6.771089E-3,2.1224022E-2,-1.6069949E-2,-1.135968E-2,1.5065496E-2,5.254794E-2,-7.391497E-3,-7.867194E-4,3.4331333E-2,7.0833154E-2,2.2260884E-3,9.666036E-3,5.4483328E-2,9.911901E-2,1.1790417E-2,2.1310741E-2,4.919657E-2,9.453298E-2,2.2567434E-2,3.3494238E-2,7.1797915E-2,9.896354E-2,3.234113E-2,4.4191103E-2,4.5359343E-2,5.7563614E-2,4.595813E-2,5.8000468E-2,8.405414E-2,1.235302E-1,6.0028266E-2,7.3079064E-2,7.287065E-2,8.695035E-2,8.047754E-2,9.405553E-2,1.0402741E-1,1.310243E-1,8.590637E-2,9.967827E-2,1.2718955E-1,1.0848151E-1,1.0872008E-1,1.2214838E-1,1.22481346E-1,1.3520665E-1,1.4057282E-1,1.5287778E-1,1.1609869E-1,1.3621499E-1,1.4985804E-1,1.6098389E-1,1.6641203E-1,1.7792852E-1],"categories":[],"categories_nodes":[],"categories_segments":[],"categories_sizes":[],"default_left":[0,0,0,0,0,0,0,0,0,0,0,0,0,0,0,0,0,0,0,0,0,0,0,0,0,0,0,0,0,0,0,0,0,0,0,0,0,0,0,0,0,0,0,0,0,0,0,0,0,0,0,0,0,0,0,0,0,0,0,0,0,0,0,0,0,0,0,0,0,0,0,0,0,0,0,0,0,0,0,0,0,0,0,0,0,0,0,0,0,0,0,0,0,0,0,0,0,0,0,0,0,0,0,0,0,0,0,0,0,0,0,0,0,0,0,0,0,0,0,0,0,0,0,0,0,0,0],"id":2,"left_children":[1,3,5,7,9,11,13,15,17,19,21,23,25,27,29,31,33,35,37,39,41,43,45,47,49,51,53,55,57,59,61,63,65,67,69,71,73,75,77,79,81,83,85,87,89,91,93,95,97,99,101,103,105,107,109,111,113,115,117,119,121,123,125,-1,-1,-1,-1,-1,-1,-1,-1,-1,-1,-1,-1,-1,-1,-1,-1,-1,-1,-1,-1,-1,-1,-1,-1,-1,-1,-1,-1,-1,-1,-1,-1,-1,-1,-1,-1,-1,-1,-1,-1,-1,-1,-1,-1,-1,-1,-1,-1,-1,-1,-1,-1,-1,-1,-1,-1,-1,-1,-1,-1,-1,-1,-1,-1],"loss_changes":[7.5160715E6,9.775841E5,9.99026E5,1.1633725E5,1.2031192E5,1.3803075E5,1.375065E5,1.4263E4,1.41296875E4,1.8097557E4,1.2635281E4,1.52580625E4,1.677375E4,1.2142E4,2.2953E4,1.2192875E4,1.7393145E3,6.3358125E3,8.669953E3,8.793493E3,8.291576E3,6.3473594E3,6.2611094E3,8.360594E3,8.491E3,7.21575E3,5.1070625E3,5.4845625E3,3.1669375E3,3.370875E3,3.706E3,8.871625E3,2.2254375E3,7.082786E2,8.928428E2,2.9197812E3,1.530092E3,2.0953516E3,1.4841179E3,3.3613066E3,9.687261E2,4.1228433E3,8.7504004E2,3.9531875E3,1.1543174E3,5.536547E3,3.2543555E2,4.330453E3,2.5107188E3,3.6124688E3,1.4757266E3,3.5656562E3,2.4554375E3,3.872875E3,1.1162578E3,2.19775E3,1.5249062E3,1.7200625E3,1.0605312E3,1.281625E3,2.3734062E3,1.228375E3,1.10775E3,0E0,0E0,0E0,0E0,0E0,0E0,0E0,0E0,0E0,0E0,0E0,0E0,0E0,0E0,0E0,0E0,0E0,0E0,0E0,0E0,0E0,0E0,0E0,0E0,0E0,0E0,0E0,0E0,0E0,0E0,0E0,0E0,0E0,0E0,0E0,0E0,0E0,0E0,0E0,0E0,0E0,0E0,0E0,0E0,0E0,0E0,0E0,0E0,0E0,0E0,0E0,0E0,0E0,0E0,0E0,0E0,0E0,0E0,0E0,0E0,0E0,0E0,0E0,0E0],"parents":[2147483647,0,0,1,1,2,2,3,3,4,4,5,5,6,6,7,7,8,8,9,9,10,10,11,11,12,12,13,13,14,14,15,15,16,16,17,17,18,18,19,19,20,20,21,21,22,22,23,23,24,24,25,25,26,26,27,27,28,28,29,29,30,30,31,31,32,32,33,33,34,34,35,35,36,36,37,37,38,38,39,39,40,40,41,41,42,42,43,43,44,44,45,45,46,46,47,47,48,48,49,49,50,50,51,51,52,52,53,53,54,54,55,55,56,56,57,57,58,58,59,59,60,60,61,61,62,62],"right_children":[2,4,6,8,10,12,14,16,18,20,22,24,26,28,30,32,34,36,38,40,42,44,46,48,50,52,54,56,58,60,62,64,66,68,70,72,74,76,78,80,82,84,86,88,90,92,94,96,98,100,102,104,106,108,110,112,114,116,118,120,122,124,126,-1,-1,-1,-1,-1,-1,-1,-1,-1,-1,-1,-1,-1,-1,-1,-1,-1,-1,-1,-1,-1,-1,-1,-1,-1,-1,-1,-1,-1,-1,-1,-1,-1,-1,-1,-1,-1,-1,-1,-1,-1,-1,-1,-1,-1,-1,-1,-1,-1,-1,-1,-1,-1,-1,-1,-1,-1,-1,-1,-1,-1,-1,-1,-1],"split_conditions":[2.8214285E0,7.5E-1,9.892858E0,5.039526E-1,1.6071428E0,5.142857E0,1.975E1,7.9393306E0,4.642857E-1,1.1071428E0,2.0714285E0,5E0,8E0,1.4E1,3.4142857E1,3.5714287E-2,1.47E0,1E0,1.8571428E0,2.857143E0,4.285714E0,4.571429E0,6.428571E0,1E0,8.142858E0,1E0,1.3E1,1E0,1.55E1,1.7E1,5E1,3.9397275E-1,3.7796447E-1,1.000247E-2,2E1,5.2076858E-2,4E0,1E0,5E0,1E0,6E0,1E0,9E0,1E0,6.428571E0,1E0,8.142858E0,3.892857E0,3.892857E0,3.642857E0,8.087157E0,7.107143E0,6.607143E0,1E0,1.1638003E1,7E0,6.8E-1,1E0,1E0,2.9392857E1,1.8E1,4E1,7.3E1,-1.9650698E-2,-3.394347E-2,-2.986792E-2,-2.6501646E-2,7.924328E-2,-2.510131E-2,1.4602925E-1,6.766191E-3,6.357887E-2,-2.2365233E-2,-6.771089E-3,2.1224022E-2,-1.6069949E-2,-1.135968E-2,1.5065496E-2,5.254794E-2,-7.391497E-3,-7.867194E-4,3.4331333E-2,7.0833154E-2,2.2260884E-3,9.666036E-3,5.4483328E-2,9.911901E-2,1.1790417E-2,2.1310741E-2,4.919657E-2,9.453298E-2,2.2567434E-2,3.3494238E-2,7.1797915E-2,9.896354E-2,3.234113E-2,4.4191103E-2,4.5359343E-2,5.7563614E-2,4.595813E-2,5.8000468E-2,8.405414E-2,1.235302E-1,6.0028266E-2,7.3079064E-2,7.287065E-2,8.695035E-2,8.047754E-2,9.405553E-2,1.0402741E-1,1.310243E-1,8.590637E-2,9.967827E-2,1.2718955E-1,1.0848151E-1,1.0872008E-1,1.2214838E-1,1.22481346E-1,1.3520665E-1,1.4057282E-1,1.5287778E-1,1.1609869E-1,1.3621499E-1,1.4985804E-1,1.6098389E-1,1.6641203E-1,1.7792852E-1],"split_indices":[32,32,32,33,32,32,32,37,32,32,32,23,23,23,28,32,17,28,28,28,28,28,28,10,28,10,28,10,32,6,26,22,33,19,6,22,23,9,23,9,23,10,23,10,28,10,28,32,32,32,33,32,32,10,33,23,18,10,10,32,23,23,23,0,0,0,0,0,0,0,0,0,0,0,0,0,0,0,0,0,0,0,0,0,0,0,0,0,0,0,0,0,0,0,0,0,0,0,0,0,0,0,0,0,0,0,0,0,0,0,0,0,0,0,0,0,0,0,0,0,0,0,0,0,0,0,0],"split_type":[0,0,0,0,0,0,0,0,0,0,0,0,0,0,0,0,0,0,0,0,0,0,0,0,0,0,0,0,0,0,0,0,0,0,0,0,0,0,0,0,0,0,0,0,0,0,0,0,0,0,0,0,0,0,0,0,0,0,0,0,0,0,0,0,0,0,0,0,0,0,0,0,0,0,0,0,0,0,0,0,0,0,0,0,0,0,0,0,0,0,0,0,0,0,0,0,0,0,0,0,0,0,0,0,0,0,0,0,0,0,0,0,0,0,0,0,0,0,0,0,0,0,0,0,0,0,0],"sum_hessian":[4.523135E6,3.7418365E6,7.812986E5,2.7388095E6,1.003027E6,5.065141E5,2.747845E5,1.8202475E6,9.1856194E5,6.3866775E5,3.6435925E5,2.9050553E5,2.1600855E5,1.3783083E5,1.3695367E5,1.8195189E6,7.287468E2,5.009815E5,4.1758047E5,3.371111E5,3.0155666E5,1.7725669E5,1.8710256E5,1.8962323E5,1.0088231E5,1.2415618E5,9.185237E4,7.380258E4,6.4028258E4,6.2506207E4,7.444746E4,1.1011398E6,7.183791E5,2.3548167E2,4.9326517E2,4.845386E5,1.6442902E4,4.1223522E5,5.3452373E3,3.34145E5,2.9660894E3,2.99768E5,1.7886713E3,1.7512956E5,2.1271257E3,1.8545483E5,1.6477296E3,1.2277449E5,6.6848734E4,9.535835E4,5.5239595E3,7.929165E4,4.486453E4,8.3374516E4,8.477857E3,4.59742E4,2.7828379E4,3.7934168E4,2.6094088E4,3.7783242E4,2.4722963E4,3.9830293E4,3.4617168E4,4.058841E4,1.0605512E6,4.0345078E5,3.1492834E5,1.3267499E2,1.0280669E2,4.4740433E2,4.5860832E1,3.546118E2,4.84184E5,1.4443987E4,1.9989153E3,2.923621E5,1.19873125E5,4.10874E3,1.2364974E3,2.3592461E5,9.822039E4,1.9862439E3,9.7984534E2,1.985694E5,1.0119859E5,1.1900114E3,5.986599E2,1.1571316E5,5.941641E4,1.287791E3,8.393348E2,1.2199861E5,6.345622E4,8.502732E2,7.974565E2,8.033335E4,4.2441137E4,4.3488234E4,2.3360502E4,3.6170617E4,5.918774E4,4.45893E3,1.0650294E3,4.829194E4,3.0999707E4,2.153159E4,2.3332941E4,5.419534E4,2.9179172E4,6.703349E3,1.7745084E3,1.6235727E4,2.9738473E4,4.8056606E3,2.3022719E4,2.4434574E4,1.3499596E4,1.6570256E4,9.523832E3,2.6706855E4,1.1076389E4,7.808205E3,1.6914758E4,1.4558277E4,2.5272016E4,2.2577764E4,1.2039405E4],"tree_param":{"num_deleted":"0","num_feature":"40","num_nodes":"127","size_leaf_vector":"1"}},{"base_weights":[-2.5500483E-3,-5.951634E-1,2.6134415E0,-9.016615E-1,1.983143E-1,1.8332272E0,4.1486487E0,-1.0424392E0,-6.125185E-1,-7.694734E-2,5.767013E-1,1.4193985E0,2.4456189E0,3.451978E0,4.865975E0,-1.0453609E0,2.0076835E0,-7.126222E-1,-4.7953865E-1,-2.0848212E-1,8.038921E-2,4.1463873E-1,7.959799E-1,1.1991106E0,1.666123E0,2.249901E0,2.8083332E0,3.2223568E0,3.8366187E0,4.418562E0,5.279598E0,-1.1138219E0,-9.4109046E-1,1.1728148E0,3.975917E0,-3.1390357E-1,-7.4078774E-1,5.45756E-2,-5.0392276E-1,4.3997627E-1,-2.3242807E-1,7.6537985E-1,5.2212942E-2,1.24923E0,3.85493E-1,9.5118225E-1,6.1427206E-1,1.0594189E0,1.4600662E0,1.5254871E0,1.9690636E0,2.0779886E0,2.5543878E0,2.713692E0,3.4338849E0,3.0286314E0,3.5482993E0,3.654279E0,4.072524E0,4.2135386E0,4.7629733E0,5.065711E0,5.5609546E0,-2.1832863E-2,-3.397643E-2,-2.9197792E-2,-2.5175773E-2,1.0613397E-1,2.2731159E-2,3.250684E-2,1.4909603E-1,-1.3264128E-2,1.7400892E-2,-2.4058383E-2,-1.9440446E-2,-1.930736E-3,4.966662E-2,-1.6648088E-2,-1.1876445E-2,7.120921E-3,4.5958437E-2,-8.781548E-3,-2.650712E-3,1.7543549E-2,6.0898423E-2,-1.5005664E-3,5.4951953E-3,3.16284E-2,8.5313454E-2,7.984496E-3,1.608562E-2,6.0093004E-2,2.7562335E-2,1.3629557E-2,2.4455795E-2,2.6668528E-2,3.8131177E-2,7.951221E-2,4.2846885E-2,4.140937E-2,5.380144E-2,9.268025E-2,5.710942E-2,5.839697E-2,7.1685925E-2,7.112051E-2,8.4492944E-2,7.391445E-2,8.692692E-2,9.244598E-2,1.1292728E-1,8.194572E-2,9.47593E-2,9.98944E-2,1.1401041E-1,1.0524207E-1,1.1761285E-1,1.17803134E-1,1.2976196E-1,1.2047378E-1,1.3600942E-1,1.495182E-1,1.3744254E-1,1.4405005E-1,1.5655583E-1,1.6237059E-1,1.7583655E-1],"categories":[],"categories_nodes":[],"categories_segments":[],"categories_sizes":[],"default_left":[0,0,0,0,0,0,0,0,0,0,0,0,0,0,0,0,0,0,0,0,0,0,0,0,0,0,0,0,0,0,0,0,0,0,0,0,0,0,0,0,0,0,0,0,0,0,0,0,0,0,0,0,0,0,0,0,0,0,0,0,0,0,0,0,0,0,0,0,0,0,0,0,0,0,0,0,0,0,0,0,0,0,0,0,0,0,0,0,0,0,0,0,0,0,0,0,0,0,0,0,0,0,0,0,0,0,0,0,0,0,0,0,0,0,0,0,0,0,0,0,0,0,0,0,0,0,0],"id":3,"left_children":[1,3,5,7,9,11,13,15,17,19,21,23,25,27,29,31,33,35,37,39,41,43,45,47,49,51,53,55,57,59,61,63,65,67,69,71,73,75,77,79,81,83,85,87,89,91,93,95,97,99,101,103,105,107,109,111,113,115,117,119,121,123,125,-1,-1,-1,-1,-1,-1,-1,-1,-1,-1,-1,-1,-1,-1,-1,-1,-1,-1,-1,-1,-1,-1,-1,-1,-1,-1,-1,-1,-1,-1,-1,-1,-1,-1,-1,-1,-1,-1,-1,-1,-1,-1,-1,-1,-1,-1,-1,-1,-1,-1,-1,-1,-1,-1,-1,-1,-1,-1,-1,-1,-1,-1,-1,-1],"loss_changes":[6.95442E6,8.8947975E5,9.923945E5,1.0739075E5,1.06145305E5,1.39213E5,1.39493E5,1.5815625E4,1.1499656E4,1.2209072E4,1.5250406E4,1.7814062E4,1.5715875E4,1.2490375E4,2.541925E4,1.2652375E4,2.7835537E3,5.5346562E3,4.832422E3,4.9895713E3,5.1844736E3,6.001961E3,5.1424453E3,6.3110312E3,6.5830312E3,7.5236875E3,4.5815625E3,5.584E3,2.254E3,4.635375E3,4.257375E3,7.734625E3,2.30175E3,1.1685292E3,1.4437651E3,3.728549E3,2.6110938E3,3.0850913E3,1.9552891E3,2.5310815E3,2.691543E3,2.4216523E3,3.4544097E3,2.58346E3,4.2881484E3,3.3532734E3,2.6996133E3,4.0678125E3,2.2822266E3,4.103328E3,3.5830781E3,3.7584688E3,2.48875E3,3.08725E3,1.1687578E3,2.1359062E3,1.80075E3,1.141125E3,8.23875E2,2.5948125E3,9.53625E2,1.6003125E3,1.3276875E3,0E0,0E0,0E0,0E0,0E0,0E0,0E0,0E0,0E0,0E0,0E0,0E0,0E0,0E0,0E0,0E0,0E0,0E0,0E0,0E0,0E0,0E0,0E0,0E0,0E0,0E0,0E0,0E0,0E0,0E0,0E0,0E0,0E0,0E0,0E0,0E0,0E0,0E0,0E0,0E0,0E0,0E0,0E0,0E0,0E0,0E0,0E0,0E0,0E0,0E0,0E0,0E0,0E0,0E0,0E0,0E0,0E0,0E0,0E0,0E0,0E0,0E0,0E0,0E0],"parents":[2147483647,0,0,1,1,2,2,3,3,4,4,5,5,6,6,7,7,8,8,9,9,10,10,11,11,12,12,13,13,14,14,15,15,16,16,17,17,18,18,19,19,20,20,21,21,22,22,23,23,24,24,25,25,26,26,27,27,28,28,29,29,30,30,31,31,32,32,33,33,34,34,35,35,36,36,37,37,38,38,39,39,40,40,41,41,42,42,43,43,44,44,45,45,46,46,47,47,48,48,49,49,50,50,51,51,52,52,53,53,54,54,55,55,56,56,57,57,58,58,59,59,60,60,61,61,62,62],"right_children":[2,4,6,8,10,12,14,16,18,20,22,24,26,28,30,32,34,36,38,40,42,44,46,48,50,52,54,56,58,60,62,64,66,68,70,72,74,76,78,80,82,84,86,88,90,92,94,96,98,100,102,104,106,108,110,112,114,116,118,120,122,124,126,-1,-1,-1,-1,-1,-1,-1,-1,-1,-1,-1,-1,-1,-1,-1,-1,-1,-1,-1,-1,-1,-1,-1,-1,-1,-1,-1,-1,-1,-1,-1,-1,-1,-1,-1,-1,-1,-1,-1,-1,-1,-1,-1,-1,-1,-1,-1,-1,-1,-1,-1,-1,-1,-1,-1,-1,-1,-1,-1,-1,-1,-1,-1,-1],"split_conditions":[2.6785715E0,7.1428573E-1,9.892858E0,5.039526E-1,1.4285715E0,5.142857E0,1.975E1,5.464286E0,4.642857E-1,1.0357143E0,2E0,3.642857E0,9E0,1.6E1,3.6E1,3.5714287E-2,7.071429E0,3.5714287E-2,7.1428575E-2,7.1428575E-2,1.4285715E-1,1.4285715E-1,1.7E1,1E0,6E0,1E0,7.122511E0,1E0,1.55E1,2.9392857E1,5.4E1,4.3925697E-1,2.5E-1,6E0,1.47E0,3E0,3.9285713E-1,2.8199966E0,6.785714E-1,2.0223618E0,5E0,6E0,4E0,9E0,4E0,1.4285715E-1,4E0,4E0,2.857143E-1,1E0,2.857143E-1,7.642857E0,7.107143E0,4E0,1.8E1,7E0,1.2857142E1,1E0,1E0,1E0,1.2E1,3.442857E1,8.3E1,-2.1832863E-2,-3.397643E-2,-2.9197792E-2,-2.5175773E-2,1.0613397E-1,2.2731159E-2,3.250684E-2,1.4909603E-1,-1.3264128E-2,1.7400892E-2,-2.4058383E-2,-1.9440446E-2,-1.930736E-3,4.966662E-2,-1.6648088E-2,-1.1876445E-2,7.120921E-3,4.5958437E-2,-8.781548E-3,-2.650712E-3,1.7543549E-2,6.0898423E-2,-1.5005664E-3,5.4951953E-3,3.16284E-2,8.5313454E-2,7.984496E-3,1.608562E-2,6.0093004E-2,2.7562335E-2,1.3629557E-2,2.4455795E-2,2.6668528E-2,3.8131177E-2,7.951221E-2,4.2846885E-2,4.140937E-2,5.380144E-2,9.268025E-2,5.710942E-2,5.839697E-2,7.1685925E-2,7.112051E-2,8.4492944E-2,7.391445E-2,8.692692E-2,9.244598E-2,1.1292728E-1,8.194572E-2,9.47593E-2,9.98944E-2,1.1401041E-1,1.0524207E-1,1.1761285E-1,1.17803134E-1,1.2976196E-1,1.2047378E-1,1.3600942E-1,1.495182E-1,1.3744254E-1,1.4405005E-1,1.5655583E-1,1.6237059E-1,1.7583655E-1],"split_indices":[32,32,32,33,32,32,32,38,32,32,32,32,23,23,23,32,36,38,36,36,34,34,6,10,23,10,33,10,32,32,24,22,38,7,17,23,38,29,38,33,3,23,3,23,3,34,3,3,34,10,34,32,32,3,23,23,32,10,10,10,6,34,23,0,0,0,0,0,0,0,0,0,0,0,0,0,0,0,0,0,0,0,0,0,0,0,0,0,0,0,0,0,0,0,0,0,0,0,0,0,0,0,0,0,0,0,0,0,0,0,0,0,0,0,0,0,0,0,0,0,0,0,0,0,0,0,0],"split_type":[0,0,0,0,0,0,0,0,0,0,0,0,0,0,0,0,0,0,0,0,0,0,0,0,0,0,0,0,0,0,0,0,0,0,0,0,0,0,0,0,0,0,0,0,0,0,0,0,0,0,0,0,0,0,0,0,0,0,0,0,0,0,0,0,0,0,0,0,0,0,0,0,0,0,0,0,0,0,0,0,0,0,0,0,0,0,0,0,0,0,0,0,0,0,0,0,0,0,0,0,0,0,0,0,0,0,0,0,0,0,0,0,0,0,0,0,0,0,0,0,0,0,0,0,0,0,0],"sum_hessian":[4.485934E6,3.6574052E6,8.2852875E5,2.638303E6,1.0191023E6,5.493464E5,2.7918234E5,1.7743871E6,8.639159E5,5.8994294E5,4.2915934E5,3.278227E5,2.215237E5,1.4163473E5,1.3754761E5,1.7726901E6,1.6970361E3,4.9288075E5,3.7103512E5,3.213182E5,2.6862475E5,2.4677777E5,1.8238158E5,1.7319488E5,1.5462783E5,1.4389188E5,7.763183E4,8.86983E4,5.2936434E4,6.608346E4,7.146414E4,1.0700861E6,7.02604E5,1.1933118E3,5.0372427E2,3.252133E4,4.603594E5,1.6199189E4,3.5483594E5,1.1441846E4,3.0987634E5,1.0611312E4,2.5801344E5,8.324969E3,2.384528E5,9.836126E4,8.402032E4,1.1281304E5,6.0381824E4,1.0560948E5,4.9018348E4,9.1975055E4,5.1916812E4,6.7437266E4,1.0194563E4,5.5642633E4,3.3055668E4,2.9872273E4,2.3064162E4,4.143686E4,2.4646604E4,4.0616414E4,3.0847729E4,4.9506152E4,1.02057994E6,5.3400456E5,1.6859948E5,1.7645847E2,1.01685333E3,1.2965866E2,3.740656E2,2.8442191E4,4.0791392E3,2.7744644E5,1.8291295E5,1.5080283E4,1.1189066E3,2.4102489E5,1.1381104E5,9.652727E3,1.7891185E3,2.1845573E5,9.142061E4,9.287257E3,1.324055E3,1.4489997E5,1.1311347E5,7.4203154E3,9.0465356E2,1.3307117E5,1.05381625E5,2.9395916E3,9.5421664E4,4.6782285E4,3.7238035E4,6.2486312E4,5.032673E4,1.5695958E3,5.881223E4,6.8498836E4,3.711064E4,2.7004958E3,4.631785E4,6.4694934E4,2.7280123E4,3.0529645E4,2.1387166E4,2.859698E4,3.8840285E4,4.9407095E3,5.2538545E3,1.6947475E4,3.8695156E4,1.7718344E4,1.5337322E4,1.9294467E4,1.0577807E4,1.464704E4,8.417121E3,2.5626688E4,1.5810175E4,1.1098566E4,1.3548037E4,1.4907666E4,2.5708748E4,2.0654592E4,1.0193137E4],"tree_param":{"num_deleted":"0","num_feature":"40","num_nodes":"127","size_leaf_vector":"1"}},{"base_weights":[-1.3870226E-3,-5.931025E-1,2.450055E0,-9.039266E-1,1.575905E-1,1.772417E0,4.08299E0,-1.0501398E0,-6.417385E-1,-9.330662E-2,5.378739E-1,1.3586235E0,2.418254E0,3.600475E0,4.9970007E0,-1.0534484E0,2.0386496E0,-7.4591756E-1,-5.061123E-1,-2.337065E-1,6.3279375E-2,3.540403E-1,7.0297664E-1,1.1290306E0,1.6048874E0,2.1642272E0,2.6873782E0,3.325312E0,4.0544987E0,4.6426606E0,5.2718034E0,-1.1114565E0,-9.503287E-1,9.028469E-1,3.6284366E0,-7.626616E-1,-4.6253026E-2,-5.2270305E-1,6.184747E-1,-2.4839593E-1,1.254792E0,4.85187E-2,1.6308147E0,3.3201504E-1,1.4248616E0,6.841044E-1,2.4539614E0,1.1031917E0,2.5249767E0,1.4689492E0,1.8816748E0,1.9430058E0,2.3515627E0,2.5396974E0,3.0142694E0,3.091871E0,3.6116354E0,3.8064034E0,4.292378E0,4.3077106E0,4.7573824E0,5.1544795E0,5.648765E0,-3.372829E-2,-3.0265694E-2,-2.8797304E-2,-1.307354E-2,1.01577155E-1,1.7364856E-2,5.051098E-2,1.3269047E-1,-2.2932392E-2,4.3185227E-2,-3.3451195E-3,4.8114557E-2,-1.7542131E-2,-1.3265874E-2,1.3788167E-2,6.1263382E-2,-9.223059E-3,-3.2355716E-3,2.3177266E-2,6.0701158E-2,-1.5651367E-3,5.2847355E-3,3.8029402E-2,7.025032E-2,7.4287206E-3,1.5913254E-2,3.2243546E-2,7.411979E-2,2.4537819E-2,1.5181507E-2,5.5147357E-2,8.863417E-2,2.8385658E-2,3.8911834E-2,6.1854742E-2,1.0131237E-1,4.004593E-2,5.1396683E-2,5.467927E-2,9.6542835E-2,5.3429984E-2,6.69134E-2,6.624122E-2,7.853482E-2,7.1310945E-2,8.4613144E-2,1.1372253E-1,8.895366E-2,9.873079E-2,8.408772E-2,1.0179556E-1,1.1891425E-1,1.1266751E-1,1.455479E-1,1.24408364E-1,1.362842E-1,1.3693026E-1,1.2145204E-1,1.3511178E-1,1.4578442E-1,1.5042208E-1,1.5987885E-1,1.4439605E-1,1.7098619E-1],"categories":[],"categories_nodes":[],"categories_segments":[],"categories_sizes":[],"default_left":[0,0,0,0,0,0,0,0,0,0,0,0,0,0,0,0,0,0,0,0,0,0,0,0,0,0,0,0,0,0,0,0,0,0,0,0,0,0,0,0,0,0,0,0,0,0,0,0,0,0,0,0,0,0,0,0,0,0,0,0,0,0,0,0,0,0,0,0,0,0,0,0,0,0,0,0,0,0,0,0,0,0,0,0,0,0,0,0,0,0,0,0,0,0,0,0,0,0,0,0,0,0,0,0,0,0,0,0,0,0,0,0,0,0,0,0,0,0,0,0,0,0,0,0,0,0,0],"id":4,"left_children":[1,3,5,7,9,11,13,15,17,19,21,23,25,27,29,31,33,35,37,39,41,43,45,47,49,51,53,55,57,59,61,63,65,67,69,71,73,75,77,79,81,83,85,87,89,91,93,95,97,99,101,103,105,107,109,111,113,115,117,119,121,123,125,-1,-1,-1,-1,-1,-1,-1,-1,-1,-1,-1,-1,-1,-1,-1,-1,-1,-1,-1,-1,-1,-1,-1,-1,-1,-1,-1,-1,-1,-1,-1,-1,-1,-1,-1,-1,-1,-1,-1,-1,-1,-1,-1,-1,-1,-1,-1,-1,-1,-1,-1,-1,-1,-1,-1,-1,-1,-1,-1,-1,-1,-1,-1,-1],"loss_changes":[6.4573465E6,8.367465E5,9.57788E5,9.7218E4,1.0018635E5,1.6347512E5,1.119275E5,1.6641625E4,1.2827875E4,1.3908504E4,1.26680625E4,2.1077875E4,1.6321875E4,2.073625E4,8.5025E3,9.726625E3,3.1411826E3,6.0155625E3,7.359836E3,7.2937754E3,6.9198584E3,4.657125E3,7.263711E3,6.9554688E3,6.7640625E3,5.085875E3,5.587375E3,6.897875E3,3.6745625E3,1.4409375E3,2.13925E3,1.367E3,2.8859375E3,8.160633E2,1.1094971E3,1.935875E3,1.2924895E3,1.9408047E3,1.295458E3,2.7406426E3,1.2055352E3,3.8079958E3,7.154409E2,3.240293E3,1.4527163E3,5.1831016E3,7.137842E2,5.764625E3,1.3724746E3,3.947875E3,4.664547E3,2.6182188E3,2.5335312E3,3.6384062E3,1.3595625E3,3.2659375E3,3.55325E3,1.6024688E3,1.136E3,6.231094E2,7.05125E2,8.83875E2,4.5446875E2,0E0,0E0,0E0,0E0,0E0,0E0,0E0,0E0,0E0,0E0,0E0,0E0,0E0,0E0,0E0,0E0,0E0,0E0,0E0,0E0,0E0,0E0,0E0,0E0,0E0,0E0,0E0,0E0,0E0,0E0,0E0,0E0,0E0,0E0,0E0,0E0,0E0,0E0,0E0,0E0,0E0,0E0,0E0,0E0,0E0,0E0,0E0,0E0,0E0,0E0,0E0,0E0,0E0,0E0,0E0,0E0,0E0,0E0,0E0,0E0,0E0,0E0,0E0,0E0],"parents":[2147483647,0,0,1,1,2,2,3,3,4,4,5,5,6,6,7,7,8,8,9,9,10,10,11,11,12,12,13,13,14,14,15,15,16,16,17,17,18,18,19,19,20,20,21,21,22,22,23,23,24,24,25,25,26,26,27,27,28,28,29,29,30,30,31,31,32,32,33,33,34,34,35,35,36,36,37,37,38,38,39,39,40,40,41,41,42,42,43,43,44,44,45,45,46,46,47,47,48,48,49,49,50,50,51,51,52,52,53,53,54,54,55,55,56,56,57,57,58,58,59,59,60,60,61,61,62,62],"right_children":[2,4,6,8,10,12,14,16,18,20,22,24,26,28,30,32,34,36,38,40,42,44,46,48,50,52,54,56,58,60,62,64,66,68,70,72,74,76,78,80,82,84,86,88,90,92,94,96,98,100,102,104,106,108,110,112,114,116,118,120,122,124,126,-1,-1,-1,-1,-1,-1,-1,-1,-1,-1,-1,-1,-1,-1,-1,-1,-1,-1,-1,-1,-1,-1,-1,-1,-1,-1,-1,-1,-1,-1,-1,-1,-1,-1,-1,-1,-1,-1,-1,-1,-1,-1,-1,-1,-1,-1,-1,-1,-1,-1,-1,-1,-1,-1,-1,-1,-1,-1,-1,-1,-1,-1,-1,-1],"split_conditions":[2.607143E0,6.785714E-1,1.1178572E1,2.1428572E-1,1.4285715E0,5.428571E0,2.9392857E1,5.821429E0,4.2857143E-1,1E0,1.8571428E0,3.642857E0,7.642857E0,2E1,4.4E1,3.5714287E-2,9.254936E0,1E0,1.7142857E0,2.5714285E0,3.4285715E0,2.857143E0,5.714286E0,6.714286E0,6E0,6E0,1.2E1,1.55E1,1.975E1,2.4E1,8.2E1,4E0,5.714286E-1,4E0,6.4776935E-2,4.645644E0,7E0,4E0,7E0,5E0,5E0,4E0,7E0,5E0,5.428571E0,1.8E1,7.142857E0,4E0,9.571428E0,1E0,1.0428572E1,1E0,1E0,1E0,7.1428573E-1,1.8E1,1E0,3.4142857E1,1E0,1.3E1,3.442857E1,5.4E1,3.2845825E-2,-3.372829E-2,-3.0265694E-2,-2.8797304E-2,-1.307354E-2,1.01577155E-1,1.7364856E-2,5.051098E-2,1.3269047E-1,-2.2932392E-2,4.3185227E-2,-3.3451195E-3,4.8114557E-2,-1.7542131E-2,-1.3265874E-2,1.3788167E-2,6.1263382E-2,-9.223059E-3,-3.2355716E-3,2.3177266E-2,6.0701158E-2,-1.5651367E-3,5.2847355E-3,3.8029402E-2,7.025032E-2,7.4287206E-3,1.5913254E-2,3.2243546E-2,7.411979E-2,2.4537819E-2,1.5181507E-2,5.5147357E-2,8.863417E-2,2.8385658E-2,3.8911834E-2,6.1854742E-2,1.0131237E-1,4.004593E-2,5.1396683E-2,5.467927E-2,9.6542835E-2,5.3429984E-2,6.69134E-2,6.624122E-2,7.853482E-2,7.1310945E-2,8.4613144E-2,1.1372253E-1,8.895366E-2,9.873079E-2,8.408772E-2,1.0179556E-1,1.1891425E-1,1.1266751E-1,1.455479E-1,1.24408364E-1,1.362842E-1,1.3693026E-1,1.2145204E-1,1.3511178E-1,1.4578442E-1,1.5042208E-1,1.5987885E-1,1.4439605E-1,1.7098619E-1],"split_indices":[32,32,32,32,32,32,32,38,32,32,32,32,32,23,23,32,37,28,28,28,28,30,28,28,23,23,23,32,32,23,23,5,28,7,19,39,23,3,23,3,23,3,23,3,28,6,28,3,28,10,28,10,10,10,34,6,10,28,10,6,34,26,19,0,0,0,0,0,0,0,0,0,0,0,0,0,0,0,0,0,0,0,0,0,0,0,0,0,0,0,0,0,0,0,0,0,0,0,0,0,0,0,0,0,0,0,0,0,0,0,0,0,0,0,0,0,0,0,0,0,0,0,0,0,0,0,0],"split_type":[0,0,0,0,0,0,0,0,0,0,0,0,0,0,0,0,0,0,0,0,0,0,0,0,0,0,0,0,0,0,0,0,0,0,0,0,0,0,0,0,0,0,0,0,0,0,0,0,0,0,0,0,0,0,0,0,0,0,0,0,0,0,0,0,0,0,0,0,0,0,0,0,0,0,0,0,0,0,0,0,0,0,0,0,0,0,0,0,0,0,0,0,0,0,0,0,0,0,0,0,0,0,0,0,0,0,0,0,0,0,0,0,0,0,0,0,0,0,0,0,0,0,0,0,0,0,0],"sum_hessian":[4.451632E6,3.5860518E6,8.655801E5,2.5360155E6,1.0500362E6,6.117276E5,2.538525E5,1.6280844E6,9.0793106E5,6.326426E5,4.1739362E5,3.7284644E5,2.3888119E5,1.661486E5,8.7703914E4,1.6263434E6,1.7410796E3,5.134926E5,3.9443847E5,3.335612E5,2.9908144E5,1.9749647E5,2.1989716E5,1.929588E5,1.7988766E5,1.2289471E5,1.1598647E5,1.034593E5,6.2689293E4,3.8319973E4,4.9383938E4,1.0408287E6,5.855147E5,1.0169487E3,7.241309E2,5.0149088E5,1.2001707E4,3.887049E5,5.7335825E3,3.3030288E5,3.2583164E3,2.96293E5,2.7884287E3,1.9351814E5,3.9783306E3,2.1755448E5,2.3426724E3,1.8945477E5,3.504028E3,1.206452E5,5.9242453E4,5.635894E4,6.653577E4,7.990224E4,3.608423E4,5.700274E4,4.6456555E4,3.0698457E4,3.1990836E4,9.791285E3,2.8528688E4,3.7679145E4,1.1704797E4,9.2520825E5,1.15620445E5,5.748095E5,1.0705181E4,1.157137E2,9.01235E2,2.1143846E2,5.126925E2,5.0109338E5,3.9751352E2,1.1546564E4,4.5514185E2,2.195334E5,1.6917148E5,5.159832E3,5.7375055E2,2.32593E5,9.770987E4,2.004074E3,1.2542426E3,1.65632E5,1.3066101E5,1.8484177E3,9.40011E2,1.357763E5,5.7741855E4,2.9829404E3,9.953901E2,1.2420093E5,9.335356E4,1.0536758E3,1.2889966E3,1.0468559E5,8.476917E4,2.2735237E3,1.2305045E3,7.789677E4,4.274843E4,5.673977E4,2.5026868E3,3.6051113E4,2.0307826E4,4.324185E4,2.329392E4,5.059892E4,2.9303316E4,2.1410693E3,3.394316E4,3.3735066E4,2.326767E4,2.868174E4,1.7774816E4,2.9281697E4,1.4167612E3,2.0254875E4,1.1735961E4,4.9083413E3,4.8829434E3,8.207184E3,2.0321504E4,2.0920898E4,1.6758246E4,6.788603E2,1.1025937E4],"tree_param":{"num_deleted":"0","num_feature":"40","num_nodes":"127","size_leaf_vector":"1"}},{"base_weights":[-2.1606802E-3,-5.699013E-1,2.3091044E0,-9.0617E-1,1.4578198E-1,1.6412184E0,3.7172608E0,-1.0475581E0,-6.397187E-1,-8.306647E-2,6.1632615E-1,1.1971816E0,2.1161778E0,3.1262953E0,4.5829167E0,-1.0507812E0,2.4821684E0,-7.177202E-1,-4.5372632E-1,-2.3260063E-1,1.1532576E-1,4.7699928E-1,9.679776E-1,9.237831E-1,1.6080014E0,1.7763681E0,2.5649836E0,2.8757749E0,3.5862536E0,4.11208E0,4.953914E0,-9.1856E-1,-1.101353E0,9.869863E-1,3.6894445E0,-7.8499407E-1,-6.2746406E-1,-7.374605E-1,-4.1907248E-1,-3.383997E-1,-6.300873E-2,-1.4595292E-2,3.3758232E-1,2.1797028E-1,5.749252E-1,6.3120174E-1,1.118004E0,2.664256E-1,9.841408E-1,7.5575525E-1,1.6703544E0,1.5217593E0,2.1566637E0,2.4175162E0,3.4906642E0,2.4732456E0,3.0607584E0,3.1969483E0,3.787291E0,3.688528E0,4.2685885E0,4.769721E0,5.3296576E0,3.8036972E-2,-2.7725253E-2,-3.5275612E-2,-3.0257916E-2,5.914428E-2,-2.108683E-2,1.704764E-2,1.3219675E-1,-2.5197752E-2,-2.1315342E-2,-1.0441108E-2,-1.9718667E-2,6.90444E-2,-2.2596244E-2,-1.4680682E-2,-8.416237E-3,-1.2930283E-2,-6.8308376E-3,-1.8154051E-2,-1.1975641E-3,-1.021029E-2,1.0300323E-3,6.979797E-3,1.718241E-2,-1.1519116E-2,9.01637E-3,1.3179039E-2,2.1861829E-2,-6.3122244E-4,2.1886736E-2,2.9980198E-2,4.0718883E-2,6.9410703E-3,9.5674954E-2,2.4484668E-2,3.4787096E-2,3.804151E-2,1.3829277E-2,4.5103863E-2,5.808037E-2,4.1579526E-2,5.222278E-2,5.933008E-2,7.032989E-2,6.8170264E-2,8.120251E-2,9.704491E-2,1.2998684E-1,8.223439E-2,6.555625E-2,8.8320866E-2,9.941348E-2,7.5636566E-2,1.01544805E-1,1.1091606E-1,1.270137E-1,1.0358486E-1,1.2506363E-1,1.2255102E-1,1.4314137E-1,1.3645823E-1,1.4634933E-1,1.5537131E-1,1.6812907E-1],"categories":[],"categories_nodes":[],"categories_segments":[],"categories_sizes":[],"default_left":[0,0,0,0,0,0,0,0,0,0,0,0,0,0,0,0,0,0,0,0,0,0,0,0,0,0,0,0,0,0,0,0,0,0,0,0,0,0,0,0,0,0,0,0,0,0,0,0,0,0,0,0,0,0,0,0,0,0,0,0,0,0,0,0,0,0,0,0,0,0,0,0,0,0,0,0,0,0,0,0,0,0,0,0,0,0,0,0,0,0,0,0,0,0,0,0,0,0,0,0,0,0,0,0,0,0,0,0,0,0,0,0,0,0,0,0,0,0,0,0,0,0,0,0,0,0,0],"id":5,"left_children":[1,3,5,7,9,11,13,15,17,19,21,23,25,27,29,31,33,35,37,39,41,43,45,47,49,51,53,55,57,59,61,63,65,67,69,71,73,75,77,79,81,83,85,87,89,91,93,95,97,99,101,103,105,107,109,111,113,115,117,119,121,123,125,-1,-1,-1,-1,-1,-1,-1,-1,-1,-1,-1,-1,-1,-1,-1,-1,-1,-1,-1,-1,-1,-1,-1,-1,-1,-1,-1,-1,-1,-1,-1,-1,-1,-1,-1,-1,-1,-1,-1,-1,-1,-1,-1,-1,-1,-1,-1,-1,-1,-1,-1,-1,-1,-1,-1,-1,-1,-1,-1,-1,-1,-1,-1,-1],"loss_changes":[5.795656E6,8.53331E5,8.1914E5,9.0878125E4,1.22053414E5,1.245915E5,1.4332275E5,1.7934375E4,1.21321875E4,2.2622842E4,1.8170031E4,3.4291812E4,4.352625E4,1.9172625E4,1.982575E4,1.0527E4,2.590296E3,3.576625E3,2.4290586E3,7.8019316E3,9.46392E3,6.737707E3,5.316211E3,7.2735E3,6.4810625E3,1.57248125E4,1.6776562E4,8.01625E3,4.576375E3,3.2970625E3,4.36075E3,5.350125E3,7.86875E3,1.0746216E3,1.7755244E3,1.3800781E3,2.0965781E3,1.2894346E3,2.1438008E3,2.7451367E3,2.0910254E3,3.2967847E3,2.983003E3,3.6224978E3,4.0202383E3,2.0810762E3,2.0651094E3,1.5784979E3,4.9467344E3,1.2554468E3,5.035625E3,2.8896406E3,2.1809062E3,4.44525E3,3.6192188E3,2.6106562E3,2.16625E3,2.5261875E3,1.5328125E3,1.5092812E3,3.345625E3,9.90375E2,8.199375E2,0E0,0E0,0E0,0E0,0E0,0E0,0E0,0E0,0E0,0E0,0E0,0E0,0E0,0E0,0E0,0E0,0E0,0E0,0E0,0E0,0E0,0E0,0E0,0E0,0E0,0E0,0E0,0E0,0E0,0E0,0E0,0E0,0E0,0E0,0E0,0E0,0E0,0E0,0E0,0E0,0E0,0E0,0E0,0E0,0E0,0E0,0E0,0E0,0E0,0E0,0E0,0E0,0E0,0E0,0E0,0E0,0E0,0E0,0E0,0E0,0E0,0E0,0E0,0E0],"parents":[2147483647,0,0,1,1,2,2,3,3,4,4,5,5,6,6,7,7,8,8,9,9,10,10,11,11,12,12,13,13,14,14,15,15,16,16,17,17,18,18,19,19,20,20,21,21,22,22,23,23,24,24,25,25,26,26,27,27,28,28,29,29,30,30,31,31,32,32,33,33,34,34,35,35,36,36,37,37,38,38,39,39,40,40,41,41,42,42,43,43,44,44,45,45,46,46,47,47,48,48,49,49,50,50,51,51,52,52,53,53,54,54,55,55,56,56,57,57,58,58,59,59,60,60,61,61,62,62],"right_children":[2,4,6,8,10,12,14,16,18,20,22,24,26,28,30,32,34,36,38,40,42,44,46,48,50,52,54,56,58,60,62,64,66,68,70,72,74,76,78,80,82,84,86,88,90,92,94,96,98,100,102,104,106,108,110,112,114,116,118,120,122,124,126,-1,-1,-1,-1,-1,-1,-1,-1,-1,-1,-1,-1,-1,-1,-1,-1,-1,-1,-1,-1,-1,-1,-1,-1,-1,-1,-1,-1,-1,-1,-1,-1,-1,-1,-1,-1,-1,-1,-1,-1,-1,-1,-1,-1,-1,-1,-1,-1,-1,-1,-1,-1,-1,-1,-1,-1,-1,-1,-1,-1,-1,-1,-1,-1],"split_conditions":[2.2909992E0,8.819171E-1,9.964286E0,4.600437E-1,1.6071428E0,5E0,2.5E1,9.582005E0,5.3571427E-1,1.248809E0,2.7857144E0,4.107143E0,4.1893034E0,1.8142857E1,3.442857E1,9.917245E-1,1.47E0,6.462062E-1,3.7796447E-1,9.285714E-1,2E0,1E0,2E0,8.997354E-1,9.7590005E-1,5.428571E0,9.514331E0,8E0,1.1E1,2.2642112E-1,6.2E1,3E-1,1.0053098E0,5E-1,3.5680203E0,3.2142857E-1,3.5714287E-2,3E-1,7.8571427E-1,1E0,3.7796447E-1,5.345225E-1,1.6965574E0,3.7796447E-1,4E0,5.7735026E-1,5E0,1.5657166E1,2.7857144E0,1.22E0,6.428571E0,5E0,7.142857E0,1.3E1,3.6E1,1.7E1,1E0,3.5050983E0,3.442857E1,1E0,4.4E1,3.8E1,8.3E1,3.8036972E-2,-2.7725253E-2,-3.5275612E-2,-3.0257916E-2,5.914428E-2,-2.108683E-2,1.704764E-2,1.3219675E-1,-2.5197752E-2,-2.1315342E-2,-1.0441108E-2,-1.9718667E-2,6.90444E-2,-2.2596244E-2,-1.4680682E-2,-8.416237E-3,-1.2930283E-2,-6.8308376E-3,-1.8154051E-2,-1.1975641E-3,-1.021029E-2,1.0300323E-3,6.979797E-3,1.718241E-2,-1.1519116E-2,9.01637E-3,1.3179039E-2,2.1861829E-2,-6.3122244E-4,2.1886736E-2,2.9980198E-2,4.0718883E-2,6.9410703E-3,9.5674954E-2,2.4484668E-2,3.4787096E-2,3.804151E-2,1.3829277E-2,4.5103863E-2,5.808037E-2,4.1579526E-2,5.222278E-2,5.933008E-2,7.032989E-2,6.8170264E-2,8.120251E-2,9.704491E-2,1.2998684E-1,8.223439E-2,6.555625E-2,8.8320866E-2,9.941348E-2,7.5636566E-2,1.01544805E-1,1.1091606E-1,1.270137E-1,1.0358486E-1,1.2506363E-1,1.2255102E-1,1.4314137E-1,1.3645823E-1,1.4634933E-1,1.5537131E-1,1.6812907E-1],"split_indices":[33,33,38,33,38,23,23,39,38,33,36,38,33,34,34,22,17,31,29,38,23,23,23,29,29,34,33,23,23,22,23,17,22,17,37,38,38,17,38,23,29,29,33,29,3,29,3,33,36,17,34,3,34,23,23,6,10,29,34,10,23,25,24,0,0,0,0,0,0,0,0,0,0,0,0,0,0,0,0,0,0,0,0,0,0,0,0,0,0,0,0,0,0,0,0,0,0,0,0,0,0,0,0,0,0,0,0,0,0,0,0,0,0,0,0,0,0,0,0,0,0,0,0,0,0,0,0],"split_type":[0,0,0,0,0,0,0,0,0,0,0,0,0,0,0,0,0,0,0,0,0,0,0,0,0,0,0,0,0,0,0,0,0,0,0,0,0,0,0,0,0,0,0,0,0,0,0,0,0,0,0,0,0,0,0,0,0,0,0,0,0,0,0,0,0,0,0,0,0,0,0,0,0,0,0,0,0,0,0,0,0,0,0,0,0,0,0,0,0,0,0,0,0,0,0,0,0,0,0,0,0,0,0,0,0,0,0,0,0,0,0,0,0,0,0,0,0,0,0,0,0,0,0,0,0,0,0],"sum_hessian":[4.4167475E6,3.5457648E6,8.7098275E5,2.4123198E6,1.1334451E6,5.907801E5,2.8020262E5,1.5760236E6,8.362961E5,7.6257094E5,3.708742E5,3.0533225E5,2.8544788E5,1.6652588E5,1.1367675E5,1.5745868E6,1.4367739E3,5.891946E5,2.471015E5,4.3482816E5,3.2774275E5,2.6563247E5,1.0524173E5,1.8333134E5,1.2200092E5,1.6245444E5,1.2299345E5,1.0781472E5,5.871115E4,5.0105633E4,6.3571117E4,4.356362E5,1.1389506E6,6.4310864E2,7.9366534E2,3.3756938E5,2.5162527E5,2.6891297E4,2.202102E5,2.6777556E5,1.6705258E5,2.0683652E5,1.20906234E5,7.287438E4,1.9275808E5,3.24368E4,7.280493E4,1.54184375E4,1.679129E5,8.318895E3,1.1368202E5,9.731176E4,6.514267E4,1.0609699E5,1.6896459E4,3.3953355E4,7.386137E4,2.000251E4,3.8708637E4,1.3529311E4,3.6576324E4,4.26731E4,2.0898014E4,1.114996E3,4.345212E5,6.316203E5,5.0733028E5,4.062468E2,2.3686182E2,1.4880963E2,6.448557E2,1.9427495E5,1.4329444E5,2.426938E4,2.2735589E5,1.3747606E2,2.675382E4,1.460881E5,7.41221E4,1.4580119E5,1.2197438E5,6.8226284E3,1.6022995E5,2.70102E4,1.7982631E5,8.360705E4,3.7299188E4,8.790268E3,6.4084117E4,1.0243593E5,9.032214E4,4.2504385E3,2.8186363E4,4.867524E4,2.4129686E4,1.5237327E4,1.811101E2,8.578091E4,8.2132E4,3.0364956E3,5.282399E3,6.982606E4,4.385596E4,6.0076887E4,3.7234875E4,3.335076E4,3.1791908E4,7.064967E4,3.544732E4,1.2965478E4,3.9309827E3,1.7584791E4,1.6368565E4,5.055691E4,2.3304457E4,4.356381E3,1.5646129E4,3.222152E4,6.487117E3,9.083738E3,4.445572E3,2.6804605E4,9.771717E3,1.4076178E4,2.8596924E4,1.3516035E4,7.3819785E3],"tree_param":{"num_deleted":"0","num_feature":"40","num_nodes":"127","size_leaf_vector":"1"}},{"base_weights":[-2.9108226E-3,-5.826963E-1,2.174652E0,-8.998544E-1,1.1332299E-1,1.5710341E0,3.6797626E0,-1.0442562E0,-6.37505E-1,-1.3826194E-1,4.409461E-1,1.2093828E0,2.152099E0,3.211835E0,4.5943046E0,-1.0475953E0,1.867223E0,-6.580227E-1,-7.4931653E-3,-1.555849E-1,9.9504167E-1,2.760067E-1,6.0533416E-1,9.8519135E-1,1.4177452E0,1.9269171E0,2.38881E0,2.9586272E0,3.6358657E0,4.2320356E0,4.9060907E0,-9.126181E-1,-1.0994916E0,1.023828E0,3.650508E0,-7.4012685E-1,-5.29882E-1,-5.881309E-2,1.7747633E0,-2.822518E-1,-2.113809E-2,6.7437553E-1,1.5793983E0,2.610592E-1,2.0016122E0,5.903303E-1,2.1732967E0,1.1334625E0,8.060522E-1,1.2595264E0,1.6091527E0,2.0898666E0,1.6971459E0,2.2453227E0,2.7015398E0,3.176678E0,2.6797054E0,3.3927062E0,3.8686137E0,3.9289901E0,4.36531E0,4.79571E0,5.4807615E0,3.4899212E-2,-2.754284E-2,-3.4659855E-2,-2.9091895E-2,6.611849E-2,1.3620033E-2,5.0498918E-2,1.3686895E-1,6.0036253E-2,-2.2262204E-2,-1.7656017E-2,-1.3613289E-2,-6.392852E-3,1.1750216E-2,4.6237785E-2,9.2554525E-2,-1.0780728E-2,-5.5072377E-3,-2.7281542E-3,4.3104747E-3,3.2457773E-2,1.417425E-2,3.4936324E-2,7.275535E-2,5.200031E-3,1.2987174E-2,4.2587887E-2,7.731361E-2,2.171761E-2,1.3012637E-2,5.7627227E-2,9.856848E-2,3.326387E-2,7.140674E-2,2.3549357E-2,6.729429E-2,3.367596E-2,4.544406E-2,4.618331E-2,5.9263267E-2,9.1922514E-2,6.1748736E-2,4.508319E-2,5.7802975E-2,7.2553284E-2,6.0871825E-2,7.870906E-2,9.399864E-2,8.8295706E-2,1.0372508E-1,7.2023556E-2,8.675133E-2,1.00337125E-1,1.3309279E-1,1.1122825E-1,1.23277254E-1,1.2856573E-1,1.099189E-1,1.2523903E-1,1.3521564E-1,1.386269E-1,1.4969002E-1,1.3407345E-1,1.6594246E-1],"categories":[],"categories_nodes":[],"categories_segments":[],"categories_sizes":[],"default_left":[0,0,0,0,0,0,0,0,0,0,0,0,0,0,0,0,0,0,0,0,0,0,0,0,0,0,0,0,0,0,0,0,0,0,0,0,0,0,0,0,0,0,0,0,0,0,0,0,0,0,0,0,0,0,0,0,0,0,0,0,0,0,0,0,0,0,0,0,0,0,0,0,0,0,0,0,0,0,0,0,0,0,0,0,0,0,0,0,0,0,0,0,0,0,0,0,0,0,0,0,0,0,0,0,0,0,0,0,0,0,0,0,0,0,0,0,0,0,0,0,0,0,0,0,0,0,0],"id":6,"left_children":[1,3,5,7,9,11,13,15,17,19,21,23,25,27,29,31,33,35,37,39,41,43,45,47,49,51,53,55,57,59,61,63,65,67,69,71,73,75,77,79,81,83,85,87,89,91,93,95,97,99,101,103,105,107,109,111,113,115,117,119,121,123,125,-1,-1,-1,-1,-1,-1,-1,-1,-1,-1,-1,-1,-1,-1,-1,-1,-1,-1,-1,-1,-1,-1,-1,-1,-1,-1,-1,-1,-1,-1,-1,-1,-1,-1,-1,-1,-1,-1,-1,-1,-1,-1,-1,-1,-1,-1,-1,-1,-1,-1,-1,-1,-1,-1,-1,-1,-1,-1,-1,-1,-1,-1,-1,-1],"loss_changes":[5.537084E6,7.6457375E5,8.378085E5,9.013725E4,8.936608E4,1.3831512E5,1.12941E5,1.4922125E4,1.0918906E4,1.204002E4,1.27686875E4,1.8949625E4,1.3452125E4,1.8733E4,1.00595E4,1.0736E4,2.6387617E3,8.605969E3,2.436951E3,1.0286759E4,1.7283037E3,6.0624727E3,5.5465703E3,5.1894844E3,6.3646875E3,4.8396562E3,5.5140625E3,6.637E3,3.674375E3,1.643E3,3.00475E3,4.8414688E3,8.02025E3,8.0250354E2,9.995239E2,2.66275E3,1.4255312E3,1.800168E3,2.2058105E2,2.3662598E3,3.371119E3,4.8985278E2,1.1428457E3,3.5132666E3,6.702246E2,4.8861875E3,6.174463E2,3.2840938E3,2.6775898E3,4.0232344E3,2.4246562E3,2.3189375E3,2.3922812E3,3.1516562E3,1.289E3,4.0075625E3,2.8266562E3,1.581625E3,1.26825E3,1.1702031E3,7.4725E2,1.3304375E3,3.5775E2,0E0,0E0,0E0,0E0,0E0,0E0,0E0,0E0,0E0,0E0,0E0,0E0,0E0,0E0,0E0,0E0,0E0,0E0,0E0,0E0,0E0,0E0,0E0,0E0,0E0,0E0,0E0,0E0,0E0,0E0,0E0,0E0,0E0,0E0,0E0,0E0,0E0,0E0,0E0,0E0,0E0,0E0,0E0,0E0,0E0,0E0,0E0,0E0,0E0,0E0,0E0,0E0,0E0,0E0,0E0,0E0,0E0,0E0,0E0,0E0,0E0,0E0,0E0,0E0],"parents":[2147483647,0,0,1,1,2,2,3,3,4,4,5,5,6,6,7,7,8,8,9,9,10,10,11,11,12,12,13,13,14,14,15,15,16,16,17,17,18,18,19,19,20,20,21,21,22,22,23,23,24,24,25,25,26,26,27,27,28,28,29,29,30,30,31,31,32,32,33,33,34,34,35,35,36,36,37,37,38,38,39,39,40,40,41,41,42,42,43,43,44,44,45,45,46,46,47,47,48,48,49,49,50,50,51,51,52,52,53,53,54,54,55,55,56,56,57,57,58,58,59,59,60,60,61,61,62,62],"right_children":[2,4,6,8,10,12,14,16,18,20,22,24,26,28,30,32,34,36,38,40,42,44,46,48,50,52,54,56,58,60,62,64,66,68,70,72,74,76,78,80,82,84,86,88,90,92,94,96,98,100,102,104,106,108,110,112,114,116,118,120,122,124,126,-1,-1,-1,-1,-1,-1,-1,-1,-1,-1,-1,-1,-1,-1,-1,-1,-1,-1,-1,-1,-1,-1,-1,-1,-1,-1,-1,-1,-1,-1,-1,-1,-1,-1,-1,-1,-1,-1,-1,-1,-1,-1,-1,-1,-1,-1,-1,-1,-1,-1,-1,-1,-1,-1,-1,-1,-1,-1,-1,-1,-1,-1,-1,-1],"split_conditions":[2.5357144E0,6.4285713E-1,1.1178572E1,4.600437E-1,1.3214285E0,5.428571E0,2.9392857E1,5.464286E0,1.1428572E0,2.5714285E0,1.7857143E0,3.5E0,7.642857E0,2E1,4.5E1,9.917245E-1,1.1316865E1,4.2857143E-1,8E0,9.285714E-1,5E0,4.428571E0,5.714286E0,1.7E1,4E0,1.8E1,5E0,1.7E1,1.975E1,2.6E1,9.8E1,3E-1,3.5714287E-2,1.000247E-2,1.47E0,5.2076858E-2,4E0,1.5714285E0,1.3E1,4E0,5E0,1.3E1,3.4354327E0,1E0,7E0,1.7E1,7.8980455E0,4.928571E0,7.142857E0,1E0,9E0,7.1428573E-1,4E0,1.7E1,1.8E1,1.55E1,1.1E1,3.4142857E1,5E0,9E0,3.8E1,5.4E1,1.6222144E-2,3.4899212E-2,-2.754284E-2,-3.4659855E-2,-2.9091895E-2,6.611849E-2,1.3620033E-2,5.0498918E-2,1.3686895E-1,6.0036253E-2,-2.2262204E-2,-1.7656017E-2,-1.3613289E-2,-6.392852E-3,1.1750216E-2,4.6237785E-2,9.2554525E-2,-1.0780728E-2,-5.5072377E-3,-2.7281542E-3,4.3104747E-3,3.2457773E-2,1.417425E-2,3.4936324E-2,7.275535E-2,5.200031E-3,1.2987174E-2,4.2587887E-2,7.731361E-2,2.171761E-2,1.3012637E-2,5.7627227E-2,9.856848E-2,3.326387E-2,7.140674E-2,2.3549357E-2,6.729429E-2,3.367596E-2,4.544406E-2,4.618331E-2,5.9263267E-2,9.1922514E-2,6.1748736E-2,4.508319E-2,5.7802975E-2,7.2553284E-2,6.0871825E-2,7.870906E-2,9.399864E-2,8.8295706E-2,1.0372508E-1,7.2023556E-2,8.675133E-2,1.00337125E-1,1.3309279E-1,1.1122825E-1,1.23277254E-1,1.2856573E-1,1.099189E-1,1.2523903E-1,1.3521564E-1,1.386269E-1,1.4969002E-1,1.3407345E-1,1.6594246E-1],"split_indices":[32,32,32,33,32,32,32,38,28,28,32,32,32,23,23,22,37,32,23,32,23,28,28,6,3,6,3,6,32,23,23,17,32,19,17,22,3,28,23,3,3,6,31,10,23,6,31,30,28,10,23,34,3,6,23,32,23,28,3,6,26,26,19,0,0,0,0,0,0,0,0,0,0,0,0,0,0,0,0,0,0,0,0,0,0,0,0,0,0,0,0,0,0,0,0,0,0,0,0,0,0,0,0,0,0,0,0,0,0,0,0,0,0,0,0,0,0,0,0,0,0,0,0,0,0,0,0],"split_type":[0,0,0,0,0,0,0,0,0,0,0,0,0,0,0,0,0,0,0,0,0,0,0,0,0,0,0,0,0,0,0,0,0,0,0,0,0,0,0,0,0,0,0,0,0,0,0,0,0,0,0,0,0,0,0,0,0,0,0,0,0,0,0,0,0,0,0,0,0,0,0,0,0,0,0,0,0,0,0,0,0,0,0,0,0,0,0,0,0,0,0,0,0,0,0,0,0,0,0,0,0,0,0,0,0,0,0,0,0,0,0,0,0,0,0,0,0,0,0,0,0,0,0,0,0,0,0],"sum_hessian":[4.385739E6,3.463554E6,9.22185E5,2.3793465E6,1.0842074E6,6.5821425E5,2.6397078E5,1.5346454E6,8.4470125E5,6.132711E5,4.709362E5,4.0570844E5,2.525058E5,1.7462852E5,8.9342266E4,1.5328884E6,1.7570188E3,8.180591E5,2.6642121E4,6.0403956E5,9.231584E3,2.350762E5,2.3586E5,1.9543534E5,2.1027308E5,1.2941161E5,1.23094195E5,1.0934555E5,6.528296E4,4.1335812E4,4.800645E4,4.2570372E5,1.1071846E6,1.1945026E3,5.625163E2,4.9858838E5,3.1947075E5,2.58979E4,7.4422125E2,3.1101722E5,2.930223E5,5.9628613E3,3.2687224E3,2.3305919E5,2.0170172E3,2.3362655E5,2.2334485E3,1.0692576E5,8.8509586E4,1.15123234E5,9.514984E4,7.570816E4,5.3703453E4,8.43878E4,3.8706395E4,6.136034E4,4.798521E4,3.1939018E4,3.3343945E4,1.2640277E4,2.8695535E4,4.0283176E4,7.7232734E3,1.1192361E3,4.245845E5,7.740815E5,3.331031E5,3.8750192E2,8.070006E2,1.795379E2,3.8297842E2,3.5266202E2,4.982357E5,1.8041789E5,1.3905288E5,1.9291867E4,6.6060327E3,6.344978E2,1.0972343E2,1.7458922E5,1.3642802E5,2.0584827E5,8.7174055E4,1.9730626E3,3.9897986E3,2.195511E3,1.0732115E3,1.5429683E5,7.876235E4,1.0055102E3,1.0115071E3,1.2606344E5,1.0756311E5,1.8238016E3,4.096468E2,1.0485416E5,2.0716028E3,8.723279E4,1.2767982E3,7.492371E4,4.0199523E4,7.994375E4,1.5206091E4,2.3721375E3,7.333602E4,2.909031E4,2.461314E4,4.686004E4,3.7527758E4,3.2799004E4,5.9073906E3,3.3513555E4,2.7846781E4,2.073053E4,2.725468E4,3.0537084E4,1.4019333E3,1.9992148E4,1.3351797E4,5.3798096E3,7.2604673E3,1.2262214E4,1.643332E4,2.1207064E4,1.9076113E4,3.7474823E2,7.3485254E3],"tree_param":{"num_deleted":"0","num_feature":"40","num_nodes":"127","size_leaf_vector":"1"}},{"base_weights":[-2.3943016E-3,-5.723049E-1,2.0369442E0,-8.916687E-1,9.869904E-2,1.4407357E0,3.4045804E0,-1.0399003E0,-6.188666E-1,-1.1578605E-1,4.546904E-1,1.1032703E0,1.9690573E0,2.981707E0,4.402427E0,-1.0435387E0,1.8657113E0,-7.1208465E-1,-4.4858056E-1,-2.7894562E-1,9.2544764E-2,4.3014678E-1,2.0420506E0,9.1515857E-1,1.389575E0,2.1925888E0,1.7071328E0,2.692026E0,3.3713863E0,4.159547E0,4.7772884E0,-9.058295E-1,-1.0966758E0,4.132879E0,1.1845034E0,-7.8095144E-1,-6.0719395E-1,-5.130299E-1,-2.5803116E-1,-3.781157E-1,-1.5099095E-1,2.5760602E-2,3.7568593E-1,1.8840474E-1,5.574034E-1,1.6382829E0,4.4132543E0,1.1091563E0,7.2803396E-1,1.5547879E0,1.1512578E0,1.9830351E0,2.3924081E0,1.5094773E0,1.9430112E0,2.9556675E0,2.4663613E0,3.1742582E0,3.645647E0,3.725608E0,4.2741446E0,4.6125407E0,5.182887E0,2.7215125E-2,-2.7320517E-2,-3.527398E-2,-2.9969873E-2,7.600938E-2,1.387968E-1,2.7274108E-2,1.3174199E-1,-1.5333328E-2,-2.3915624E-2,6.350409E-2,-1.8281503E-2,-1.7238794E-2,-1.30023165E-2,-1.0213431E-2,-4.606704E-3,3.0727466E-3,-1.2215043E-2,-7.017439E-3,-4.7591337E-4,4.5904852E-3,-3.0413843E-3,1.6808296E-2,5.6783105E-3,-2.521244E-3,8.312688E-3,2.176741E-2,1.1011727E-2,5.6972366E-2,2.1234233E-2,1.3733889E-1,-3.3271257E-2,2.9381415E-2,3.9284166E-2,1.7673828E-2,2.698533E-2,4.3904282E-2,5.5104483E-2,2.9177083E-2,4.096873E-2,5.59592E-2,6.728424E-2,6.801549E-2,8.0038846E-2,3.9397385E-2,5.2301E-2,5.2504558E-2,6.513777E-2,8.479028E-2,1.0084669E-1,6.778229E-2,8.122127E-2,9.021307E-2,1.0552061E-1,1.034351E-1,1.1786189E-1,1.0669242E-1,1.2674947E-1,1.2277477E-1,1.3293819E-1,1.346941E-1,1.427437E-1,1.5051468E-1,1.6336432E-1],"categories":[],"categories_nodes":[],"categories_segments":[],"categories_sizes":[],"default_left":[0,0,0,0,0,0,0,0,0,0,0,0,0,0,0,0,0,0,0,0,0,0,0,0,0,0,0,0,0,0,0,0,0,0,0,0,0,0,0,0,0,0,0,0,0,0,0,0,0,0,0,0,0,0,0,0,0,0,0,0,0,0,0,0,0,0,0,0,0,0,0,0,0,0,0,0,0,0,0,0,0,0,0,0,0,0,0,0,0,0,0,0,0,0,0,0,0,0,0,0,0,0,0,0,0,0,0,0,0,0,0,0,0,0,0,0,0,0,0,0,0,0,0,0,0,0,0],"id":7,"left_children":[1,3,5,7,9,11,13,15,17,19,21,23,25,27,29,31,33,35,37,39,41,43,45,47,49,51,53,55,57,59,61,63,65,67,69,71,73,75,77,79,81,83,85,87,89,91,93,95,97,99,101,103,105,107,109,111,113,115,117,119,121,123,125,-1,-1,-1,-1,-1,-1,-1,-1,-1,-1,-1,-1,-1,-1,-1,-1,-1,-1,-1,-1,-1,-1,-1,-1,-1,-1,-1,-1,-1,-1,-1,-1,-1,-1,-1,-1,-1,-1,-1,-1,-1,-1,-1,-1,-1,-1,-1,-1,-1,-1,-1,-1,-1,-1,-1,-1,-1,-1,-1,-1,-1,-1,-1,-1],"loss_changes":[5.064095E6,7.297774E5,7.759995E5,9.3302125E4,8.385064E4,1.1816175E5,1.2189525E5,1.5807375E4,1.28941875E4,2.3293713E4,1.6084234E4,2.1779844E4,1.5118875E4,2.28935E4,7.79875E3,1.092425E4,2.8803945E3,3.7911562E3,3.5289492E3,4.8764355E3,5.6912817E3,1.2508109E4,6.007164E3,8.859094E3,6.311E3,5.8285E3,5.5413438E3,6.91425E3,4.66E3,2.5709375E3,2.22175E3,3.6601875E3,8.32475E3,3.2233643E2,1.2652734E3,1.3876094E3,1.2427109E3,1.0526914E3,6.253008E2,3.0226836E3,1.8802537E3,3.9403179E3,1.9763213E3,3.3881934E3,8.526633E3,1.3018154E3,8.390918E2,3.113125E3,2.9584844E3,2.4344688E3,2.5129219E3,2.074125E3,2.452E3,2.967125E3,2.3810625E3,2.8028125E3,3.11925E3,2.87125E3,2.0045E3,8.9903125E2,1.15025E3,3.9678125E2,3.8232812E2,0E0,0E0,0E0,0E0,0E0,0E0,0E0,0E0,0E0,0E0,0E0,0E0,0E0,0E0,0E0,0E0,0E0,0E0,0E0,0E0,0E0,0E0,0E0,0E0,0E0,0E0,0E0,0E0,0E0,0E0,0E0,0E0,0E0,0E0,0E0,0E0,0E0,0E0,0E0,0E0,0E0,0E0,0E0,0E0,0E0,0E0,0E0,0E0,0E0,0E0,0E0,0E0,0E0,0E0,0E0,0E0,0E0,0E0,0E0,0E0,0E0,0E0,0E0,0E0],"parents":[2147483647,0,0,1,1,2,2,3,3,4,4,5,5,6,6,7,7,8,8,9,9,10,10,11,11,12,12,13,13,14,14,15,15,16,16,17,17,18,18,19,19,20,20,21,21,22,22,23,23,24,24,25,25,26,26,27,27,28,28,29,29,30,30,31,31,32,32,33,33,34,34,35,35,36,36,37,37,38,38,39,39,40,40,41,41,42,42,43,43,44,44,45,45,46,46,47,47,48,48,49,49,50,50,51,51,52,52,53,53,54,54,55,55,56,56,57,57,58,58,59,59,60,60,61,61,62,62],"right_children":[2,4,6,8,10,12,14,16,18,20,22,24,26,28,30,32,34,36,38,40,42,44,46,48,50,52,54,56,58,60,62,64,66,68,70,72,74,76,78,80,82,84,86,88,90,92,94,96,98,100,102,104,106,108,110,112,114,116,118,120,122,124,126,-1,-1,-1,-1,-1,-1,-1,-1,-1,-1,-1,-1,-1,-1,-1,-1,-1,-1,-1,-1,-1,-1,-1,-1,-1,-1,-1,-1,-1,-1,-1,-1,-1,-1,-1,-1,-1,-1,-1,-1,-1,-1,-1,-1,-1,-1,-1,-1,-1,-1,-1,-1,-1,-1,-1,-1,-1,-1,-1,-1,-1,-1,-1,-1],"split_conditions":[2.5E0,8.819171E-1,1.0571428E1,4.600437E-1,1.4285715E0,5.214286E0,3.1357143E1,5.464286E0,5E-1,1.0714285E0,7.9393306E0,3.642857E0,1.7E1,1.6642857E1,5.2E1,9.917245E-1,5E0,3.9285713E-1,7.1428573E-1,8.214286E-1,1.7857143E0,1.4285715E0,4.6E1,1.7E1,1.7E1,7.142857E0,7.5E0,1.7E1,1E0,3.2845825E-2,8E1,3E-1,1.0053098E0,7.0215526E0,1.6642857E1,3.5714287E-2,5.2076858E-2,4E0,4E0,3.5714287E-2,1E0,1.7E1,1.8E1,5.7735026E-1,1.6E1,3.8E1,5E1,3.357143E0,4E0,5.821429E0,4E0,5E0,5E0,4E0,4E0,1.65E1,4E0,5E0,2.0928572E1,1E0,4.2E1,5.5E1,1.1E2,2.7215125E-2,-2.7320517E-2,-3.527398E-2,-2.9969873E-2,7.600938E-2,1.387968E-1,2.7274108E-2,1.3174199E-1,-1.5333328E-2,-2.3915624E-2,6.350409E-2,-1.8281503E-2,-1.7238794E-2,-1.30023165E-2,-1.0213431E-2,-4.606704E-3,3.0727466E-3,-1.2215043E-2,-7.017439E-3,-4.7591337E-4,4.5904852E-3,-3.0413843E-3,1.6808296E-2,5.6783105E-3,-2.521244E-3,8.312688E-3,2.176741E-2,1.1011727E-2,5.6972366E-2,2.1234233E-2,1.3733889E-1,-3.3271257E-2,2.9381415E-2,3.9284166E-2,1.7673828E-2,2.698533E-2,4.3904282E-2,5.5104483E-2,2.9177083E-2,4.096873E-2,5.59592E-2,6.728424E-2,6.801549E-2,8.0038846E-2,3.9397385E-2,5.2301E-2,5.2504558E-2,6.513777E-2,8.479028E-2,1.0084669E-1,6.778229E-2,8.122127E-2,9.021307E-2,1.0552061E-1,1.034351E-1,1.1786189E-1,1.0669242E-1,1.2674947E-1,1.2277477E-1,1.3293819E-1,1.346941E-1,1.427437E-1,1.5051468E-1,1.6336432E-1],"split_indices":[30,33,30,33,38,30,30,38,30,30,37,38,6,36,26,22,7,38,38,38,30,30,27,6,6,38,30,6,10,19,24,17,22,37,36,38,22,3,3,38,10,6,6,29,6,7,7,30,3,38,3,3,3,3,3,30,3,3,30,10,24,24,25,0,0,0,0,0,0,0,0,0,0,0,0,0,0,0,0,0,0,0,0,0,0,0,0,0,0,0,0,0,0,0,0,0,0,0,0,0,0,0,0,0,0,0,0,0,0,0,0,0,0,0,0,0,0,0,0,0,0,0,0,0,0,0,0],"split_type":[0,0,0,0,0,0,0,0,0,0,0,0,0,0,0,0,0,0,0,0,0,0,0,0,0,0,0,0,0,0,0,0,0,0,0,0,0,0,0,0,0,0,0,0,0,0,0,0,0,0,0,0,0,0,0,0,0,0,0,0,0,0,0,0,0,0,0,0,0,0,0,0,0,0,0,0,0,0,0,0,0,0,0,0,0,0,0,0,0,0,0,0,0,0,0,0,0,0,0,0,0,0,0,0,0,0,0,0,0,0,0,0,0,0,0,0,0,0,0,0,0,0,0,0,0,0,0],"sum_hessian":[4.35718E6,3.4054882E6,9.516918E5,2.3073208E6,1.0981676E6,6.6276756E5,2.8892422E5,1.4949885E6,8.1233225E5,6.8528406E5,4.128835E5,4.0443775E5,2.5832981E5,2.02931E5,8.5993234E4,1.4931198E6,1.8686414E3,5.249557E5,2.873766E5,3.8430547E5,3.009786E5,4.065987E5,6.284815E3,2.4407744E5,1.6036031E5,1.393739E5,1.1895591E5,1.1640762E5,8.652338E4,5.219407E4,3.3799164E4,4.157355E5,1.0773842E6,4.2995062E2,1.4386908E3,3.1688903E5,2.0806662E5,2.1474169E5,7.26349E4,2.1650305E5,1.6780242E5,2.4353766E5,5.744094E4,1.4022527E5,2.6637344E5,5.372556E3,9.122586E2,1.1983402E5,1.24243414E5,9.4700625E4,6.565969E4,6.80381E4,7.13358E4,6.4728117E4,5.422779E4,5.367781E4,6.2729805E4,5.035169E4,3.6171688E4,1.0914824E4,4.1279246E4,2.4049453E4,9.749712E3,1.1093967E3,4.1462612E5,5.952204E5,4.821639E5,1.0363527E2,3.2631534E2,1.3267253E3,1.1196546E2,1.7987951E4,2.989011E5,1.6590135E2,2.0790073E5,1.2106807E5,9.367361E4,4.0601395E4,3.2033506E4,1.2342642E4,2.041604E5,1.0398683E5,6.3815586E4,1.2171378E5,1.21823875E5,2.8859455E4,2.8581488E4,3.44356E4,1.05789664E5,1.4141964E5,1.2495379E5,4.195079E3,1.177477E3,8.861041E2,2.6154505E1,7.272686E4,4.7107164E4,6.864458E4,5.5598836E4,7.154594E4,2.3154684E4,3.5814664E4,2.9845023E4,4.6828277E4,2.1209826E4,4.9056367E4,2.2279434E4,3.5203266E4,2.9524852E4,2.939975E4,2.4828037E4,4.0716793E4,1.2961015E4,3.375844E4,2.8971363E4,3.3866777E4,1.6484914E4,2.1304684E4,1.4867006E4,8.161866E3,2.7529578E3,1.9164697E4,2.2114547E4,1.307483E4,1.0974623E4,5.995966E3,3.753746E3],"tree_param":{"num_deleted":"0","num_feature":"40","num_nodes":"127","size_leaf_vector":"1"}},{"base_weights":[-2.7778794E-3,-5.8267814E-1,1.8973931E0,-8.9551544E-1,5.8733262E-2,1.3686155E0,3.2971413E0,-1.0482849E0,-6.532465E-1,-1.6058946E-1,3.624919E-1,9.90193E-1,1.8205956E0,2.8553224E0,4.1717124E0,-1.0517952E0,1.5288508E0,-7.635272E-1,-5.3961784E-1,-1.786196E-1,8.779963E-1,3.4606326E-1,1.7065555E0,8.8290656E-1,1.2595334E0,1.5525268E0,2.030964E0,2.5065935E0,3.1203208E0,3.9292219E0,4.633606E0,-9.0714025E-1,-1.1054884E0,1.0673628E0,4.7915483E0,-7.8095144E-1,-1.4181246E-1,-5.583132E-1,3.608781E-1,-3.0179563E-1,-4.721902E-2,5.792656E-1,1.4823059E0,2.3320608E-1,4.9959406E-1,1.4046665E0,2.5605047E0,7.457557E-1,1.0395089E0,1.2067077E0,2.431215E0,1.498331E0,2.0582201E0,1.8251394E0,2.2074866E0,2.3237615E0,2.720826E0,2.9116113E0,3.4296384E0,3.6890404E0,4.126345E0,4.4803486E0,5.166863E0,3.6514103E-2,-2.7366657E-2,-3.5279237E-2,-3.0249864E-2,9.3760155E-2,1.506642E-2,7.931217E-2,1.5253402E-1,-2.3505159E-2,2.963085E-2,-7.510051E-3,2.1572834E-2,-1.8447258E-2,-1.455397E-2,5.9181554E-3,3.8644418E-2,-1.12845125E-2,-6.2100976E-3,-4.1601723E-3,2.0367673E-3,2.329593E-2,7.1027707E-3,2.9562611E-2,6.508771E-2,3.832911E-3,1.0963072E-2,1.1354061E-2,1.9510245E-2,5.8247335E-2,3.397218E-2,7.2736084E-2,1.4982769E-1,2.6167281E-2,1.7810417E-2,3.5315335E-2,2.6161874E-2,3.2653425E-2,4.1635733E-2,6.392044E-2,9.3965545E-2,4.927984E-2,3.9618574E-2,5.6126095E-2,8.186484E-2,5.950941E-2,4.8619106E-2,6.3840166E-2,7.659428E-2,7.5317554E-2,6.329178E-2,8.6265266E-2,7.491389E-2,9.317731E-2,7.864575E-2,9.667269E-2,1.071257E-1,1.17028415E-1,1.0401362E-1,1.1788496E-1,1.2800416E-1,1.2807715E-1,1.3967353E-1,1.15178145E-1,1.566439E-1],"categories":[],"categories_nodes":[],"categories_segments":[],"categories_sizes":[],"default_left":[0,0,0,0,0,0,0,0,0,0,0,0,0,0,0,0,0,0,0,0,0,0,0,0,0,0,0,0,0,0,0,0,0,0,0,0,0,0,0,0,0,0,0,0,0,0,0,0,0,0,0,0,0,0,0,0,0,0,0,0,0,0,0,0,0,0,0,0,0,0,0,0,0,0,0,0,0,0,0,0,0,0,0,0,0,0,0,0,0,0,0,0,0,0,0,0,0,0,0,0,0,0,0,0,0,0,0,0,0,0,0,0,0,0,0,0,0,0,0,0,0,0,0,0,0,0,0],"id":8,"left_children":[1,3,5,7,9,11,13,15,17,19,21,23,25,27,29,31,33,35,37,39,41,43,45,47,49,51,53,55,57,59,61,63,65,67,69,71,73,75,77,79,81,83,85,87,89,91,93,95,97,99,101,103,105,107,109,111,113,115,117,119,121,123,125,-1,-1,-1,-1,-1,-1,-1,-1,-1,-1,-1,-1,-1,-1,-1,-1,-1,-1,-1,-1,-1,-1,-1,-1,-1,-1,-1,-1,-1,-1,-1,-1,-1,-1,-1,-1,-1,-1,-1,-1,-1,-1,-1,-1,-1,-1,-1,-1,-1,-1,-1,-1,-1,-1,-1,-1,-1,-1,-1,-1,-1,-1,-1,-1],"loss_changes":[4.7718675E6,6.657731E5,7.4946325E5,8.254175E4,7.246719E4,1.25702125E5,1.0726125E5,1.2376E4,1.08069375E4,1.1828665E4,1.0069734E4,1.15575625E4,1.8882375E4,1.7034E4,1.0408375E4,1.0607125E4,2.7939595E3,4.7411094E3,7.15175E3,1.0049295E4,1.9443857E3,7.806922E3,1.4138955E3,6.1431875E3,7.0481406E3,4.0312188E3,6.811375E3,3.11E3,6.750375E3,2.86975E3,2.5851875E3,3.9930625E3,6.819875E3,1.8958848E3,1.238667E2,1.9241875E3,1.1151967E3,1.7230469E3,1.3103158E3,2.2586133E3,3.162613E3,4.8715552E2,1.2138169E3,3.6206377E3,3.4850273E3,5.91645E2,4.5643164E2,2.9328438E3,3.0772188E3,2.3333438E3,1.0247246E3,3.4083438E3,1.7823984E3,2.803375E3,2.7664062E3,1.7105156E3,1.2574688E3,3.5150625E3,1.2174688E3,1.2750625E3,9.01625E2,8.9234375E2,4.8726562E2,0E0,0E0,0E0,0E0,0E0,0E0,0E0,0E0,0E0,0E0,0E0,0E0,0E0,0E0,0E0,0E0,0E0,0E0,0E0,0E0,0E0,0E0,0E0,0E0,0E0,0E0,0E0,0E0,0E0,0E0,0E0,0E0,0E0,0E0,0E0,0E0,0E0,0E0,0E0,0E0,0E0,0E0,0E0,0E0,0E0,0E0,0E0,0E0,0E0,0E0,0E0,0E0,0E0,0E0,0E0,0E0,0E0,0E0,0E0,0E0,0E0,0E0,0E0,0E0],"parents":[2147483647,0,0,1,1,2,2,3,3,4,4,5,5,6,6,7,7,8,8,9,9,10,10,11,11,12,12,13,13,14,14,15,15,16,16,17,17,18,18,19,19,20,20,21,21,22,22,23,23,24,24,25,25,26,26,27,27,28,28,29,29,30,30,31,31,32,32,33,33,34,34,35,35,36,36,37,37,38,38,39,39,40,40,41,41,42,42,43,43,44,44,45,45,46,46,47,47,48,48,49,49,50,50,51,51,52,52,53,53,54,54,55,55,56,56,57,57,58,58,59,59,60,60,61,61,62,62],"right_children":[2,4,6,8,10,12,14,16,18,20,22,24,26,28,30,32,34,36,38,40,42,44,46,48,50,52,54,56,58,60,62,64,66,68,70,72,74,76,78,80,82,84,86,88,90,92,94,96,98,100,102,104,106,108,110,112,114,116,118,120,122,124,126,-1,-1,-1,-1,-1,-1,-1,-1,-1,-1,-1,-1,-1,-1,-1,-1,-1,-1,-1,-1,-1,-1,-1,-1,-1,-1,-1,-1,-1,-1,-1,-1,-1,-1,-1,-1,-1,-1,-1,-1,-1,-1,-1,-1,-1,-1,-1,-1,-1,-1,-1,-1,-1,-1,-1,-1,-1,-1,-1,-1,-1,-1,-1,-1],"split_conditions":[2.357143E0,6.0714287E-1,1.1178572E1,4.1785544E-1,1.2857143E0,4.642857E0,2.9392857E1,5.178571E0,3.5714287E-1,2.4285715E0,4.571429E0,5E0,6.607143E0,1.55E1,5.6E1,9.917245E-1,2.9714285E1,8.5714287E-1,1.4285715E0,8.9285713E-1,5E0,1.7857143E0,1.1E1,3.1785715E0,8.142858E0,1.2E1,8E0,4E0,2.3E1,3.6E1,1.01E2,5.2076858E-2,1.0053098E0,8E0,3.2857144E0,3.2142856E0,4E0,4E0,5E0,4E0,4E0,3.7796447E-1,2.3333333E0,4E0,4E0,1.3E1,4.5E1,1.7E1,1.7E1,5E0,7.122511E0,1.7E1,1.0428572E1,1.7E1,1.7E1,1.6E1,1.8E1,1.8E1,4E0,1.5E1,4.2E1,5.5E1,1.1189831E-2,3.6514103E-2,-2.7366657E-2,-3.5279237E-2,-3.0249864E-2,9.3760155E-2,1.506642E-2,7.931217E-2,1.5253402E-1,-2.3505159E-2,2.963085E-2,-7.510051E-3,2.1572834E-2,-1.8447258E-2,-1.455397E-2,5.9181554E-3,3.8644418E-2,-1.12845125E-2,-6.2100976E-3,-4.1601723E-3,2.0367673E-3,2.329593E-2,7.1027707E-3,2.9562611E-2,6.508771E-2,3.832911E-3,1.0963072E-2,1.1354061E-2,1.9510245E-2,5.8247335E-2,3.397218E-2,7.2736084E-2,1.4982769E-1,2.6167281E-2,1.7810417E-2,3.5315335E-2,2.6161874E-2,3.2653425E-2,4.1635733E-2,6.392044E-2,9.3965545E-2,4.927984E-2,3.9618574E-2,5.6126095E-2,8.186484E-2,5.950941E-2,4.8619106E-2,6.3840166E-2,7.659428E-2,7.5317554E-2,6.329178E-2,8.6265266E-2,7.491389E-2,9.317731E-2,7.864575E-2,9.667269E-2,1.071257E-1,1.17028415E-1,1.0401362E-1,1.1788496E-1,1.2800416E-1,1.2807715E-1,1.3967353E-1,1.15178145E-1,1.566439E-1],"split_indices":[32,32,32,33,32,32,32,38,32,28,28,23,32,32,23,22,38,28,28,32,23,32,23,32,28,23,23,3,23,23,23,22,22,7,36,38,23,3,23,3,3,35,33,3,3,6,23,6,6,3,33,6,28,6,23,6,6,6,3,6,26,26,19,0,0,0,0,0,0,0,0,0,0,0,0,0,0,0,0,0,0,0,0,0,0,0,0,0,0,0,0,0,0,0,0,0,0,0,0,0,0,0,0,0,0,0,0,0,0,0,0,0,0,0,0,0,0,0,0,0,0,0,0,0,0,0,0],"split_type":[0,0,0,0,0,0,0,0,0,0,0,0,0,0,0,0,0,0,0,0,0,0,0,0,0,0,0,0,0,0,0,0,0,0,0,0,0,0,0,0,0,0,0,0,0,0,0,0,0,0,0,0,0,0,0,0,0,0,0,0,0,0,0,0,0,0,0,0,0,0,0,0,0,0,0,0,0,0,0,0,0,0,0,0,0,0,0,0,0,0,0,0,0,0,0,0,0,0,0,0,0,0,0,0,0,0,0,0,0,0,0,0,0,0,0,0,0,0,0,0,0,0,0,0,0,0,0],"sum_hessian":[4.3305405E6,3.317957E6,1.01258356E6,2.23021E6,1.0877469E6,7.34948E5,2.7763556E5,1.3677389E6,8.624712E5,6.316659E5,4.5608103E5,4.0002788E5,3.3492016E5,1.844573E5,9.3178266E4,1.3658792E6,1.8595778E3,4.3767888E5,4.2479234E5,6.2088844E5,1.0777454E4,4.5057556E5,5.5054785E3,2.860802E5,1.13947695E5,1.4726984E5,1.876503E5,7.965289E4,1.048044E5,6.1110293E4,3.2067969E4,3.697534E5,9.961258E5,1.6309163E3,2.2866148E2,4.257463E5,1.19325625E4,4.1615322E5,8.639137E3,3.2047225E5,3.0041616E5,7.2142896E3,3.5631646E3,2.5968853E5,1.9088702E5,4.0705413E3,1.4349374E3,1.5251675E5,1.3356342E5,1.09034945E5,4.9127476E3,1.3302002E5,1.4249828E4,8.664276E4,1.0100755E5,4.298583E4,3.6667062E4,6.2588965E4,4.2215434E4,2.7560176E4,3.3550117E4,2.4920227E4,7.147744E3,8.815073E2,3.688719E5,5.7729744E5,4.188284E5,3.4987662E2,1.2810396E3,2.9288113E1,1.9937337E2,4.251333E5,6.129853E2,1.0597822E4,1.3347402E3,2.3466181E5,1.8149139E5,7.3451025E3,1.2940339E3,1.795939E5,1.4087833E5,1.6741173E5,1.3300442E5,4.57636E3,2.6379294E3,2.0702407E3,1.4929237E3,1.4448067E5,1.1520786E5,1.0584591E5,8.504112E4,1.3663888E3,2.7041523E3,1.3618871E3,7.305023E1,8.325904E4,6.925772E4,7.3293945E4,6.0269473E4,6.5975375E4,4.3059574E4,3.4428584E3,1.4698892E3,7.339699E4,5.9623023E4,1.1142689E4,3.1071384E3,4.8802734E4,3.7840027E4,8.213278E4,1.8874766E4,2.2943076E4,2.0042754E4,2.1666639E4,1.5000424E4,3.747403E4,2.5114934E4,1.7124455E4,2.5090977E4,1.4085177E4,1.3475E4,1.3989217E4,1.95609E4,1.1327697E4,1.3592528E4,2.8665405E2,6.86109E3],"tree_param":{"num_deleted":"0","num_feature":"40","num_nodes":"127","size_leaf_vector":"1"}},{"base_weights":[-1.7021188E-3,-5.81316E-1,1.779128E0,-9.119409E-1,5.9241923E-3,1.2857472E0,3.110928E0,-1.0573674E0,-6.9330746E-1,-2.2260253E-1,2.9944822E-1,9.305651E-1,1.725914E0,2.7354586E0,4.040132E0,-1.0607502E0,2.1160202E0,-7.899766E-1,-5.845523E-1,-2.421508E-1,6.931691E-1,1.6523448E-1,4.510447E-1,7.6170963E-1,1.1012478E0,1.5125244E0,1.9620826E0,2.4852726E0,3.1713428E0,3.8729432E0,4.618471E0,-9.121434E-1,-1.1132462E0,4.0977877E-1,3.2619987E0,-8.109064E-1,-2.8637314E-1,-6.0346276E-1,2.4259274E-1,-3.5933778E-1,-1.0595693E-1,5.5492556E-1,1.7992278E0,1.5056045E-1,1.3209203E0,4.3267876E-1,1.5899171E0,7.4425805E-1,2.0239167E0,1.0011525E0,1.327567E0,1.4480015E0,1.9043888E0,1.8815094E0,2.3687866E0,2.3281095E0,2.7561421E0,3.3609269E0,2.892056E0,3.6378584E0,4.082546E0,4.4859467E0,5.1599073E0,3.2405313E-2,-2.7554223E-2,-3.5280455E-2,-3.0476538E-2,3.5293546E-2,-3.4976605E-2,5.0078824E-2,1.2694606E-1,5.758849E-2,-2.4402479E-2,-1.0461361E-2,2.9559135E-2,-1.9249592E-2,-1.5313362E-2,2.2077782E-3,2.7050106E-2,-1.22451E-2,-7.283524E-3,-5.0682295E-3,1.2630236E-3,2.3611773E-2,5.2371128E-3,4.010772E-2,7.576014E-2,7.498532E-3,1.0370173E-3,3.23382E-2,7.261933E-2,1.6447986E-2,8.910414E-3,4.443849E-2,1.23061776E-1,1.954956E-2,2.8712068E-2,4.6422433E-2,8.017826E-2,3.4088135E-2,2.514493E-2,3.9101306E-2,7.784735E-2,4.7242034E-2,3.8151335E-2,5.499837E-2,8.874504E-2,6.0865838E-2,5.097091E-2,6.886453E-2,9.1064505E-2,7.526611E-2,6.291131E-2,7.983513E-2,9.209739E-2,9.672645E-2,1.0937808E-1,7.002008E-2,9.094713E-2,1.15761824E-1,1.0425709E-1,1.17977366E-1,1.2686989E-1,1.10692956E-1,1.3677217E-1,1.264652E-1,1.5608567E-1],"categories":[],"categories_nodes":[],"categories_segments":[],"categories_sizes":[],"default_left":[0,0,0,0,0,0,0,0,0,0,0,0,0,0,0,0,0,0,0,0,0,0,0,0,0,0,0,0,0,0,0,0,0,0,0,0,0,0,0,0,0,0,0,0,0,0,0,0,0,0,0,0,0,0,0,0,0,0,0,0,0,0,0,0,0,0,0,0,0,0,0,0,0,0,0,0,0,0,0,0,0,0,0,0,0,0,0,0,0,0,0,0,0,0,0,0,0,0,0,0,0,0,0,0,0,0,0,0,0,0,0,0,0,0,0,0,0,0,0,0,0,0,0,0,0,0,0],"id":9,"left_children":[1,3,5,7,9,11,13,15,17,19,21,23,25,27,29,31,33,35,37,39,41,43,45,47,49,51,53,55,57,59,61,63,65,67,69,71,73,75,77,79,81,83,85,87,89,91,93,95,97,99,101,103,105,107,109,111,113,115,117,119,121,123,125,-1,-1,-1,-1,-1,-1,-1,-1,-1,-1,-1,-1,-1,-1,-1,-1,-1,-1,-1,-1,-1,-1,-1,-1,-1,-1,-1,-1,-1,-1,-1,-1,-1,-1,-1,-1,-1,-1,-1,-1,-1,-1,-1,-1,-1,-1,-1,-1,-1,-1,-1,-1,-1,-1,-1,-1,-1,-1,-1,-1,-1,-1,-1,-1],"loss_changes":[4.4457475E6,6.3090475E5,6.94938E5,6.61E4,7.851469E4,1.20648375E5,9.972725E4,1.3406125E4,8.730094E3,1.1781592E4,1.04249375E4,1.23078125E4,1.736325E4,2.2192875E4,7.9275E3,9.728E3,2.5981426E3,4.6336875E3,6.1131875E3,1.0283984E4,2.1014688E3,4.608474E3,5.031465E3,4.726828E3,4.8092812E3,4.5733438E3,5.35325E3,5.4974375E3,3.916125E3,3.1223125E3,1.287625E3,4.107875E3,5.630125E3,6.4969354E2,1.2169961E3,2.8947188E3,1.3913876E3,1.3566562E3,9.7286334E2,1.9710469E3,2.7790955E3,1.0794333E3,5.0728662E2,3.093897E3,9.061929E2,3.7128555E3,1.0322588E3,4.1725234E3,8.9815137E2,3.2416875E3,1.991125E3,3.47E3,1.9090781E3,3.6658125E3,1.3105938E3,3.4116562E3,1.4024688E3,1.7045625E3,2.3270938E3,1.0603438E3,7.150625E2,8.3721875E2,1.12828125E2,0E0,0E0,0E0,0E0,0E0,0E0,0E0,0E0,0E0,0E0,0E0,0E0,0E0,0E0,0E0,0E0,0E0,0E0,0E0,0E0,0E0,0E0,0E0,0E0,0E0,0E0,0E0,0E0,0E0,0E0,0E0,0E0,0E0,0E0,0E0,0E0,0E0,0E0,0E0,0E0,0E0,0E0,0E0,0E0,0E0,0E0,0E0,0E0,0E0,0E0,0E0,0E0,0E0,0E0,0E0,0E0,0E0,0E0,0E0,0E0,0E0,0E0,0E0,0E0],"parents":[2147483647,0,0,1,1,2,2,3,3,4,4,5,5,6,6,7,7,8,8,9,9,10,10,11,11,12,12,13,13,14,14,15,15,16,16,17,17,18,18,19,19,20,20,21,21,22,22,23,23,24,24,25,25,26,26,27,27,28,28,29,29,30,30,31,31,32,32,33,33,34,34,35,35,36,36,37,37,38,38,39,39,40,40,41,41,42,42,43,43,44,44,45,45,46,46,47,47,48,48,49,49,50,50,51,51,52,52,53,53,54,54,55,55,56,56,57,57,58,58,59,59,60,60,61,61,62,62],"right_children":[2,4,6,8,10,12,14,16,18,20,22,24,26,28,30,32,34,36,38,40,42,44,46,48,50,52,54,56,58,60,62,64,66,68,70,72,74,76,78,80,82,84,86,88,90,92,94,96,98,100,102,104,106,108,110,112,114,116,118,120,122,124,126,-1,-1,-1,-1,-1,-1,-1,-1,-1,-1,-1,-1,-1,-1,-1,-1,-1,-1,-1,-1,-1,-1,-1,-1,-1,-1,-1,-1,-1,-1,-1,-1,-1,-1,-1,-1,-1,-1,-1,-1,-1,-1,-1,-1,-1,-1,-1,-1,-1,-1,-1,-1,-1,-1,-1,-1,-1,-1,-1,-1,-1,-1,-1,-1],"split_conditions":[2.2857144E0,5.3571427E-1,1.1178572E1,3.7796447E-1,1.1785715E0,4.642857E0,3.4142857E1,9.582005E0,3.2142857E-1,2.142857E0,1.6428572E0,3.1785715E0,7.107143E0,1.975E1,7.1E1,9.917245E-1,1.47E0,7.1428573E-1,1.2857143E0,8.214286E-1,8E0,3.5714285E0,4.571429E0,6.428571E0,1E0,1.1E1,1.5E1,1.7E1,1.7E1,4E1,1.3E2,3E-1,1.0053098E0,1.08E0,1.1316865E1,5.2076858E-2,5E0,1E0,4E0,1E0,1E0,1.4285715E-1,3.973124E0,1.7E1,1.1E1,1.7E1,9.582005E0,1E0,8.857142E0,1.7E1,8.857142E0,1.8E1,1.5E1,1.7E1,1.8E1,1.7E1,2.2E1,1E0,1.4E1,1.6E1,5E1,1.08E0,1.22E0,3.2405313E-2,-2.7554223E-2,-3.5280455E-2,-3.0476538E-2,3.5293546E-2,-3.4976605E-2,5.0078824E-2,1.2694606E-1,5.758849E-2,-2.4402479E-2,-1.0461361E-2,2.9559135E-2,-1.9249592E-2,-1.5313362E-2,2.2077782E-3,2.7050106E-2,-1.22451E-2,-7.283524E-3,-5.0682295E-3,1.2630236E-3,2.3611773E-2,5.2371128E-3,4.010772E-2,7.576014E-2,7.498532E-3,1.0370173E-3,3.23382E-2,7.261933E-2,1.6447986E-2,8.910414E-3,4.443849E-2,1.23061776E-1,1.954956E-2,2.8712068E-2,4.6422433E-2,8.017826E-2,3.4088135E-2,2.514493E-2,3.9101306E-2,7.784735E-2,4.7242034E-2,3.8151335E-2,5.499837E-2,8.874504E-2,6.0865838E-2,5.097091E-2,6.886453E-2,9.1064505E-2,7.526611E-2,6.291131E-2,7.983513E-2,9.209739E-2,9.672645E-2,1.0937808E-1,7.002008E-2,9.094713E-2,1.15761824E-1,1.0425709E-1,1.17977366E-1,1.2686989E-1,1.10692956E-1,1.3677217E-1,1.264652E-1,1.5608567E-1],"split_indices":[32,32,32,33,32,32,28,39,32,28,32,32,32,32,23,22,17,28,28,32,23,28,28,28,9,23,23,23,6,27,23,17,22,17,37,22,23,9,23,9,9,34,31,6,23,6,39,9,28,6,28,6,28,6,28,6,27,9,23,6,25,17,17,0,0,0,0,0,0,0,0,0,0,0,0,0,0,0,0,0,0,0,0,0,0,0,0,0,0,0,0,0,0,0,0,0,0,0,0,0,0,0,0,0,0,0,0,0,0,0,0,0,0,0,0,0,0,0,0,0,0,0,0,0,0,0,0],"split_type":[0,0,0,0,0,0,0,0,0,0,0,0,0,0,0,0,0,0,0,0,0,0,0,0,0,0,0,0,0,0,0,0,0,0,0,0,0,0,0,0,0,0,0,0,0,0,0,0,0,0,0,0,0,0,0,0,0,0,0,0,0,0,0,0,0,0,0,0,0,0,0,0,0,0,0,0,0,0,0,0,0,0,0,0,0,0,0,0,0,0,0,0,0,0,0,0,0,0,0,0,0,0,0,0,0,0,0,0,0,0,0,0,0,0,0,0,0,0,0,0,0,0,0,0,0,0,0],"sum_hessian":[4.307083E6,3.2494672E6,1.057616E6,2.0789736E6,1.1704936E6,7.717246E5,2.8589134E5,1.2485079E6,8.3046575E5,6.581123E5,5.1238138E5,4.270953E5,3.4462934E5,2.0361947E5,8.227187E4,1.2471794E6,1.3284717E3,4.396575E5,3.9080822E5,6.443589E5,1.3753419E4,2.71774E5,2.4060738E5,2.1470122E5,2.1239408E5,1.8105188E5,1.6357745E5,1.2937308E5,7.424639E4,6.383105E4,1.8440818E4,3.2557175E5,9.216076E5,5.346129E2,7.9385876E2,4.221133E5,1.7544205E4,3.8207362E5,8.734573E3,3.463454E5,2.9801347E5,1.22274795E4,1.5259393E3,2.6836825E5,3.4057537E3,2.3679094E5,3.81644E3,2.1177562E5,2.9255999E3,1.4726922E5,6.512486E4,1.554615E5,2.559037E4,1.3653653E5,2.7040928E4,8.1879766E4,4.749331E4,4.421542E4,3.0030969E4,3.0099875E4,3.3731176E4,1.4826032E4,3.6147866E3,1.0303881E3,3.2454138E5,5.603396E5,3.6126803E5,3.5992667E2,1.7468626E2,3.0197528E2,4.9188348E2,3.8650967E2,4.217268E5,1.6725473E4,8.1873206E2,2.7085725E5,1.1121638E5,6.9534053E3,1.7811676E3,2.4407938E5,1.0226605E5,2.0907358E5,8.893989E4,7.592098E3,4.6353813E3,9.350233E2,5.9091595E2,1.4452612E5,1.2384211E5,2.7919443E3,6.138093E2,1.2785355E5,1.0893738E5,3.660568E3,1.5587184E2,1.4756731E5,6.4208305E4,1.6896707E3,1.2359291E3,8.051332E4,6.675589E4,6.3908156E4,1.2167062E3,9.04358E4,6.5025715E4,2.3976615E4,1.613754E3,7.553018E4,6.1006348E4,2.436848E4,2.6724465E3,4.5932164E4,3.59476E4,3.6469426E4,1.1023883E4,2.9894568E4,1.4320853E4,6.01172E3,2.4019248E4,1.274934E4,1.7350535E4,1.6686467E4,1.7044709E4,1.2537756E3,1.3572256E4,1.6381029E2,3.4509763E3],"tree_param":{"num_deleted":"0","num_feature":"40","num_nodes":"127","size_leaf_vector":"1"}},{"base_weights":[-2.6167298E-3,-5.842458E-1,1.6523274E0,-9.042351E-1,-1.0838603E-2,1.1511986E0,2.8322833E0,-1.0390325E0,-6.666449E-1,-2.2799307E-1,2.575755E-1,8.438977E-1,1.5549077E0,2.4531245E0,3.7442517E0,-8.7505364E-1,-1.1022704E0,-7.496727E-1,-5.544034E-1,-3.5021976E-1,-1.0789304E-1,1.4044559E-1,4.0317255E-1,7.023195E-1,1.0268817E0,1.3316376E0,1.7334763E0,2.1705856E0,2.7636921E0,3.4663541E0,4.164151E0,-8.868854E-1,1.4117738E0,-1.1759212E0,-1.0003957E0,-7.6626855E-1,-1.5960196E-1,-1.6581362E-1,-5.79594E-1,1.6597512E-1,-3.7394392E-1,4.9272045E-1,-1.290558E-1,7.4115676E-1,1.167233E-1,1.1180613E0,3.777938E-1,6.012195E-1,8.9318794E-1,1.9313174E0,1.0029268E0,1.2297989E0,1.5593783E0,1.5700727E0,1.9277937E0,1.9948963E0,2.375894E0,2.603488E0,3.1050167E0,3.2791085E0,3.695889E0,4.0256996E0,4.7912307E0,3.0111793E-2,-2.6804313E-2,1.0045561E-1,2.3141464E-2,-3.52856E-2,-1.2512515E-2,-3.0048901E-2,6.079559E-2,-2.305566E-2,3.0240651E-2,-1.25369765E-2,9.513658E-3,-8.003871E-3,1.8813867E-2,-1.9069903E-2,-1.5289855E-2,1.7287908E-3,3.7898008E-2,-1.3205942E-2,-8.70562E-3,1.0374857E-2,4.661221E-2,-5.7037864E-3,4.0925603E-4,1.9342966E-2,5.875076E-2,1.458279E-3,8.322079E-3,3.0822972E-2,9.3160026E-2,8.686547E-3,1.6389424E-2,1.4346222E-2,2.2582551E-2,5.2665625E-2,2.5984928E-2,5.0438546E-2,9.4027944E-2,2.6948135E-2,3.5926905E-2,3.3517472E-2,4.3025125E-2,4.557849E-2,6.1941404E-2,4.347324E-2,5.3681545E-2,5.4543495E-2,6.386576E-2,5.5206098E-2,6.782661E-2,7.534552E-2,6.534799E-2,7.2962254E-2,8.654346E-2,8.9118E-2,1.0071605E-1,8.985656E-2,1.0214549E-1,1.0463012E-1,1.1550656E-1,1.1571813E-1,1.2831898E-1,1.0958826E-1,1.4547037E-1],"categories":[],"categories_nodes":[],"categories_segments":[],"categories_sizes":[],"default_left":[0,0,0,0,0,0,0,0,0,0,0,0,0,0,0,0,0,0,0,0,0,0,0,0,0,0,0,0,0,0,0,0,0,0,0,0,0,0,0,0,0,0,0,0,0,0,0,0,0,0,0,0,0,0,0,0,0,0,0,0,0,0,0,0,0,0,0,0,0,0,0,0,0,0,0,0,0,0,0,0,0,0,0,0,0,0,0,0,0,0,0,0,0,0,0,0,0,0,0,0,0,0,0,0,0,0,0,0,0,0,0,0,0,0,0,0,0,0,0,0,0,0,0,0,0,0,0],"id":10,"left_children":[1,3,5,7,9,11,13,15,17,19,21,23,25,27,29,31,33,35,37,39,41,43,45,47,49,51,53,55,57,59,61,63,65,67,69,71,73,75,77,79,81,83,85,87,89,91,93,95,97,99,101,103,105,107,109,111,113,115,117,119,121,123,125,-1,-1,-1,-1,-1,-1,-1,-1,-1,-1,-1,-1,-1,-1,-1,-1,-1,-1,-1,-1,-1,-1,-1,-1,-1,-1,-1,-1,-1,-1,-1,-1,-1,-1,-1,-1,-1,-1,-1,-1,-1,-1,-1,-1,-1,-1,-1,-1,-1,-1,-1,-1,-1,-1,-1,-1,-1,-1,-1,-1,-1,-1,-1,-1],"loss_changes":[4.1234392E6,5.8160625E5,6.5872575E5,6.5155375E4,6.617547E4,9.700481E4,1.1481525E5,1.3458375E4,6.8622812E3,9.212596E3,8.65873E3,1.15008125E4,1.3470125E4,2.057325E4,1.1357E4,9.776656E3,7.026625E3,4.1450312E3,3.0650312E3,3.809211E3,4.0236433E3,4.0095156E3,4.106086E3,4.829367E3,4.1927188E3,3.4800938E3,5.9571875E3,4.423125E3,6.0971875E3,2.5036875E3,3.341375E3,4.4804062E3,2.3026985E3,1.086875E2,1.471625E3,1.6473438E3,1.4263599E3,1.5268816E3,1.1524922E3,1.6247585E3,1.6499336E3,1.678238E3,2.664773E3,1.2519844E3,2.962541E3,1.3923174E3,3.2504434E3,3.0497227E3,2.0172656E3,1.4941055E3,3.8414219E3,2.3846562E3,9.3509375E2,2.701875E3,1.8850938E3,2.7173438E3,1.5093125E3,3.6560625E3,1.1940312E3,1.1383438E3,8.2603125E2,1.3226875E3,4.3395312E2,0E0,0E0,0E0,0E0,0E0,0E0,0E0,0E0,0E0,0E0,0E0,0E0,0E0,0E0,0E0,0E0,0E0,0E0,0E0,0E0,0E0,0E0,0E0,0E0,0E0,0E0,0E0,0E0,0E0,0E0,0E0,0E0,0E0,0E0,0E0,0E0,0E0,0E0,0E0,0E0,0E0,0E0,0E0,0E0,0E0,0E0,0E0,0E0,0E0,0E0,0E0,0E0,0E0,0E0,0E0,0E0,0E0,0E0,0E0,0E0,0E0,0E0,0E0,0E0],"parents":[2147483647,0,0,1,1,2,2,3,3,4,4,5,5,6,6,7,7,8,8,9,9,10,10,11,11,12,12,13,13,14,14,15,15,16,16,17,17,18,18,19,19,20,20,21,21,22,22,23,23,24,24,25,25,26,26,27,27,28,28,29,29,30,30,31,31,32,32,33,33,34,34,35,35,36,36,37,37,38,38,39,39,40,40,41,41,42,42,43,43,44,44,45,45,46,46,47,47,48,48,49,49,50,50,51,51,52,52,53,53,54,54,55,55,56,56,57,57,58,58,59,59,60,60,61,61,62,62],"right_children":[2,4,6,8,10,12,14,16,18,20,22,24,26,28,30,32,34,36,38,40,42,44,46,48,50,52,54,56,58,60,62,64,66,68,70,72,74,76,78,80,82,84,86,88,90,92,94,96,98,100,102,104,106,108,110,112,114,116,118,120,122,124,126,-1,-1,-1,-1,-1,-1,-1,-1,-1,-1,-1,-1,-1,-1,-1,-1,-1,-1,-1,-1,-1,-1,-1,-1,-1,-1,-1,-1,-1,-1,-1,-1,-1,-1,-1,-1,-1,-1,-1,-1,-1,-1,-1,-1,-1,-1,-1,-1,-1,-1,-1,-1,-1,-1,-1,-1,-1,-1,-1,-1,-1,-1,-1,-1],"split_conditions":[2.1785715E0,5.3571427E-1,9.892858E0,1.7857143E-1,1.1428572E0,4.428571E0,2.9392857E1,9.917245E-1,3.5714287E-1,7.8571427E-1,1.6071428E0,3.1785715E0,6.178571E0,1.55E1,5.2E1,5.178571E0,1.0053098E0,1.1547005E0,7.1428575E-2,7.1428575E-2,7.1428575E-2,3.7796447E-1,3.7796447E-1,1E0,4.8795003E-1,5E0,4E0,4E0,2.6E1,4.3E1,1.01E2,3E-1,6E0,3.7796447E-1,6.214286E0,3.107143E0,2E0,1.976047E0,4.642857E-1,2.8199966E0,4E0,3.0490496E0,5E0,5.145502E0,5E0,7.8980455E0,1E0,4E0,4.8795003E-1,9.204634E0,1E0,1E0,1.4E1,1E0,1E0,1E0,1.8E1,1E0,1E0,2.7E1,3.7E1,6.1E1,1.1189831E-2,3.0111793E-2,-2.6804313E-2,1.0045561E-1,2.3141464E-2,-3.52856E-2,-1.2512515E-2,-3.0048901E-2,6.079559E-2,-2.305566E-2,3.0240651E-2,-1.25369765E-2,9.513658E-3,-8.003871E-3,1.8813867E-2,-1.9069903E-2,-1.5289855E-2,1.7287908E-3,3.7898008E-2,-1.3205942E-2,-8.70562E-3,1.0374857E-2,4.661221E-2,-5.7037864E-3,4.0925603E-4,1.9342966E-2,5.875076E-2,1.458279E-3,8.322079E-3,3.0822972E-2,9.3160026E-2,8.686547E-3,1.6389424E-2,1.4346222E-2,2.2582551E-2,5.2665625E-2,2.5984928E-2,5.0438546E-2,9.4027944E-2,2.6948135E-2,3.5926905E-2,3.3517472E-2,4.3025125E-2,4.557849E-2,6.1941404E-2,4.347324E-2,5.3681545E-2,5.4543495E-2,6.386576E-2,5.5206098E-2,6.782661E-2,7.534552E-2,6.534799E-2,7.2962254E-2,8.654346E-2,8.9118E-2,1.0071605E-1,8.985656E-2,1.0214549E-1,1.0463012E-1,1.1550656E-1,1.1571813E-1,1.2831898E-1,1.0958826E-1,1.4547037E-1],"split_indices":[32,32,32,32,32,32,32,22,32,32,32,32,32,32,23,38,22,29,36,36,36,35,35,10,35,3,3,3,23,26,23,17,7,29,38,38,23,29,38,29,3,31,3,29,3,31,10,3,35,31,10,10,23,10,10,10,6,10,10,23,23,26,19,0,0,0,0,0,0,0,0,0,0,0,0,0,0,0,0,0,0,0,0,0,0,0,0,0,0,0,0,0,0,0,0,0,0,0,0,0,0,0,0,0,0,0,0,0,0,0,0,0,0,0,0,0,0,0,0,0,0,0,0,0,0,0,0],"split_type":[0,0,0,0,0,0,0,0,0,0,0,0,0,0,0,0,0,0,0,0,0,0,0,0,0,0,0,0,0,0,0,0,0,0,0,0,0,0,0,0,0,0,0,0,0,0,0,0,0,0,0,0,0,0,0,0,0,0,0,0,0,0,0,0,0,0,0,0,0,0,0,0,0,0,0,0,0,0,0,0,0,0,0,0,0,0,0,0,0,0,0,0,0,0,0,0,0,0,0,0,0,0,0,0,0,0,0,0,0,0,0,0,0,0,0,0,0,0,0,0,0,0,0,0,0,0,0],"sum_hessian":[4.283807E6,3.169788E6,1.1140189E6,2.034459E6,1.135329E6,7.8193375E5,3.3208522E5,1.2980194E6,7.364397E5,6.27591E5,5.0773797E5,4.43982E5,3.3795172E5,2.3456742E5,9.751777E4,3.6126528E5,9.3675406E5,4.2330247E5,3.131372E5,3.110398E5,3.1655122E5,2.8137834E5,2.2635964E5,2.5031577E5,1.9366623E5,1.5018452E5,1.8776722E5,1.2283274E5,1.1173468E5,5.868984E4,3.8827934E4,3.5940672E5,1.858557E3,5.436806E5,3.9307344E5,4.117221E5,1.1580372E4,1.906444E4,2.9407275E5,1.3666569E4,2.9737325E5,1.0772823E4,3.057784E5,1.0687707E4,2.7069062E5,7.7579907E3,2.1860166E5,1.6364323E5,8.667253E4,4.9938794E3,1.8867236E5,1.0378503E5,4.639948E4,1.0200462E5,8.576259E4,6.6199836E4,5.663291E4,7.6052086E4,3.5682598E4,3.2335318E4,2.6354521E4,3.1814877E4,7.0130576E3,1.247901E3,3.5815884E5,4.6021667E2,1.3983403E3,5.434895E5,1.910982E2,3.9291425E5,1.5919684E2,4.1120075E5,5.213456E2,7.5111147E3,4.0692573E3,1.6911822E4,2.1526172E3,1.6320578E5,1.3086697E5,1.2439899E4,1.2266703E3,1.6603031E5,1.3134292E5,9.464591E3,1.3082327E3,2.1413506E5,9.164333E4,9.905647E3,7.820596E2,1.9010522E5,8.0585414E4,7.421846E3,3.3614453E2,1.4347734E5,7.51243E4,9.0325195E4,7.331803E4,2.6305754E3,8.404195E4,4.137566E3,8.5631323E2,1.22703766E5,6.596859E4,6.693396E4,3.6851074E4,4.299436E4,3.4051204E3,6.575076E4,3.6253867E4,5.5502508E4,3.0260088E4,4.1864715E4,2.4335121E4,3.3574242E4,2.305867E4,4.726496E4,2.8787125E4,2.328895E4,1.2393648E4,9.937392E3,2.2397928E4,1.1233951E4,1.5120569E4,1.907223E4,1.2742646E4,3.4353598E2,6.6695215E3],"tree_param":{"num_deleted":"0","num_feature":"40","num_nodes":"127","size_leaf_vector":"1"}},{"base_weights":[-3.470911E-3,-5.878896E-1,1.5339135E0,-9.095777E-1,-4.789322E-2,1.1109439E0,2.7812276E0,-1.0494815E0,-6.887832E-1,-2.7312633E-1,1.9290575E-1,8.117E-1,1.5705416E0,2.439985E0,3.6258223E0,-8.842018E-1,-1.1089077E0,-7.1225786E-1,-2.351106E-1,-2.919121E-1,6.34479E-1,1.7148872E-1,9.818656E-1,6.5232563E-1,1.0035068E0,1.4067714E0,1.863541E0,2.2241485E0,2.8372571E0,3.4140625E0,4.0885854E0,-8.961171E-1,1.4280326E0,-1.1760241E0,-1.0058401E0,-7.868473E-1,-6.0824543E-1,1.5795068E-1,-4.2527792E-1,-3.896267E-1,-1.7316818E-1,4.1636375E-1,1.2719549E0,5.5909604E-2,3.0255586E-1,8.2071346E-1,1.8357978E0,5.5690217E-1,8.3220464E-1,9.028734E-1,1.1881794E0,1.2994514E0,1.6005126E0,1.7231287E0,2.0793254E0,2.0933876E0,2.4873636E0,2.6648312E0,3.1073942E0,3.0739193E0,3.56403E0,3.8750837E0,4.5003047E0,2.751474E-2,-2.7076518E-2,1.0505664E-1,2.4270764E-2,-3.528543E-2,-1.2935025E-2,-3.020551E-2,5.791651E-2,-2.3708388E-2,1.5179189E-2,-1.9715754E-2,-1.6343081E-2,1.050211E-3,2.6424186E-2,-1.4827557E-2,6.223938E-3,-9.866918E-3,-1.3749117E-2,-6.986669E-3,-1.622203E-3,3.0652063E-2,9.055025E-3,2.1513728E-2,5.340037E-2,-4.9738545E-4,5.905981E-3,6.586328E-3,1.3822178E-2,2.315374E-2,6.4773075E-2,4.9101043E-2,7.887359E-2,1.4329664E-2,2.2427186E-2,2.4435049E-2,6.1577782E-2,2.3976736E-2,3.2266412E-2,3.24291E-2,4.1517485E-2,3.3713154E-2,4.2286925E-2,4.128958E-2,5.087749E-2,5.138801E-2,1.4148381E-1,7.649522E-2,6.012449E-2,5.91628E-2,7.0514485E-2,7.697759E-2,5.7736132E-2,7.3779E-2,8.60629E-2,1.0340762E-1,8.969666E-2,7.936198E-2,9.5634244E-2,1.00295074E-1,1.1000295E-1,9.682458E-2,1.1914901E-1,1.3154775E-1,1.524384E-1],"categories":[],"categories_nodes":[],"categories_segments":[],"categories_sizes":[],"default_left":[0,0,0,0,0,0,0,0,0,0,0,0,0,0,0,0,0,0,0,0,0,0,0,0,0,0,0,0,0,0,0,0,0,0,0,0,0,0,0,0,0,0,0,0,0,0,0,0,0,0,0,0,0,0,0,0,0,0,0,0,0,0,0,0,0,0,0,0,0,0,0,0,0,0,0,0,0,0,0,0,0,0,0,0,0,0,0,0,0,0,0,0,0,0,0,0,0,0,0,0,0,0,0,0,0,0,0,0,0,0,0,0,0,0,0,0,0,0,0,0,0,0,0,0,0,0,0],"id":11,"left_children":[1,3,5,7,9,11,13,15,17,19,21,23,25,27,29,31,33,35,37,39,41,43,45,47,49,51,53,55,57,59,61,63,65,67,69,71,73,75,77,79,81,83,85,87,89,91,93,95,97,99,101,103,105,107,109,111,113,115,117,119,121,123,125,-1,-1,-1,-1,-1,-1,-1,-1,-1,-1,-1,-1,-1,-1,-1,-1,-1,-1,-1,-1,-1,-1,-1,-1,-1,-1,-1,-1,-1,-1,-1,-1,-1,-1,-1,-1,-1,-1,-1,-1,-1,-1,-1,-1,-1,-1,-1,-1,-1,-1,-1,-1,-1,-1,-1,-1,-1,-1,-1,-1,-1,-1,-1,-1],"loss_changes":[3.8284472E6,5.36314E5,6.191795E5,5.976475E4,6.2512703E4,1.20536125E5,8.56435E4,1.1630875E4,7.9918125E3,1.0154469E4,9.412281E3,1.6225719E4,1.658E4,1.8141E4,8.359125E3,8.631406E3,6.024E3,5.5349375E3,2.7600396E3,6.7699336E3,1.6782983E3,8.215559E3,2.0233672E3,4.9756797E3,4.4750938E3,4.6063438E3,3.7486562E3,4.712875E3,3.45775E3,2.9761875E3,2.3323438E3,3.6365156E3,2.0574263E3,6.075E1,1.02209375E3,1.8444844E3,9.2521094E2,1.0698704E3,1.0862153E3,1.3346562E3,1.8733589E3,6.234542E2,8.6548047E2,2.9447673E3,3.3368887E3,8.082881E2,3.6206104E2,2.8617852E3,2.1682422E3,2.7893594E3,1.7804688E3,2.7575E3,1.6864531E3,2.2780781E3,1.7193594E3,2.8507188E3,2.0046562E3,1.8957188E3,1.1417812E3,8.636406E2,9.048125E2,1.085875E3,5.793906E2,0E0,0E0,0E0,0E0,0E0,0E0,0E0,0E0,0E0,0E0,0E0,0E0,0E0,0E0,0E0,0E0,0E0,0E0,0E0,0E0,0E0,0E0,0E0,0E0,0E0,0E0,0E0,0E0,0E0,0E0,0E0,0E0,0E0,0E0,0E0,0E0,0E0,0E0,0E0,0E0,0E0,0E0,0E0,0E0,0E0,0E0,0E0,0E0,0E0,0E0,0E0,0E0,0E0,0E0,0E0,0E0,0E0,0E0,0E0,0E0,0E0,0E0,0E0,0E0],"parents":[2147483647,0,0,1,1,2,2,3,3,4,4,5,5,6,6,7,7,8,8,9,9,10,10,11,11,12,12,13,13,14,14,15,15,16,16,17,17,18,18,19,19,20,20,21,21,22,22,23,23,24,24,25,25,26,26,27,27,28,28,29,29,30,30,31,31,32,32,33,33,34,34,35,35,36,36,37,37,38,38,39,39,40,40,41,41,42,42,43,43,44,44,45,45,46,46,47,47,48,48,49,49,50,50,51,51,52,52,53,53,54,54,55,55,56,56,57,57,58,58,59,59,60,60,61,61,62,62],"right_children":[2,4,6,8,10,12,14,16,18,20,22,24,26,28,30,32,34,36,38,40,42,44,46,48,50,52,54,56,58,60,62,64,66,68,70,72,74,76,78,80,82,84,86,88,90,92,94,96,98,100,102,104,106,108,110,112,114,116,118,120,122,124,126,-1,-1,-1,-1,-1,-1,-1,-1,-1,-1,-1,-1,-1,-1,-1,-1,-1,-1,-1,-1,-1,-1,-1,-1,-1,-1,-1,-1,-1,-1,-1,-1,-1,-1,-1,-1,-1,-1,-1,-1,-1,-1,-1,-1,-1,-1,-1,-1,-1,-1,-1,-1,-1,-1,-1,-1,-1,-1,-1,-1,-1,-1,-1,-1],"split_conditions":[2.0714285E0,5E-1,1.1571428E1,3.7796447E-1,1.0357143E0,4.857143E0,3.4142857E1,9.917245E-1,8.5714287E-1,2E0,3.2857144E0,3.1785715E0,8.25E0,1.975E1,6.2E1,5.464286E0,1.0053098E0,3.2142857E-1,3.5714287E-2,7.5E-1,5E0,1.4642857E0,5.285714E0,1E0,1E0,1E0,1E0,1E0,1E0,3.2E1,7.8E1,3E-1,5E0,1.4285715E-1,6.642857E0,2.25E0,4.2857143E-1,4E0,7.8571427E-1,1.7E1,1E0,7E0,1.9255316E0,1E0,1E0,3.7857144E0,1.5E1,4E0,6E0,5E0,5E0,5E0,4E0,1.19E2,6.8E-1,1.5E1,3E0,2.4E1,6.8E-1,2.2642112E-1,4E1,3.2845825E-2,1.57E2,2.751474E-2,-2.7076518E-2,1.0505664E-1,2.4270764E-2,-3.528543E-2,-1.2935025E-2,-3.020551E-2,5.791651E-2,-2.3708388E-2,1.5179189E-2,-1.9715754E-2,-1.6343081E-2,1.050211E-3,2.6424186E-2,-1.4827557E-2,6.223938E-3,-9.866918E-3,-1.3749117E-2,-6.986669E-3,-1.622203E-3,3.0652063E-2,9.055025E-3,2.1513728E-2,5.340037E-2,-4.9738545E-4,5.905981E-3,6.586328E-3,1.3822178E-2,2.315374E-2,6.4773075E-2,4.9101043E-2,7.887359E-2,1.4329664E-2,2.2427186E-2,2.4435049E-2,6.1577782E-2,2.3976736E-2,3.2266412E-2,3.24291E-2,4.1517485E-2,3.3713154E-2,4.2286925E-2,4.128958E-2,5.087749E-2,5.138801E-2,1.4148381E-1,7.649522E-2,6.012449E-2,5.91628E-2,7.0514485E-2,7.697759E-2,5.7736132E-2,7.3779E-2,8.60629E-2,1.0340762E-1,8.969666E-2,7.936198E-2,9.5634244E-2,1.00295074E-1,1.1000295E-1,9.682458E-2,1.1914901E-1,1.3154775E-1,1.524384E-1],"split_indices":[32,32,28,33,32,32,28,22,28,28,28,32,32,32,23,38,22,32,38,32,23,32,28,10,10,10,10,10,10,26,26,17,7,28,38,38,38,23,38,6,10,6,33,10,10,38,23,23,28,23,23,23,23,26,18,27,0,23,18,22,25,19,23,0,0,0,0,0,0,0,0,0,0,0,0,0,0,0,0,0,0,0,0,0,0,0,0,0,0,0,0,0,0,0,0,0,0,0,0,0,0,0,0,0,0,0,0,0,0,0,0,0,0,0,0,0,0,0,0,0,0,0,0,0,0,0,0],"split_type":[0,0,0,0,0,0,0,0,0,0,0,0,0,0,0,0,0,0,0,0,0,0,0,0,0,0,0,0,0,0,0,0,0,0,0,0,0,0,0,0,0,0,0,0,0,0,0,0,0,0,0,0,0,0,0,0,0,0,0,0,0,0,0,0,0,0,0,0,0,0,0,0,0,0,0,0,0,0,0,0,0,0,0,0,0,0,0,0,0,0,0,0,0,0,0,0,0,0,0,0,0,0,0,0,0,0,0,0,0,0,0,0,0,0,0,0,0,0,0,0,0,0,0,0,0,0,0],"sum_hessian":[4.261042E6,3.0874028E6,1.1736391E6,1.9347984E6,1.1526042E6,8.764382E5,2.9720097E5,1.1843455E6,7.504528E5,5.9555125E5,5.5705306E5,5.308235E5,3.456147E5,2.1168111E5,8.551986E4,3.132213E5,8.7112425E5,7.135312E5,3.6921684E4,5.834755E5,1.2075763E4,5.423329E5,1.4720165E4,2.89927E5,2.4089647E5,2.2170369E5,1.2391099E5,1.3716827E5,7.451283E4,5.8680535E4,2.683932E4,3.116165E5,1.604838E3,5.275645E5,3.4355975E5,4.1553303E5,2.9799812E5,1.2038582E4,2.48831E4,3.2007828E5,2.6339722E5,8.999261E3,3.0765012E3,2.8819575E5,2.5413714E5,1.2385804E4,2.3343616E3,1.8943883E5,1.0048818E5,1.5593336E5,8.496311E4,1.426802E5,7.9023484E4,7.507391E4,4.8837086E4,9.1651266E4,4.5517008E4,4.5492227E4,2.9020602E4,1.7965533E4,4.0715004E4,1.7684617E4,9.154704E3,1.1009115E3,3.1051556E5,3.672604E2,1.2375775E3,5.2745244E5,1.1208548E2,3.434426E5,1.1715038E2,4.1443344E5,1.0996246E3,1.6824717E5,1.29750945E5,1.0290141E4,1.7484415E3,2.2437697E4,2.4454023E3,1.6987367E5,1.5020461E5,1.7542633E5,8.7970875E4,1.4296694E3,7.569592E3,1.472382E3,1.6041191E3,1.9032083E5,9.787494E4,1.6667405E5,8.74631E4,1.1951385E4,4.344186E2,1.8698215E3,4.6453995E2,1.3382445E5,5.5614383E4,9.905388E4,1.434293E3,9.744824E4,5.8485117E4,5.4902234E4,3.0060875E4,5.498003E4,8.770017E4,2.359671E4,5.5426773E4,7.482143E4,2.5246982E2,6.7209355E3,4.211615E4,6.2281164E4,2.9370102E4,3.993727E4,5.579737E3,2.2667299E4,2.2824928E4,7.450213E3,2.1570389E4,3.7800188E3,1.4185515E4,1.2942475E4,2.7772527E4,2.3013389E3,1.5383278E4,7.6486934E3,1.5060106E3],"tree_param":{"num_deleted":"0","num_feature":"40","num_nodes":"127","size_leaf_vector":"1"}},{"base_weights":[-4.423523E-3,-5.7555693E-1,1.4486648E0,-9.105217E-1,-6.200264E-2,9.887033E-1,2.476485E0,-1.0456727E0,-6.840175E-1,-2.4390185E-1,2.3140606E-1,7.302122E-1,1.3577561E0,2.0540137E0,3.1342745E0,-8.770663E-1,-1.1060963E0,-7.5767E-1,-5.3726333E-1,-3.9139423E-1,-6.489047E-2,2.1241695E-1,1.6577322E0,5.753644E-1,9.565946E-1,1.1914378E0,1.621744E0,1.8850327E0,2.3576338E0,2.699467E0,3.4164991E0,-8.8891053E-1,1.3376707E0,-1.1752564E0,-9.9992836E-1,-8.110518E-1,-6.476177E-1,2.057076E0,-5.402833E-1,-4.6990928E-1,-2.71685E-1,-1.22573175E-1,1.8948822E-1,1.0008116E-2,2.9856774E-1,1.3043947E0,3.6886714E0,7.266775E-1,4.4200385E-1,8.429293E-1,1.1278476E0,1.345356E0,1.0519404E0,1.4723703E0,1.7980502E0,1.7658695E0,2.1427703E0,2.231911E0,2.6286974E0,2.5142477E0,3.0174983E0,3.198841E0,3.8063474E0,-1.8689329E-2,-2.8047912E-2,2.853945E-2,1.19892105E-1,-3.5263885E-2,5.3346966E-4,-3.0024204E-2,5.2707702E-2,-1.8342901E-2,-2.4714313E-2,-1.1891129E-2,-2.0355828E-2,8.98862E-2,1.0810614E-2,-2.2203112E-2,-1.5121561E-2,-9.85131E-4,-1.4874966E-2,-1.651456E-2,-7.238479E-3,-5.5995444E-4,-6.7828284E-3,2.0479497E-2,2.9343353E-3,-6.9394144E-3,2.4076288E-3,5.8208555E-3,1.5035308E-2,5.4312836E-2,2.7650734E-2,1.6772296E-2,1.2340483E-1,1.8490033E-2,2.5881426E-2,1.0603524E-2,1.9357786E-2,2.1320853E-2,3.0066168E-2,3.0463776E-2,4.0179066E-2,3.654557E-2,4.4922773E-2,2.7609922E-2,3.6288694E-2,3.985952E-2,5.107823E-2,5.069402E-2,5.9191436E-2,5.836716E-2,4.89967E-2,6.89555E-2,5.9532426E-2,7.3711164E-2,6.194956E-2,7.5231425E-2,8.5966185E-2,7.150996E-2,8.422031E-2,9.788958E-2,8.5788645E-2,9.000046E-2,1.02047905E-1,1.0893606E-1,1.2833457E-1],"categories":[],"categories_nodes":[],"categories_segments":[],"categories_sizes":[],"default_left":[0,0,0,0,0,0,0,0,0,0,0,0,0,0,0,0,0,0,0,0,0,0,0,0,0,0,0,0,0,0,0,0,0,0,0,0,0,0,0,0,0,0,0,0,0,0,0,0,0,0,0,0,0,0,0,0,0,0,0,0,0,0,0,0,0,0,0,0,0,0,0,0,0,0,0,0,0,0,0,0,0,0,0,0,0,0,0,0,0,0,0,0,0,0,0,0,0,0,0,0,0,0,0,0,0,0,0,0,0,0,0,0,0,0,0,0,0,0,0,0,0,0,0,0,0,0,0],"id":12,"left_children":[1,3,5,7,9,11,13,15,17,19,21,23,25,27,29,31,33,35,37,39,41,43,45,47,49,51,53,55,57,59,61,63,65,67,69,71,73,75,77,79,81,83,85,87,89,91,93,95,97,99,101,103,105,107,109,111,113,115,117,119,121,123,125,-1,-1,-1,-1,-1,-1,-1,-1,-1,-1,-1,-1,-1,-1,-1,-1,-1,-1,-1,-1,-1,-1,-1,-1,-1,-1,-1,-1,-1,-1,-1,-1,-1,-1,-1,-1,-1,-1,-1,-1,-1,-1,-1,-1,-1,-1,-1,-1,-1,-1,-1,-1,-1,-1,-1,-1,-1,-1,-1,-1,-1,-1,-1,-1],"loss_changes":[3.521446E6,5.2397538E5,5.65987E5,5.643325E4,6.41753E4,7.8899625E4,1.028475E5,1.176125E4,7.4458125E3,1.9597938E4,1.2462875E4,1.7049844E4,1.4954875E4,1.1556375E4,1.7748E4,7.9924062E3,6.239E3,2.693875E3,1.8052891E3,3.8247617E3,4.9201123E3,7.9188965E3,4.330664E3,5.8279766E3,3.8440781E3,4.4853438E3,3.4633438E3,4.4412188E3,2.7368125E3,3.3445E3,7.4285625E3,3.7071406E3,1.6588801E3,1.26875E2,8.1453125E2,7.8578125E2,1.1631133E3,4.2502332E2,1.6641484E3,2.7844844E3,1.3660713E3,2.940101E3,2.80205E3,2.2984207E3,6.7467695E3,9.949746E2,1.1860957E3,2.0301562E3,2.7629766E3,2.4999453E3,1.8706875E3,1.9185625E3,2.2736094E3,2.35525E3,1.1385469E3,2.3554375E3,1.1216719E3,2.0610312E3,7.2003125E2,1.3679375E3,7.978594E2,2.255E3,2.5719375E3,0E0,0E0,0E0,0E0,0E0,0E0,0E0,0E0,0E0,0E0,0E0,0E0,0E0,0E0,0E0,0E0,0E0,0E0,0E0,0E0,0E0,0E0,0E0,0E0,0E0,0E0,0E0,0E0,0E0,0E0,0E0,0E0,0E0,0E0,0E0,0E0,0E0,0E0,0E0,0E0,0E0,0E0,0E0,0E0,0E0,0E0,0E0,0E0,0E0,0E0,0E0,0E0,0E0,0E0,0E0,0E0,0E0,0E0,0E0,0E0,0E0,0E0,0E0,0E0],"parents":[2147483647,0,0,1,1,2,2,3,3,4,4,5,5,6,6,7,7,8,8,9,9,10,10,11,11,12,12,13,13,14,14,15,15,16,16,17,17,18,18,19,19,20,20,21,21,22,22,23,23,24,24,25,25,26,26,27,27,28,28,29,29,30,30,31,31,32,32,33,33,34,34,35,35,36,36,37,37,38,38,39,39,40,40,41,41,42,42,43,43,44,44,45,45,46,46,47,47,48,48,49,49,50,50,51,51,52,52,53,53,54,54,55,55,56,56,57,57,58,58,59,59,60,60,61,61,62,62],"right_children":[2,4,6,8,10,12,14,16,18,20,22,24,26,28,30,32,34,36,38,40,42,44,46,48,50,52,54,56,58,60,62,64,66,68,70,72,74,76,78,80,82,84,86,88,90,92,94,96,98,100,102,104,106,108,110,112,114,116,118,120,122,124,126,-1,-1,-1,-1,-1,-1,-1,-1,-1,-1,-1,-1,-1,-1,-1,-1,-1,-1,-1,-1,-1,-1,-1,-1,-1,-1,-1,-1,-1,-1,-1,-1,-1,-1,-1,-1,-1,-1,-1,-1,-1,-1,-1,-1,-1,-1,-1,-1,-1,-1,-1,-1,-1,-1,-1,-1,-1,-1,-1,-1,-1,-1,-1,-1],"split_conditions":[2.0714285E0,7.4446815E-1,9.571428E0,3.7796447E-1,1.1785715E0,4.428571E0,2.3E1,9.690824E-1,3.9285713E-1,8.5714287E-1,7.9393306E0,3.2142856E0,6.642857E0,1.5142858E1,3.4142857E1,5.464286E0,1.0053098E0,3.5714287E-1,5.2076858E-2,6.785714E-1,1.7142857E0,1E0,2.9714285E1,1.7E1,1E0,1.6E1,4E0,5E0,5E0,2.8E1,5.7E1,1.57E0,2.9714285E1,9.1687477E-1,6.214286E0,3.5714287E-2,3.5714287E-2,1.000247E-2,1.4285715E-1,3.5714287E-2,1.4285715E-1,1.7E1,3.5714287E-2,1.4285715E-1,1.9285715E0,2E0,